25;401
0.031411485190397256,-0.01253625819631046,-0.018214105129678044,-0.001613571718039111,0.014357778628112968,-0.0014209934978410322,0.0007339839873455286,0.01253722641075948,-0.0031169474587895126,0.02170456339796639,-0.002719313362247752,0.0019239073978045518,0.005693116106680207,0.009112650127757927,-0.012359744852023232,-0.015310874282823692,-0.011748018145195672,0.0006602404278034939,0.016754989520918934,0.0035473235615104456,-0.011791446624210168,0.01242693849068411,0.015833529911468084,-0.0003253011268862038,-0.00041595386465160806,-0.017992379841499036,0.00839595779147118,-0.019818166252727584,-0.11965035007764911,-0.05628795330310068,-0.030508028079656125,-0.0076693057324556495,-0.01508421874889804,0.005403431771700755,-0.05600455282577622,-0.025541233854739775,-0.003174540139475102,0.007654546759028985,-0.004391351191952786,0.006730772491182847,0.01827377159517326,0.01726913385415222,-0.011483122057017164,-0.01750680043798897,0.017818927854048712,0.005769110772116555,-0.06063680712994591,-0.10477598633550468,-0.4111140243921869,-0.42788297569771694,-0.053139306482868125,0.05127962089881953,-0.06509657388014443,-0.06634139639987008,-0.08708516865150816,-0.014209600833047816,-0.00957954491918739,-0.018020921681745104,-0.044111496954992335,0.015760961291178346,0.011002585802801746,-0.016959573633965296,-0.011337937895383779,0.012102366147628175,-0.024728745837462665,-0.02877487292525499,-0.20092635603556575,-0.1636469378425012,-0.32015081795626094,-0.19958364468804093,0.018791294904022506,0.14709383700454964,0.07360638417208012,-0.19223868326199206,-0.08015475275767805,-0.20403280576688565,-0.07175565583031218,0.0042525540297439785,-0.04211063951024097,-0.003336044186063351,0.011423601889332247,0.007234368735758063,-0.0026564345462192856,-0.005411164495784099,-0.21984643008358887,-0.3157313029596526,-0.24800456693612472,0.0482820495419817,0.1325408251464052,0.34497667022116013,0.18678316628176997,0.29506907778277325,0.22854262239283415,0.1332434603795625,0.4328230375081865,-0.3416107371893063,-0.2718958568773193,-0.16852142689222482,-0.11674597650411438,-0.08206214719937083,-0.004905691559206743,-0.01636435476028314,0.003946139326948718,-0.025334488245205088,-0.2880433945803767,-0.21677867004550272,-0.10534424334100453,-0.07655880617861262,0.005049886613496649,0.259289309650579,0.6826241484600255,0.6883736714882839,0.5802951322014668,0.3909146210788598,0.4174382080690842,-0.18744117121658482,-0.5662719484115127,-0.24748795061938086,-0.30504783068548036,-0.22988712840097078,-0.06462661927393838,-0.02734024718702653,-0.02314233005429495,0.029794682196711286,-0.03903580043857911,0.048219581165798775,-0.09174518739031284,-0.4204985104179251,-0.1330314960611182,0.22635304549978696,0.619007962167145,0.5778306676608697,0.3346670760506344,0.02678439385453319,0.06343527587731253,-0.4140981509006154,-0.8248556945175982,-0.22761810701987104,-0.035218619493506124,-0.14453969083144155,-0.012029500160755545,0.002252928098066139,-0.04382820486868286,-0.0911915225424783,-0.10702258099193292,0.04559260912436183,0.0351821007589788,-0.15559939962260308,0.2937246851783066,0.24456523507925657,0.5479350126465713,0.49999190780226394,0.42458779120701834,0.03779835365386849,0.037084753136652084,-0.4040949437638824,-0.5864300308318939,-0.12062265669727032,0.08791038396700557,-0.1924283584004947,-0.061943925760633144,0.012954676534254918,-0.06713991722656602,-0.1640332992367401,-0.2680960152977893,-0.13781641172799228,-0.09329353287091804,-0.07026454282479551,0.32871293571574045,0.04411031283587019,0.7236306894481748,0.7407911881209132,0.10040676670252191,-0.28450053740985815,-0.09442073612648313,-0.43940830751930643,-1.0082801938623933,-0.09553482841373517,0.029049185789721883,-0.1774079093028846,-0.05254030016153624,0.006392521161166837,-0.04745005353532818,-0.326297986850336,-0.4836640008004559,-0.3804055979341303,-0.06317327175555912,-0.09203618576076186,-0.3762478490028749,-0.28647324610658786,0.778164040346971,0.4507015188841344,-0.1688140252917148,0.011554295461989907,0.17788807083321817,-0.6537379657246891,-0.8868291326262163,-0.2757049595168438,-0.0758432933337814,-0.0909187767975464,-0.1057354004868495,-0.014519562844264713,-0.15257188266557475,-0.47230905231459674,-0.5568402959693661,-0.2358089677979626,0.12466457313428085,-0.2872210292539406,-0.4292536893552645,-0.33835421618829753,0.2556136734643488,0.00978677165310291,0.1264985637499803,0.0033192471225356444,0.13669391562249059,-0.37629430458135504,-0.46163882621292296,-0.39845866718267015,-0.19877674224274303,0.07602138389494878,-0.04927617689973359,0.0020019026274660247,-0.0953398790018783,-0.4641818199382753,-0.6248558584823172,-0.1503782677418132,0.21881793325867038,0.13521496326946963,-0.22744232621235158,-0.1174116769028257,-0.16895762646636475,0.388288307001826,0.5649368908148534,0.4364526894864435,0.1056172210382705,-0.29034569503374064,-0.5137278066408795,-0.5777760241904456,-0.4730367309970526,-0.12642369037126036,-0.03182192742706276,0.008239982518947515,-0.12423760553007804,-0.5244926103333273,-0.4301346477802902,-0.10061627695446793,-0.0901113685544913,0.244013359038868,-0.3902614255484361,-0.27133293703122874,0.26078254157005615,0.2831005249780012,0.28488953948935675,0.39832472771259486,-0.17323740292008613,-0.3426165876593806,-0.271710674741656,-0.03094650457698475,-0.11839664766610596,-0.1330809957609869,-0.06094238452235266,-0.012709874863292333,-0.081338629373463,-0.39134073242968753,-0.6939084219949174,0.012259537845846437,0.2533046085106326,0.5032124816888549,-0.23374745915767828,-0.811295325388224,0.44516216088421784,0.11854530904195092,-0.12094506537565049,0.09721990789109597,0.07993254157623673,-0.2846449274187562,-0.49060509135046254,-0.29837427253888765,-0.10431728950911605,-0.08616127782347903,-0.07062958717555334,0.010601957146071424,-0.0719223727011707,-0.26453739866844156,-0.4313476390481509,0.39356408943286453,0.626985104124545,0.24418641580532466,-0.44085215997430144,-0.7592126813979554,0.11168116823755371,-0.3385198416248584,-0.618372990499731,0.15138274249840816,0.2298165464352311,-0.16237253913449204,-0.11426686307352499,0.08119124294370333,0.22395985308544294,0.09172160414183736,0.0016234982787733524,0.01750571834771447,-0.026196846130251496,-0.18267402725904017,-0.06619597903560594,0.20610959696271638,0.45071377882669245,0.08782120620545023,-0.129746487149721,-0.3632717280670632,-0.26688440722714046,-0.20943169515270707,-0.2912140173062125,-0.16024367978728876,-0.24151495297807335,-0.138054652035387,0.24284193603863288,0.41018684463098043,0.239259757777381,0.12322238265010754,-0.05456098694900253,0.019224032326363594,0.010129387242933122,-0.07644372038418695,0.10638004709156768,0.2968934945868016,0.33563632871079513,-0.20076842408295262,-0.36530854492530396,-0.5553839500090808,-0.491868668378628,-0.22415539083638514,-0.12715144245608867,0.0026214945079451966,-0.06754566744819974,0.23947671013107938,0.5418035481272747,0.3483963323156448,0.14705820045634954,0.11247979053706228,-0.017593463745343735,0.01029192245842957,0.016055792652922937,0.05214142726969598,0.12960877662979892,0.2310419443306277,0.38995645364064446,0.07573000317698185,-0.17411009982375605,-0.2810787657892055,-0.3138646184059871,-0.34117644312975703,-0.10198323176299495,0.1642204807827203,0.09423275675807602,0.2248511657959044,0.2134640232813224,0.09887094098105693,0.008669543349523733,0.039310938751170914,-0.0062756443747350584,-0.016816710553791085,-0.008079290912195777,0.010483848385659187,0.03398363883994142,-0.037921632928823355,0.057931349695770226,0.15566405699540473,0.0765568673720234,0.0013906262616714556,-0.04555719752793314,-0.022335992435964055,0.05636488167601518,0.08036543387442519,0.04893587414252714,-0.026351847176266135,-0.01667520733523362,0.009367662312410338,-0.003630742919991406,0.011005730131646498,0.01860308832341706,0.01816864955466306,0.006998552167438275,0.014781297699373957,-0.0026256939973365603,-0.14195864065139202,-0.14115193432153086,-0.01858635599044215,0.00079793546350507,-0.008008072631389479,-0.01899378505520769,0.014566085446486698,0.008902716414826047,-0.016566612919422782,0.010873493220020921,-0.0003202147052901524,0.004139161251685005,0.005900360032504846,-0.0036044586658800257,-0.006599925721480257,-0.01563772014811047,-0.6192338585428212,-0.005968701337107982,0.007541672364620681,0.014558992005270536,-0.0099293030626863,0.014537321953619372,-0.008309335583049993,0.0037499730709196566,0.00045709412170987456,-0.011047184495118269,-0.001817770019352545,0.008037740251241135,0.006269892394229495,-0.00744427783474728,0.021211543412508898,0.010026998462571737,-0.017547692662671217,-0.007549619228342917,0.014557066798755207,0.006569113305714246,-0.011462646380170584,-0.018623401720557212,-0.0019752565746353067,0.017139036498285427,0.015235623952599904,-0.015848820941381275,-0.036270510561934054,-0.020574765103423563,-0.024112952046381232,-0.03312477615395509,-0.0009308543991356029,-0.014966834127803951,0.013565788446534836,0.03271927557035277,-0.05457335954563816,-0.03907487817999688,-0.021710485183362736,-0.02105986354436277,-0.022208848906820733,0.013885062714823163,-0.009841341215281877,-0.012427511805215391,0.008300301062736958,0.0020633366138486917,0.0421802174470988,0.09402177055910406,0.10910688671616484,0.09215524437555135,-0.13580104129603035,-0.2026794596563727,-0.18528933599456618,-0.1336862356676321,-0.14234602618940556,0.052666682149603135,0.17111217437684334,0.09259069796234978,0.11191001476348685,0.11798605817815568,0.12966182757461628,0.017706440920239746,0.004181647927338398,0.005458302610543092,-0.00669152650382199,-0.01270792836963675,0.1240324647290142,0.21459391684083948,0.24120763775567913,0.1200505201040693,-0.30044198211874135,-0.4872286930121206,-0.26954941451252357,-0.1428766396324059,-0.013246451340278543,0.1419120434369676,0.36768232729483125,0.44110428579622313,0.1592964753949423,0.3630701143116991,0.3424190709106491,0.04260805457738998,-0.006301103368788077,0.0017612988080786536,-0.017273533233408737,-0.003973339715711098,0.22962872192013986,0.37111243359574086,0.2820659657814165,0.18249203823647098,0.13705459457759409,-0.16687549598508047,-0.03907482481375414,0.0647135392382428,-0.009704139501292867,-0.6121356310210041,-0.4440848436055863,0.14376109730269943,-0.1677387208328603,0.031112179450592636,0.44164140640531346,0.09300063179309559,0.0104203361971762,-0.011210511034964425,0.006697284226626014,0.058769318252895345,0.36872191282258504,0.2804225319125148,-0.19033143172805503,-0.20037329996505893,-0.08368131497400096,-0.1786679918468978,0.26752890872175156,0.05415894057501752,-0.19067418480335002,-0.3670538628652263,-0.5072089633096005,-0.049492348187182594,0.0036570796020688164,-0.09475746150829668,0.371169752837294,0.1632299881050306,0.001102516359307245,0.02111311548642343,0.07934671080671266,0.16157314292181055,0.19026340106445502,0.08780542720692736,-0.22079388482179377,-0.3728507300948131,-0.3510013403082254,0.12005640958396373,0.2892789819081206,0.2878973525577772,0.3111488051258762,0.4313038986428578,0.03391874632255605,-0.19114876315609056,0.11560636750320342,0.2464308344047368,0.06476943127647904,0.2744637973166298,-0.0034934435413595333,-0.016172355379987482,0.05540612862025164,0.1667837907211844,0.17903728691691279,0.2518661134264353,-0.21208709249595895,-0.3426488631464383,-0.5028016576675448,0.19994342702264822,-0.07610785713176917,0.024717831629568882,0.0073558366202081645,-0.5141694863064741,-0.04796008974828041,-0.23546660991311763,0.18713166959231384,0.09373785471058393,-0.01715882961799842,0.3622601993124067,-0.013337731380774936,-0.012232812908797233,-0.021269510290917892,0.11035658948043277,0.08223900314863436,-0.08788486995422212,-0.22590235871862008,-0.3899004878802935,-0.6726225851098709,-0.24336914504412396,-0.3124988215436762,-0.012461148028801038,-0.12310603420862504,-0.5043452605397464,-0.04605777131850177,-0.2557028106003027,0.04727496277674842,-0.46059600154742447,-0.013811817996425974,0.2715029247307787,-0.023712042855080655,0.02016531483978265,-0.04827018510944601,0.2601631255623252,0.16422142988593244,-0.3084069654455889,0.09734876348556186,0.20564746842953183,-0.7498052328567448,-0.168951697432349,0.4158204495849,0.5151335693701107,0.39416627481083194,0.23094461721984838,0.37727416785585766,0.11031543801958354,-0.5301146550566199,-0.4774272387207077,0.1735824645390243,0.2613309095470793,-0.01697793209427046,-0.001493998985134228,0.09149807694043476,0.3017211269291116,-0.1414014554456417,-0.6749703069957615,0.1596812393291511,0.008000599477254983,-0.0329255026408905,0.3521121863105454,0.6414119101526855,0.903295610943905,0.21781592309943537,-0.4563216913874489,0.23546790573044635,0.6502001038539043,0.1766127260702272,0.13045253949408742,-0.3372267643144867,0.04039074372272698,0.0480635659851025,0.002933953798710228,0.1356840401520743,0.5510327332255869,0.2575242133937409,-0.4608542150057956,-0.19014211557284183,0.18958231317768914,0.21509370112616152,-0.2615032627162249,0.2881078792627361,0.42770849088682344,0.24777831587680332,-0.2839502500751542,0.08029690935919283,0.548168615196957,0.3604226599607921,0.16503094615635516,-0.45320199934323213,-0.1014247213675247,0.007345293500329062,-0.005919985303564286,0.172174152727407,0.6702114115791837,-0.13446386079343017,-0.3036558180833871,-0.05513410762939846,-0.24587422315633997,-0.22377913441117117,0.2658073151843783,0.7731744149728359,0.20270737581432807,0.36086268197249544,-0.11479498836600252,0.014425757106502237,0.08347221654160018,0.275982147927034,0.21395958545408691,-0.3156446065673938,-0.14534447487887123,-0.04170454553913625,0.0044292724187688735,0.14567737231398414,0.5938285490316247,0.16078264208852533,0.0727019657967998,0.05840895155049247,-0.4047585743637665,-0.263228796993612,0.1192284027716112,0.28623364970124904,0.2643520495864268,0.10785923682293076,0.40275939340598815,0.1779484322646401,0.12861775261883154,0.3121103987959729,0.09847175891118255,-0.10319552243126763,-0.059661314329148535,-0.0028418359966595817,0.007248201531967647,0.0974865241611332,0.33216724711239637,0.08671736886800023,-0.1135772855560902,-0.09429371368307328,-0.09562421638792117,-0.22225133515479747,-0.1823676701049619,-0.23567596641367944,0.15310757208009232,-0.32855599947867464,0.10442292707413219,0.18521831006635167,-0.05926167492122854,0.1966282128305001,0.06717131440838231,-0.12861331228391074,0.02661488160958709,-0.0013447249636690905,0.007932760876825054,0.035680504702018154,0.11938204937828299,0.008854133158309564,-0.2735293003570762,-0.24789389591258926,-0.2214252709385821,-0.01831185106520743,-0.039466007291913165,-0.30656331949763665,0.31290000208401325,0.2812697185708182,0.18302360872749437,-0.06935872510927854,-0.22908076485408121,-0.4270515131171289,-0.4929713305914232,0.0022141556509246148,0.05750282099062229,-0.05065846849941532,0.0034807339378101296,-0.014112331780945467,0.015847674964658425,0.18758967603050233,-0.006477428275427312,-0.2518547588244685,-0.5879027597360648,-0.28910357023888866,0.002010907374571251,-0.21608793019173192,0.031253121172975865,0.34312510952571157,0.009605378872211153,-0.4390976794244527,-0.5050814935796537,-0.5169119842446019,-0.22988150399989404,0.04587479681537394,0.05117938503374033,-0.006097182484526933,-0.0015728035722779273,-0.016565387921987248,-0.03134201220683982,-0.03194249252805844,-0.11760378245235963,-0.34811269138554257,-0.676498548907365,-0.3950562920980298,-0.1670421297845475,0.031474952093065084,0.001192397720872217,-0.19989890923592923,-0.37973978913432527,-0.3961787509428528,-0.14913021143925373,-0.05100038944016325,-0.0016978944456668347,-0.007485048010491628,-0.007485244541727344,0.004761283185293278,0.009498114184615096,0.005607049317833218,0.009308858266441069,-0.050962563907312616,-0.06481960181262164,-0.10140435062432816,-0.17685678872089364,-0.09394504721413213,-0.13517857867820504,-0.09343867148643299,-0.0010619655628981064,-0.13028931200701477,-0.11853522072922759,-0.06829438284083303,-0.006763282566711125,0.06412605745686631,0.006452222862151625,-0.0054620286433273955,-0.01809743675819088,0.001151626297164625,-0.0008408691026883974,0.013420924973240978,0.009754391431230061,-0.0010033371771894465,0.007575008612612805,-0.017141242455443514,0.0002935811764344071,-0.007122844664450944,-0.02891308083926824,0.0029085128455976833,-0.003997356696495966,-0.034282068047339444,-0.030854113702114938,0.010450304294225778,0.011254679571279222,-0.00924583419713642,0.012583499245823509,-0.01012341772663125,-0.01750494118904445,-0.009031501506893384,0.28687639751088645,0.01546147701940419,-0.009618142824492519,0.0006266643687460764,0.016163973856633682,-0.009750180389159143,-0.009281350377945129,-0.012615802323531076,0.01675501165782302,-0.004616912815937921,0.0036491574091513635,-0.004202601026479049,0.014788718743458492,-0.016602843777280923,0.015980778702845935,0.004180885751477051,0.009446071758136138,-0.002333123782681649,0.017913991083073587,0.0006843031090577079,-0.006047269709738507,0.01523508054605809,-0.01806377238101601,0.008055975249287807,0.0026581838030834636,-0.010046058738780275,-0.000986725327768164,0.022258465384003556,0.0060690788119442856,0.017095536292292393,0.0031108127279155713,0.01682119941754422,0.0048382649243147,0.011392582989359133,0.018656207250927658,-0.006901324909852048,-0.007630011060599847,-0.008040497456089224,0.005066927986121916,0.0034800143858290562,0.0009873387418337107,0.017029046225515362,0.006639292300524212,-0.008693762140921412,-0.004637571237352476,0.02210241020501038,0.06635603327390024,0.1415624414575908,0.21211486681588768,0.19402520825106156,0.12539121987868998,0.060726537666557785,0.06919315439182391,0.06770505918257236,0.0013744812024202885,0.020140426276137716,-0.000917507706526067,-0.054841105273251714,-0.06497440874029754,0.00021349348625077975,0.0011799567144072463,-0.015434837186042057,-0.01606810860376541,0.01293865110508749,0.0015298764183375205,0.02575981470694951,0.11256303040135367,0.23616961225186275,0.2789520083369352,0.1125563044467018,-0.014180536221320551,-0.007706350095096245,0.15074800853384074,0.10082614157551888,-0.120243075164178,-0.2801324879714559,-0.15335084054162046,-0.11779218242687006,-0.10291551765858777,0.03509251848761341,0.014069553771875092,0.01081182839615711,-0.0034237240664490394,0.008261847640026609,-0.03107558803981484,-0.050636192503789375,0.08054845194525022,0.026446164106648917,0.008939392511109239,-0.03196726297775485,-0.09754058741475317,0.12572537133368822,0.1760407906860912,-0.22739676993209415,-0.537566715882605,-0.7073233993703608,-0.5073119086576703,-0.09834164108628961,0.20879394666560608,0.14903856839474508,0.001814150778778353,0.012049458576009833,0.011576729451788682,-0.01631067037913392,-0.0060682063329987376,0.10159277924343889,-0.009229526020389341,-0.11486332797681546,0.02016378957966583,0.21387666626693097,0.24027295413385996,0.3844044838889021,0.4875514448121097,0.08919832218149326,-0.5773290917404547,-0.960098166977119,-0.6676971189850363,0.09342709367321345,0.408385971833532,0.27344688747793844,0.007733806904298042,0.008615413921034466,-0.017027747597938556,0.004412631787303546,0.06122060208562394,0.04790465048035615,-0.2640358388503967,-0.17662656926196454,0.049604673768173554,0.31875601712817553,0.29063436026085965,0.2829729583012404,0.13091697110457579,0.28667603375622913,-0.29377946822523804,-0.8678177391880184,-0.4670733265728739,-0.041931808258562395,0.01733834881941341,0.17928737032753558,0.033905643482436125,-0.008818941836851536,-0.01666841484616479,-0.08830181193880635,-0.045986895963669346,-0.1887152451047091,-0.2722615089880541,-0.09681208355291447,0.023971201489826004,0.21379499653215914,0.16709162117852883,-0.227606860600305,-0.1801812448083962,0.006541344182580231,-0.25587205446001665,-0.6779344700520367,-0.42797193935406497,-0.38094290204162135,-0.17364241777839654,0.217161957829792,0.022941008582015976,0.006449570775553515,-0.029550077488798104,-0.1236963794121892,-0.18386330052687236,-0.2314769803493909,-0.2171790590437612,0.026008410087056726,0.18196864149346542,-0.06931562181280677,-0.17496720667292595,-0.29282244426542264,-0.14586982400099047,0.21438014899374874,-0.2897464060382245,-0.7954295951489991,-0.30990608032821265,-0.17294913026169337,-0.01917462444486013,0.22590792005038673,0.03979474237005792,-0.016126644697574157,-0.022359988231382084,-0.24004642556322373,-0.5401094666315011,-0.3655182115915032,0.237263482821248,0.05833921524527837,0.18117821377174262,0.06092289644290133,0.007725825787851188,0.2165650628092191,0.11571618109756944,0.3935265701165019,-0.2921090758134481,-0.7451737215153819,-0.27264921453081625,-0.20676850657862897,-0.4984197428922138,-0.07936064675383167,0.039014503362240084,0.01466356412019138,-0.10123671507140528,-0.41119564954357596,-0.711777329928973,-0.12393646359083646,0.19285651029070228,-0.11399391553410444,0.15972406246389056,0.37460936904599845,-0.0704619103160852,0.06452606164089586,0.11465685215139472,0.7460116722196326,0.05628680936486796,-0.6474567711907253,-0.4535302042217722,-0.3679854456901849,-0.28850260817926143,0.16276677026363787,-0.02181909284924057,-0.01754798842509035,-0.006625272349722267,-0.3560968325132463,-0.6509740158843464,-0.19630078770833073,0.10291688536205167,-0.12712838678889857,0.2727086419821117,0.5732427516923673,0.17954110855753525,0.11896329061179312,0.5896182267763421,0.33344946454316204,-0.3023217616406357,-0.37232350985586005,-0.7122294765720634,-0.2939017064314266,-0.051086420204901,0.1837091025688927,0.02021787916437902,-7.548875884733643e-05,-0.05150585960972215,-0.2657776990041034,-0.6966840885625404,-0.2681174785600559,0.19856728159768225,0.02359402803496289,0.14476964698807546,0.6546914932945699,0.608104609148752,0.4785757037156432,0.6655635044884545,-0.12240087754235505,-0.3563514600177794,-0.5435229856574443,-0.7530555957902363,-0.46187666725674736,0.00991244666092355,0.18510596265600848,0.04548000948659399,0.008084209458667517,-0.06467689005544033,-0.16957540082277794,-0.4297138220933156,-0.3663980351047851,0.024000087506231765,-0.09297482401263735,0.20779467033309032,0.2400751531709333,0.4461427595210068,0.7649295229007443,0.5009966219193633,0.4094981051004734,-0.1045482555100656,-0.5340725996884009,-0.7265469258164214,-0.643202536852063,-0.29555980596066594,0.08374037517837164,0.08305611866354136,-0.015336713543097494,-0.028905576553610472,-0.06928193547734275,-0.1591912888360895,-0.19300379630002515,-0.07571496998416793,-0.3004307752487294,-0.22937707173370925,0.20574472640269803,0.334259121177438,0.5031780647718183,0.05382189094563698,0.13833937495090573,-0.0017709947140405948,-0.45375209173215825,-0.3650425772138373,-0.19326637562818372,-0.12776056798979898,0.14305841369292716,0.059844402155941764,-0.011627140222654344,-0.0032615494048623753,0.012476487805776199,-0.011610034299069224,-0.11525533510051525,0.019549760302736356,-0.2873345916232134,-0.07594422944479587,0.22334817413554334,0.250386066899921,0.2929624555924466,-0.09854602151571921,-0.3515421835716443,-0.4335203261074724,-0.43723008063867064,-0.20384265532430287,-0.07443668354330585,0.16715668731144556,0.20912227501743222,0.09043070427740074,0.002999274944889299,0.016197461064862764,0.016808840312712375,0.08244465675654443,-0.07603212673336136,-0.26023112274265653,-0.42895636498378026,-0.12307862454009691,-0.021723281062797407,-0.14192388722074076,-0.1935146355559682,-0.020470808322830318,-0.13868737419792612,-0.5209298478397797,-0.3706812888518466,-0.1819143598866985,-0.04511602431357324,0.10643564250867737,0.0671770454422718,0.01153996103010525,-0.008510962726262793,0.006453214211217595,-0.0045879088109742755,0.038072280478536565,-0.013100094782886113,-0.07685989691894098,-0.47221200886724835,-0.33641272437948794,-0.26538786065139297,-0.24819018764585102,-0.28559154535605696,-0.1330879644032061,-0.041758605123762456,-0.10845323352374918,-0.10510787451988934,-0.0035562408734427084,0.02478646763674294,0.001998240385598911,0.00690626980607911,-8.197442355063101e-05,-0.017985854967419175,-0.006031940824297915,-0.01805289898092513,-0.0070379851905911514,0.019842419479732448,0.01130447873491963,-0.12560673114290674,-0.09708657135038012,-0.007931243832993573,-0.030621160776737124,0.03249038367289217,0.013023068846955338,-0.016919404089586206,0.023179228264079983,0.017501782107966095,-0.011185812614312717,-0.008538626924108457,0.0041856237298086955,0.00030334487225420435,-0.007516432384822359,-0.012240128521518186,-0.012526990714903315,0.00193486265020934,0.011856071627341848,-0.0034058201101985854,-0.03668462437615187,-0.026805855298444897,-0.015252685535703692,0.003374108382006493,-0.0053687453662487825,-0.009790389045355615,-0.013847985790347864,0.011729572480400463,0.006782780462234967,0.01709981291584429,0.00966704658890504,0.011517950300276436,-0.003944930261144195,-0.00279181055502285,0.004880857532752722,-0.6654009353218848,0.003608337779644235,0.0005748723354615471,0.0029141641363348496,-0.005772472000001575,-0.009307933845088195,-0.0011158540766401384,0.014560256169768976,0.011784034299075425,0.013517208747821776,-0.009462412639506193,0.0030954328738855173,-0.01690276537257593,0.011078708524461352,0.0022042937202286393,-0.01298400943362121,-0.0032538832366848665,0.006878265493090657,-0.0029413992540124967,0.014359568706725721,-0.012724372606637347,0.005803930981436012,-0.006580519853580109,0.0026236260154326595,0.0031090832194172677,-0.00013459078585106716,-0.0027960051166996116,-0.0016976896529994896,0.0013210860193342236,-0.006663664629792118,0.0119356130028198,0.014193582721323712,0.008862012793196185,0.02463192604121758,-0.014176353749783268,-0.01811675146369733,0.01643856114695019,-0.013516188061195419,0.00012145064073397592,0.0073219816666386444,0.010044795859132675,-0.01359126074520564,-0.010540296044014928,-0.01506317317051491,0.019164892208761736,0.04766342327065642,0.10022270044528497,0.08023469420544412,0.0669259909918762,0.08103933015571006,0.05064676062420985,-0.0023224159471423055,-0.07562799285397016,0.0010045035424624687,0.0601679296415429,-0.055568359458105177,-0.04833604115740372,-0.02098045946718838,-0.022553858811693302,0.018865387963662356,-0.013313267659110568,0.008981549629759427,-0.004166597872036428,0.01471937021328995,-0.004366450725883872,0.11669303682708006,0.10818012639345953,0.13949478475477792,0.2525215274991889,0.23116292270154717,0.24257642992698525,0.04137342934724083,-0.17952689142488829,-0.11331489768914595,-0.05186776393177687,-0.1259846698742008,-0.15126252299551943,0.022955844531375013,0.12014868442743114,0.019653090527291934,-0.010024036425465465,0.010767139852987296,-0.010228672765666667,-0.011809366359583021,-0.15571430571224734,-0.13664375779726512,0.16230535179077518,0.38945447662490246,0.3792935778784368,0.2416117605761329,0.1758949190912188,-0.021147237848980656,-0.32653802207879307,-0.5215277713191755,-0.0861804122546748,-0.018340662943622525,-0.5454005668817242,-0.25338997256804274,0.24961401793571342,0.09536270907554059,0.00029974469504472914,-0.005538060953529588,0.005084113545494347,-0.045446999050195225,-0.3175561619532608,-0.17119793106001552,0.18125188009463394,0.44250664194391326,0.30466963140200914,0.3880780904161722,0.30192987216037037,-0.24100267807359158,-0.23843403687983786,-0.19338921802260245,-0.17171665610631948,0.13785446173161336,-0.4379349179865876,-0.3379006833681726,0.5622400554701191,0.22285707106523936,0.009466212083705947,-0.012367883770488593,0.007822983173097006,-0.004713319594912562,-0.09706796684477102,0.02649141580070729,0.17174266914479133,0.0801648698436997,0.39163941725803386,0.7921160593993893,0.39432243067389566,-0.05248861137457645,-0.19995775261628115,-0.037306716785286353,-0.21792191124862131,0.21346078514190356,0.1554906861412278,0.17898242626618652,0.566357595744652,0.21902360027305076,0.021635157876007984,0.01138592393135078,-0.0018278577175556167,-0.10426124487823604,0.0014211894789876052,0.07696309127220484,0.08527599950596763,0.21507391565452355,0.7787443752345898,0.6757415433457805,0.5399444083340632,0.27039970855200357,-0.3070915566801344,-0.18245352466145084,-0.5124840309218116,-0.36182584647153254,-0.3732327726716686,0.5167449764256338,0.47634213240618656,0.24143558096348106,-0.011927797311684111,-0.007730630143632672,-0.03799613586512681,-0.10605968075348705,-0.1336802400591647,0.18158142790737336,0.11521985167079235,0.1314301616572393,0.40186576174312294,0.5135375537879696,0.3786085794959279,-0.04585889134669855,-0.3338833322171119,-0.3910884955987487,-0.2826286556476442,-0.3358050170318687,-0.32448204508456385,0.6885024580783885,0.7631758309262698,0.2773374362070295,0.03080761290744028,0.008881871055915341,-0.04267870345893859,-0.0873974933981692,-0.23334510459524446,0.30291230109227674,0.46587842912237026,0.12863264217234038,0.3467096180187479,0.45103433685694044,-0.36720558638111717,-0.3751885102462605,-0.5173094789400237,-0.5000427304502363,-0.3929679124730218,-0.21749186778694424,0.3957804611687409,0.48892680318632614,0.5774564625761593,0.29754025585315436,-0.018261271782916397,-0.01538315939731485,-0.009993458084164143,-0.21098732919383636,-0.4239337590252253,0.07237964355428667,0.23860265713705223,-0.24058878873572104,-0.1961926926757265,-0.17986285390996506,-0.04050634491055989,-0.4723447370003565,-0.7807832379718533,-0.566473008135687,-0.7278222284707482,-0.19511740654415405,0.6378510902572684,0.3749230811275556,0.46454486595430433,0.2487432409675509,-0.01395175290461465,0.002714318931661808,0.06135180768606662,-0.21725979759939285,-0.4749913822711731,0.03160308238089123,0.4622786903102282,0.24267996169088105,-0.05680398493466049,-0.1137190552012951,0.06157777039848904,-0.05446329767487042,0.23987192492556386,0.10891048356475609,-0.2904616542160833,-0.1079699638110723,0.5570250020676134,0.27702436906188976,0.2732020782513639,0.16562424416325994,-0.001463031511856341,0.004756773953737678,0.019688363602044914,0.14546766287700538,0.08793261488836278,0.4348594612753634,0.5241333654884437,0.21884546259135304,0.594143632756286,0.4156272729071583,0.06491382093640204,-0.05854662416013558,0.3326910798156207,0.11239898861921124,-0.4644771490603884,0.04925086477414886,0.3542956152596887,-0.0023984605124185675,-0.042740344096044144,0.03328592320015075,-0.006719729462600833,-0.008688839739456071,0.04415830037273831,0.15272743938416095,0.1504950283429458,-0.060545789943721715,0.13376009261759067,0.16752325106975555,0.7815910480508188,0.7479793257252144,0.2327184258700792,0.06276239337570373,0.22890380372480892,0.12897919947223505,-0.36850254711184405,-0.38773221876503156,-0.2450594684894872,-0.14801655120529797,-0.06871692177158685,0.11352845760635619,0.02354102761929572,0.012800528467199907,0.04669112008876269,-0.12641975616193424,-0.040775501373950904,0.2856536380448065,0.5242968662356532,0.48829246767394513,0.33590960530689956,0.22183350820899753,-0.05566758818601157,-0.0685247463035829,0.14812712587379012,0.05922291387803017,-0.04975670241623679,-0.22069121953978327,-0.1965567830815046,-0.1626974392119311,-0.1656498080946277,0.061775188751768684,0.013323229599330093,0.01088402540533769,0.030610374252198654,-0.02476500504613067,0.008377051407742595,0.1269868797905459,0.1995081916321738,0.362161596544081,0.2049231506211426,0.17094872694467445,0.24191204402426847,0.15604137012990477,-0.01583453615956984,-0.2628780141043146,-0.022923551004293437,0.01911232027403243,-0.05321744792977613,0.04029369312657167,-0.04984952191111401,-0.025072951705318005,0.00671371013463079,-0.01116432500431423,-0.001004715059751452,0.05106368147825081,0.03857845507193542,0.21369654065612356,0.41495364885919345,0.43305144990433514,0.3523939049823432,0.29212954708095784,0.11449193267333037,0.05290039013882573,0.04043354598901495,-0.3788834656429104,-0.37086590170302186,-0.14375610858146812,-0.04671293177764738,0.04921986834300242,-0.007895475675491535,-0.010433441837539631,0.007752836556257907,0.0015847866302173053,-0.018311378684238943,0.005996375739153534,0.005209549575406354,0.25131574395851586,0.4705763947324985,0.3925010421503068,-0.0223490623262938,-0.13319102425971407,-0.0864768625001709,-0.11652873900737626,-0.20155342458872555,-0.348225351687307,-0.28757090820293996,-0.10896964763272135,-0.1089104832486285,0.029720133294174438,0.003974268795184478,0.007022953368165756,-0.0151490425202962,-0.006229735648341837,0.010806277607439817,-0.02014514556833386,0.03490017283255632,0.04420222081020357,0.0636236575536233,0.11122033006020025,-0.10707223548966603,-0.11257184632243394,-0.03981415685868126,-0.1291450711618124,-0.3584949601208936,-0.24636237649437598,-0.06298100744722272,-0.07841839467421872,-0.035856623927472187,-0.012621652753149644,-0.004826611694002335,0.001011548469798542,-0.003847617746388123,-0.003372921847385808,0.0076186979942076405,9.958476036769397e-05,0.024796592880010966,0.025389699033735565,0.013603444053508539,0.004920106791394404,0.017996496985494343,0.01646660378136177,-0.022188673134395737,-0.021268848066021216,-0.0659941219371603,-0.055187192966699015,-0.013519141679158683,-0.00537693077982393,-0.011395781660228711,0.008201974623690553,-0.01258502667471911,0.010897210178356398,-0.011283021623118974,-0.7204574683120291,-0.0010401771879071321,-0.012902017422317563,-0.007781159190737392,0.00634538066716973,0.013193924450544972,0.0027117788838082703,-0.0021933886569997564,0.010650583259226533,0.0025387555376493484,0.010993690153123112,-0.007272588089349469,-0.01844326096979269,-0.002362459930269849,0.009035214977055167,-0.007675430234932242,0.018566222320205855,0.016703478245486913,0.002680402439418924,-0.00816366747602102,0.01855137149634018,0.00656085653633322,0.007478174186199736,-0.004903705668898431,-0.00864790922655287,0.010985744006462583,-0.017151794856741537,-0.015837452949013165,-0.0087225052740843,-0.0423373286204855,-0.03844656737148197,0.007936760145600406,0.014172104981946022,0.004983737400765845,-0.0496530917871968,-0.11417597383922623,-0.019267230755812662,-0.014963219833438932,-0.007915716719843082,0.016545197422750835,-0.017570427516997774,-0.004942220492942605,-0.009045740802110762,-0.004952556440114335,0.024803432955005145,0.05773043814104196,0.040533021594488114,0.027611378498888332,-0.08698332152412998,-0.16864459709323576,0.041989215348889275,0.07081646737669067,0.0016089878816971151,0.11967717444397181,0.13002247708176096,-0.10650203104392218,-0.010527339845721205,0.010242256755292315,0.03630325359722314,0.016086936317868377,0.007951593338606976,-0.012499385106816856,0.0017067727670174405,0.003990139117701712,0.009599236458319742,-0.02822898636786619,-0.04025938047565257,-0.11628207390163711,-0.27075695999282434,-0.00165301847777725,0.35449773079921354,0.3851689230531661,0.3094592115191992,0.3711839743903108,0.518148863845948,0.30629764963171335,-0.09661638047832047,0.0023725499071569384,0.13271350323201717,-0.00041555374331499965,-0.012250633827929132,0.007069877871678176,0.006232668918254877,0.012579014979562127,-0.011885021444116087,-0.09761542797541388,-0.08043210328695465,-0.09701502560337327,0.1636209855244634,0.5701444248092513,0.7386099248444461,0.7967654422601443,0.584700449480168,0.1601837960328028,0.24765763940446625,0.3080907279507075,-0.1385436305157952,-0.283669180884905,0.03948381624274046,0.050176780452952575,0.014599128972982062,0.013981123691344043,0.0012466871841771054,-0.0032847115625735048,-0.11045077698099065,-0.2029391062131854,-0.3389374789728028,-0.5034638491223653,-0.1186299996149539,0.25381638390844025,0.7609545303995517,0.64393894327393,0.16360818008097522,-0.12060299346952406,-0.09536482853126141,-0.06173695410398877,0.13375135816136824,-0.4942071951035389,-0.1225523788178055,0.02458311824544315,-0.012613453698089121,0.008069912283009966,0.011090758577751304,-0.0766305495990238,-0.2570643816198534,-0.12181849777922327,-0.47458115605759266,-0.7404885895451804,-0.2591995191202327,0.2228934100616136,0.6846220045691224,0.3055310715950668,-0.005523331890993889,0.04616861384055778,0.19369370125097912,-0.27017590549282594,-0.40643024505448305,0.014921868466130042,0.20177237524822578,-0.009375977416051312,-0.033481768083704684,0.012982544589074843,0.0013864195031661707,-0.06386083751336286,-0.049976423975463626,0.09124456813989655,-0.24865063812151764,-0.36699412861976305,-0.18830752206420012,0.35435068472112125,0.674868669442378,0.3917851551046335,-0.32757042923218327,-0.06919995877655417,0.24921879964284194,-0.30003467109367826,-0.4085635520444715,0.13758539248088636,0.2774282050942148,-0.09757539129118468,-0.053265775819173584,0.006357701594060552,-0.01302131584294408,0.013924277400497573,-0.0028658253352548987,-0.19837025123060187,-0.6359089313410466,-0.7653178818106359,-0.6113915421117304,0.44108922903832937,0.9880299154905277,0.3233259986555257,-0.18399435783006263,-0.27979338399824333,-0.0466451862175223,-0.2752854380774362,-0.43734939960942143,-0.14210913962826102,0.07225848976787518,-0.05435210573758457,-0.09349372194620081,0.0010823072488550028,-0.005563411679802259,0.14721398547975664,-0.14534571300750873,0.053994071493198716,0.055928773038076,-0.22289754913745755,-0.29942731914930637,0.61210340853231,0.8566760041975264,0.3548225650613972,0.10114197181843093,-0.15837603339298495,-0.2828174818644901,-0.37979980725779255,-0.1526561702687652,0.2043375368949642,0.10112407846173313,0.04268125908349919,-0.01855107460457027,-0.00679563772704945,0.1520840314892657,0.3171624120859706,-0.04847399401459869,0.18515022680701904,0.6444297876618494,-0.3414783232215422,-0.3185528822392537,0.3473103248399892,1.0850004119240706,0.5982109769319538,0.12976005772382945,-0.048723330746935266,-0.491163166573442,-0.32738728840429177,0.08361879400865485,0.07794547622949198,-0.3840936793830961,0.1550275373309147,0.14051653765575864,-0.04312348116378156,0.16107806184315196,0.4203107339883257,0.18845298462451818,0.014641262467888598,0.28014405516636365,-0.4050483124421072,-0.3813744657827658,-0.1252995784034909,0.6079002669320616,0.35822122027986364,0.5312326759603562,-0.07770722941543744,-0.07474253861527304,-0.06299356146272561,0.03728049788849112,-0.3130007127465402,-0.1569592311251677,0.04163193666021523,-0.005334991322046811,-0.025249847917821016,0.10231603202382862,0.42639715431637293,0.1270000254063955,0.3622432909178495,0.13622756092833277,-0.41115187711528045,-0.11601834123756823,0.3688039383311318,0.4183774965709032,-0.06418405865836793,0.12906433900988012,0.028312300946092592,0.1015750711263919,0.11605104706664664,-0.08443308697095114,-0.12056151264777756,0.13465994728901687,0.058845830342011685,-0.01699940665699377,-0.022176382018132185,0.08847407263860695,0.4317743221753889,0.31195449655282825,0.4383129532033686,-0.013265368444022062,-0.6034271706262417,-0.09734407718480512,0.7232781238124314,0.5596860899674537,0.06302004947240135,-0.11947714320461421,0.31880075598160706,0.28339056529101164,0.12346918296030218,0.039731125950815134,0.17033082052235657,-0.07801373911998279,-0.11379493323888072,0.016065104067079373,-0.0011308577550524358,0.049993572507816636,0.2418896415812857,0.19705214456118014,0.23953359818182568,-0.17250739754709574,-0.585991288690475,-0.25450639480419635,0.7688768979562267,0.6221710492510396,0.21291152807520994,-0.03012417715387516,0.47324277971183865,0.49697370291423343,-0.24341452930001148,-0.01874946186555782,0.24710700448933154,0.03438380595021116,0.04825920028552827,0.022824530351465283,-0.018375995393267452,0.013926392446719515,0.07009789087947274,0.08596986925798164,-0.11356948627996838,-0.18973787753016602,-0.3475329137857088,0.021741286971049812,0.7927076539392317,0.819175079887778,0.3795641664614745,-0.053934433460358804,-0.01769826042439815,0.18386323073873256,0.26176020603640193,0.0036234616735347797,-0.08880998545276088,0.11431431813509714,0.10895338911553987,-0.07172489616160159,0.0014198149334756533,-0.0013700782084838374,0.03181653081821864,0.0016057561396311919,-0.10417580898648286,-0.23372842596063187,-0.16090729137999518,0.2709772037549325,0.7632888654996469,0.4651054136750001,0.2690129617432294,0.18212366882394437,-0.05959039958448929,0.1591594670457727,0.31235720031001857,0.020561264313590007,-0.019154053935632544,0.10448884721861734,0.04586696353707018,-0.010953150463976541,-0.004671180513011054,-0.017803045937335494,-0.020049662410740753,-0.0234670579054211,0.07463249861679468,-0.021744521647085655,-0.253221769824394,-0.13795573241942538,0.22326132236181156,0.09249607966447247,0.018529774830596958,-0.12370229933772951,-0.22908830246318782,-0.08671032072435401,0.11782365865362929,-0.03184273212770908,0.013666311573662434,0.015660653596574557,0.010445870447537397,0.020986536332861117,-0.010306921807548332,-0.013756847222949009,0.008592650203920362,-0.044263594212026115,0.017315039857619955,0.01306206603769557,-0.14879185960321947,-0.16306969510823935,-0.13987225697104266,-0.13610828962569452,-0.18117205553941873,-0.4489831432862644,-0.2807387556459381,-0.08912482263309845,-0.059066226897085426,-0.0054447732034218705,0.011952013858860406,-0.016866412600827246,0.016594128607197944,0.011453467912628704,0.005185211421927631,-0.009329074196230063,-0.01880013573437506,0.0046612343765834435,0.04423726215505921,0.044006568549646116,0.020770240394024232,-0.010366889588496868,-0.012079789161292568,-0.038167969530093514,-0.040393793690646794,-0.10222130074471152,-0.06563751513854459,0.009723767499474718,-0.024596501018295035,0.001543445850962244,0.01564489796494866,0.0021794674182544433,0.00826066625455058,0.006228664490480016,0.10267200396695113,0.01395200499579043,-0.010241302444933178,-0.01193923136256517,-0.01318411172366904,0.0008015674269187112,-0.01915648039059373,0.0020989363115956673,0.012484465960306437,-0.009128770081704759,0.007081137600537988,-0.01578584420046885,0.017731503433873294,-0.00531293303108491,-0.01921053777267886,0.004738757731160873,-0.017029904346074733,-0.01664584070683889,-0.01169174499239783,-0.014666077420346878,-0.017938124968066394,-0.010358551337449106,0.015498874687964789,0.014866047902529019,-0.00831361873290999,0.006945749112444411,-7.70373484882517e-05,-0.008242611907709816,-0.008405104514990106,0.017138037708371245,-0.0019892127472228758,-0.018998012216479985,-0.021418369385389952,-0.023524396201485123,0.01353463389048926,0.02139124935043086,0.00770106744815046,0.007221150361492135,-0.0042239800088422225,0.014757312462254694,0.016148787352413287,0.01474448243235966,-0.013827848863910891,0.003896692168209182,-0.030092477248343286,-0.08539745025623033,-0.1420716400159979,-0.12901300180122358,-0.12571821727004587,-0.10286976816243089,-0.07141409432236549,-0.021685813246112833,0.02104033565141423,0.07598062216353958,0.11880772522793435,0.12620948402919774,0.0694969686296437,0.012081741694076002,-0.022143201059819966,0.0099229057823135,0.007897388204724702,-0.005178620305405426,-0.005676261863999584,0.02232469201953199,-0.010244970067954365,-0.11109252718771762,-0.0012266449234782464,-0.046643278329086574,-0.396213106120081,-0.34242746983894334,-0.21262306948676024,0.0010646261958462853,0.1563117200722486,0.25764684196598964,0.3825056485020441,0.18624797818893982,0.18131863583592253,0.06283321471896389,-0.007021774156848313,-0.0040622806703247095,-0.009166651106486819,0.007381838699416716,-0.015195312401457437,0.012661961991577755,0.08677898158978499,0.07178238662471895,0.13362538656644704,-0.1544851964213354,-0.5324917571133418,-0.2284701799811094,-0.06211749697039223,-0.013575400654562142,0.33863422688351275,0.5933046114474324,0.6246816699977896,0.07011612518277882,0.1288300743600151,0.2589088429865917,-0.009415994622179631,-0.08225980716593843,-0.012499184662178012,-0.015924813453367968,-0.007081168233694149,0.01114250679014283,0.01963588808563882,0.10944405744026779,-0.23768405830278005,-0.4663971408057288,-0.3616531599171072,-0.34395654218713306,-0.347441274625112,0.13684161384352286,0.27633789334277936,0.13597148694011585,1.005160653641007,0.5288541269083861,-0.014128750181832123,0.21763145449829235,-0.08201733522277688,-0.2397139936231164,-0.009233953293619604,0.016282081758524632,0.021396122625010935,0.019145987678595367,-0.004969397877204024,0.06569172365687546,-0.10597835881631061,-0.046909835449120155,0.09988706005261057,-0.2523938824972317,-0.28071692205732,0.075226729414555,0.10970584881290044,-0.3822891686219274,0.41555373968830644,0.6471648883228677,0.20761288528625788,-0.12573006685198926,-0.15725183773510723,-0.16534221130199078,0.003427695395777506,-0.013794669013064672,0.04247801665198494,0.12111476899165141,-0.023129286380454674,0.022127429642449906,0.2083245544450284,0.09671402286270131,-0.07956340565287486,-0.020274080748394468,0.1979928219708151,0.1011302538950522,0.06648844962165888,-0.000993603710321949,0.49790255929609983,0.6236100070962818,0.5426816938715843,0.03820437797419672,-0.1057742830762262,-0.08996679472982574,-0.011234909068357562,-0.016265855276805616,0.04295895858882176,0.1316573017540958,-0.03650514457628095,0.17072198587703682,0.36606661067637314,0.09013212204662506,-0.17724874467196272,-0.1471798329862467,-0.08202302814477043,-0.33749012024419267,-0.18540035767418553,0.29366124897717505,0.5062392964496556,0.6313541734408414,0.5480404692131865,-0.04164602865633082,-0.1558754755049139,-0.05587855495106814,-0.011619146200927109,-0.0017048149790941183,0.03968630799947327,0.11965920548771614,0.1755020262109774,-0.04636314583329894,0.021324433449037002,-0.007149373423787844,-0.23456000408948438,-0.40413681531311724,-0.18620103306959687,0.04208209941633677,-0.28408433988097415,-0.43197807192720117,0.1896764398232075,0.49333781087082634,0.21783124474732285,-0.20494343565436504,-0.2777596769410321,-0.015663554805196777,-0.018387585617959994,-0.014972381273617,0.09068445541178993,0.2451541923289787,-0.07598507983317974,0.24318812431931064,0.17418177139965302,-0.009540893142703743,-0.05792278754900845,-0.5582361201645709,-0.627953752998724,0.0477159479501794,-0.20596654755697602,-0.23419290676454568,0.5469399548250184,0.1991568258249267,-0.02039743464856604,-0.08577183313045797,-0.217765758238448,-0.14464636385983687,0.009441587301634708,0.024593103571640997,0.13284468995204404,0.15954666318588112,-0.5013654932870525,-0.09490171390183393,-0.07573804759837968,-0.20091511370275178,-0.5099336483621569,-0.7101296684004934,-0.8232549614088401,-0.5323550470444659,-0.7436729756548495,-0.18703717750206098,0.2944228058132587,0.23565762044747926,0.2837231570948525,-0.01956080259863743,-0.007449737289666338,-0.05237715815193169,0.011747495419829893,-0.016357983050442382,0.13407543405716946,0.26392922880647157,0.015408580195578246,0.049998332773647486,0.01923621005483079,-0.04222720753886253,-0.22301571892609354,-0.5937848326998305,-0.4268505533773316,-0.5441157336864063,-0.3029656627276834,0.2912546313471967,0.5657417379488614,0.2629322752292521,0.12815009436407584,0.0684007684252574,0.03837894719487539,0.04167456294835326,-0.01326125619386594,-0.014225536827627665,0.02575307215385151,0.15368505314466466,0.03523128442143689,0.4734782392992551,-0.301730796151513,0.005343366027840077,-0.004102214497246035,-0.5963208152699395,-0.22237836513735507,-0.04825711379549154,0.4274664707389833,0.36675322762201107,0.1953398076866789,-0.16126658880603253,0.35049048728503585,0.08529274971941628,0.10002974215986297,0.008385233068649555,-0.041588197718560795,-0.00793448043981877,0.0194914420024718,0.2238138272051494,0.11872159755121606,0.005496607157562374,-0.11648925890829888,-0.1333336651343763,-0.3537262538581681,-0.5322168508665308,-0.09388056038133083,0.18852617080674197,0.334554093401759,0.3042150016759982,-0.17964743450397913,-0.02782562424882211,0.25870161481929177,-0.07215288588498045,0.1979550416368699,0.032943620138914935,-0.014690482509832768,-0.005045995808959189,0.009351949504406473,0.06826572258321653,0.13214787952274448,-0.038875182781393125,0.12062200969467922,0.11279125506485627,-0.47855820998017007,-0.6490222846174655,-0.4399745936808622,-0.14233540415139065,0.2707802603856596,0.5861543324788503,0.17991012929882477,-0.1268118511067466,0.019176788981650195,0.15815442890642367,0.14218579357895217,0.010117107917631634,-0.006838292280896601,0.008114439553812023,0.013145426105485756,-0.008262186922677963,0.0787635530159379,0.08546876570561554,0.12278028743307502,-0.1248252564870913,-0.5052997694665883,-0.5003740002394236,-0.01801244455445303,0.14410107941202638,0.37894704827747017,0.7838148380188024,0.5158765484831025,0.18456463056266145,0.09705832019951481,0.1974806230310849,0.06686089407904093,-0.016763968580881916,-0.0012045802176684137,0.006250488733994056,-0.008805264431884386,-0.019313123777610578,0.06192569948983056,0.299220825060858,0.33588881933689085,0.1941153013431783,0.07342827885006581,0.04485045586672459,0.24957151954890286,0.16526961333826504,0.3871357191562976,0.49603117883830716,0.30951709785895076,0.10558332875366025,0.01911712782833564,-0.01928443586416684,-9.107238775513059e-05,-0.018296762915471512,0.011063437306029704,-0.000325202033384122,-0.001802656261603657,-0.007210811015284013,0.04132612617642514,0.14813986499580853,0.10606113692243233,0.09626260286352577,0.09606212614754071,0.08676293531886224,0.02786836900378787,0.07455257850339987,0.24482878584834017,0.21352848173094274,0.06249217596470005,-0.014357730152231546,-0.03858364341912565,-0.014352480882787937,-0.006743473453010844,-0.013825393957793669,-0.016756641239432244,-0.00887865222418603,0.005271097227998241,-0.01693530160318057,-0.017974242353458653,0.018655412415994083,-0.0006658985098288631,-0.026858998094039868,0.01783387840390306,0.004244268256336138,0.001674288958376329,0.012701790273238969,0.03175754932475432,0.0520498531111958,0.00537596801374398,-0.013764652083990879,-0.003880433988221712,-0.0005862683487506309,0.0025152226428203153,-0.006009945122912949,-0.006878526160790856,0.5506046407557537,-0.012637856862101457,-0.0013800295416099358,0.010730382881526139,-0.005766924744724966,-0.015239960372021232,0.00664640496699919,0.006875318547873859,-0.005664470071455089,0.012945903268879707,0.009204264684368269,0.007289174690925174,0.010435003961806178,-0.011760731569029341,-0.02259258067301697,-0.010488214584541827,-0.003969990767821611,-0.008940568158444786,-0.009687324510233422,-0.017450725410997667,0.015364011878071867,0.015307429009793762,-0.017951573328062742,0.006904604960230547,0.01459724630024573,0.011548899666890508,0.022340347738740603,0.008713427134480796,-0.012300939865338242,0.002614262047958343,-0.002842449446722919,-0.012403378282046832,-0.009612545022623552,-0.024383975280503966,0.0425723708084798,0.10066842780464692,0.0037405673426459517,-0.015457676085971334,0.011256982643869158,-0.0061826838731084514,0.011104587327340635,-0.007932126232895178,-0.01639980460350864,-0.014010065638605872,-0.030334511594626707,-0.08374976860561681,-0.2147427131904429,-0.20293669404485004,-0.1573922635005125,-0.13884038305820584,-0.1500066487826108,-0.1325606980377568,-0.12177542506865652,-0.07989092611122285,0.13057049055034411,0.17827719749744647,0.005996701241354561,-0.005398829144027963,0.004146371927089432,-0.008394896652214092,-0.016485615025880588,0.008532349372801454,-0.0013935042424183823,0.0026081972387408635,-0.07251384994274099,-0.33752549326297177,-0.39506489915104204,-0.3221400546250856,-0.2860779760852708,-0.24255384637795718,-0.10415971893008727,0.005920316217697733,-0.008446021085243076,-0.05826880917221756,0.014312243490602389,-0.07019923880220238,0.07982883214475203,0.07282337701355043,0.022628544527347243,-0.006528590933124789,0.010870526622462542,-0.014042020949073543,0.007116371030118322,0.008264100064953844,-0.1705901090495073,-0.39430180738610604,-0.26053306471486737,-0.1932719301460227,-0.15273083007215585,0.38225322114702737,0.6161872640525745,0.425721011878014,0.3216446658179306,0.43024532412082905,0.0707563548860677,-0.4930544543021275,-0.02410787285001481,0.20204942889708563,-0.08383099546105578,-0.025764714696980672,0.004586575242182411,0.012425114207176045,0.017122727746091932,0.0412595958510784,-0.1513991915092554,-0.33411959609543607,-0.41221345523654757,-0.35782767242232266,-0.006766883384049072,0.5507429922595012,0.41098857842680875,-0.03093221714634811,-0.26917025243622156,0.12864554809478815,0.33722220714441176,0.03893365620060031,0.0725377245976247,0.05348369457162944,-0.41333050512749153,-0.17444120908598873,-0.0072343569680303095,0.0002463693439988602,0.10052579796676117,0.1242055313841191,-0.16207501421507176,-0.11458357353113365,-0.013487781585865447,0.012113309438315558,0.07071646912495823,0.030191653646671805,-0.036022962352594536,0.2346258307114038,-0.04815725666126603,-0.23558510823911497,0.16996729768189595,0.22424925631391954,-0.0664868656646282,0.00520050453422742,-0.05324219868483994,-0.13602659664837968,-0.020891884916230855,-0.009145294347179013,0.1385281814564203,0.09068957202227407,-0.2808381144294936,-0.27238396075641697,-0.2859245418621999,-0.37637547728985565,0.05770361747333396,0.2503900031918023,0.34986536827634795,0.8962476767126895,0.3529980140263767,0.2617115818063775,0.5353175511453954,0.3938522015837853,0.2121732965995908,0.1969823980904038,0.24081488316085778,-0.07348291400113906,-0.0379287489223266,0.016671103085932712,0.07549334501476918,0.09463765541800921,-0.2533391125912781,-0.20711768262078215,0.15940348887703,0.0624896826341575,0.12745217124169547,0.07286458463414922,0.2891435473891151,0.2594665818907253,-0.34600666419070736,-0.0015857392477413796,0.3240410360906166,0.5399100470470528,0.457549242352747,0.2859651539237868,0.21126582069209773,-0.07883354993612143,-0.025631441582093677,0.008722306384193754,0.08673618128055137,0.1717236577207778,-0.0003736388882483849,-0.011808427089039036,0.022145524229826748,-0.27769876794857434,0.2598161365829306,0.00869757021897796,0.31575882577800446,-0.030352779900969885,-0.24257840279035814,-0.5152201726901553,-0.08073293495992385,0.6302681217519197,0.1942585517003264,0.15434901699091186,0.07595198206844381,0.03298956113571949,-0.02657336863231821,-0.000401454749168848,0.17598809914081198,0.3809565418279946,0.04344250101058779,-0.20922587547618648,-0.19317961299440423,0.00684791869602392,0.44243013078472954,-0.20729362089046505,0.20959224544119553,0.15684686347888402,-0.16602134930574766,-0.4414315886050926,0.2830837995103956,0.32803241500089636,0.35297719480133816,0.28329012769837236,-0.05208070441790341,-0.08439348387369619,-0.00855305181534008,-0.009324135869221144,0.08044678890017382,0.27432191067985817,0.12293169049647501,-0.2704786106803062,-0.13002844183192364,-0.4247622056809895,-0.3689747233765155,-0.6246051176003178,-0.5732579559403926,-0.34918220292632146,-1.027021622634558,-0.592032607670907,-0.1347874747503571,0.16799285160347985,0.18159288535494228,0.2120686454686107,-0.0017040439897008702,0.03210511896594359,-0.01651982045674973,0.010588847079042044,0.1224545000865802,0.20468837767601458,0.31705690878788234,-0.008764865542119854,-0.11398910733809957,-0.2573679301300481,-0.634282349047401,-0.528291521678155,-0.6588650904712091,-0.33659220237563153,-0.4315094516969216,-0.3196739927999881,0.14785965981564964,0.4143759910361939,-0.2975320622971923,-0.1983567920566348,-0.022622952665456268,0.055959326683275766,-0.0415501460577487,0.01169914245041908,0.10839321584150917,0.1481581358501919,0.4066143761701309,0.5146724851459414,-0.03969064826430285,-0.2509317540893146,-0.570311902957698,-0.7663816023195545,-0.5387765686649313,-0.4028166360483056,-0.3393934566521481,-0.46943265141257134,0.25334388698773114,0.26704434272990124,0.06612266646854653,0.013307377853928024,0.039106001624351,-0.06689243074340066,-0.06683015110434046,0.010461438074746763,0.06520822824645371,0.04336421885073729,0.16680643347441101,0.15845409911548,0.016902998015110603,-0.39225749962406936,-0.8596954354302355,-0.9988737422781059,-0.5074475528138312,-0.2165506284699178,-0.05114227451848529,-0.06151927222785589,0.2596029271856497,0.0720296079708093,-0.2391738576398986,-0.13172132901890088,-0.002829079480545336,-0.11958914471226377,-0.03473438997034482,-0.00400991544834249,0.0077170098836046195,-0.04502135833561543,0.05859654686876183,-0.08624177917857775,0.048413181153626215,0.08413787478867478,-0.6498690383885924,-0.5763961420979907,-0.2318192690921724,0.0660837283751217,0.27857116521712216,0.21990154780966864,0.15265002197486094,0.030179735755301758,-0.07595163878420252,-0.012868175118520531,-0.10815614466470183,-0.1057722781854289,-0.06990080594773959,-0.015320002098036946,-0.014859879075093186,0.006002838280682884,0.13582110268542597,-0.02341640451301241,0.20622768099715616,0.4209733013767002,0.019604772466099797,0.03137378125359802,0.2493524502044097,0.3715638192034951,0.20953572793075806,-0.008462946906498228,0.23411173124347387,0.4435842079532147,0.3214149219174423,0.06382614005265014,-0.11792128876376998,-0.0688760114570852,-0.0266092121050991,0.017638925297989015,-0.005515611036984051,-0.004674266994977432,0.04890871541010919,0.11066631212041528,0.37134868609846516,0.8530495203821823,0.5990817847176239,0.2841843917247445,0.3231620962969997,0.4476979071026611,0.1742770950032169,-0.06855939007375667,0.01962993143743608,0.2054171589653039,0.1763480306107852,-0.015961378308412405,-0.029178389013645094,-0.02140620234203515,0.015015597527051701,0.0066724927779763495,-0.0011164788449216283,0.013987157173241468,0.03781826318195508,0.04891395620003431,0.054987905603191764,0.2789838269842805,0.3436795366677673,0.09171351037933834,-0.031321526601595574,-0.013558728492010154,-0.10119857591750146,-0.04491451123217162,-0.016746092783190034,0.009217491011771077,0.0634904132432404,0.012484692086053722,-0.001165042785748559,-0.0010862415737622928,0.012166962460844798,0.016828404632595446,0.01680845864249713,-0.018450244489341492,-0.005931661593319165,0.004787941676099734,-0.018470889167707612,0.018185770889138305,0.009218768343616693,-0.0006058020136792005,-0.012576674503837251,-0.009042857522763965,-0.04913718300840172,-0.03358327168944035,-0.007195954451172748,0.0028388735174115502,-0.012037890315857676,0.008036742718808693,0.016091276119891865,-0.015408287664765782,0.001953390977529149,-1.355078009060365,-0.0004378814531648138,0.007660671923201253,-0.01828159744124649,-0.01341734808484718,0.005498772702463805,0.01360158872256764,-0.009019445560897453,-0.014595918814996148,-0.007082427263897576,0.004163556171784454,0.0017504510729468956,0.004827190527864759,-0.007991171591341878,-0.01560124817528677,0.0073854423402891604,0.016876757143330375,0.014390434399323429,-0.0184456664259838,0.015340260127415357,0.014756546267859098,-0.013181442496897818,-0.005566601213576138,0.004279050671371202,0.003872158832359856,0.01551576770320934,0.01816062788450749,0.003546516466970666,-0.001599652735737095,0.0059721492711274264,-0.005269640682983563,-0.007544948092223793,-0.014934455752883482,0.009066982698752026,-0.016180859846738747,-0.05129711001165693,-0.009500067023943808,-0.011941135203323891,-0.009088887172695013,0.005811568136923425,0.015302141724970528,-0.009078057706375988,-0.0019388838641099854,-0.0123833783577084,0.009798834848141619,0.03734408471394347,0.08586683358244654,0.10781408554852252,0.0570283841224191,0.022250040052942566,0.01573852213552034,0.0480321138598583,0.09320668744868565,0.10549895990791232,0.04239832746492272,-0.061073381888262494,0.04624183406279862,0.04598263854835259,0.029570986108513553,-0.009781598611151831,-0.013695163762575964,-0.013810376868999694,0.008801433073389379,-0.009604655270721796,0.009556056432988414,0.1126003529059886,0.209586459443513,0.21201695882805885,0.13543771213675157,-0.02270785163841258,-0.26060471746930414,-0.2534766113296298,-0.007465547701187641,0.20386363684142964,0.29565741508279897,0.3264314430413885,0.12623389260513893,0.14521435753008918,0.033210466802965466,-0.006669341610772941,-0.021265915040742742,0.010172698551030703,0.0011661738524860958,-0.021841812858255292,0.08476753360816298,0.16200022186569749,0.09775149942857765,0.12118517827093925,-0.1133936957705771,-0.5942108502822916,-0.7561971987433633,-0.5387537165300792,-0.2966276612696362,-0.021955624335215772,0.19427444952005868,0.6043515482910179,0.5233169044152972,0.342599748575572,0.06103470250827268,-0.03595017646903159,-0.023219143899637848,-0.0017751599247006979,-0.010865378678236746,-0.0209556476544012,0.10391791916688681,0.11467157040840795,0.275668251697215,0.20620362841586146,-0.058319719091288004,-0.513182601782063,-0.6421805913202872,-0.1998820411721094,0.044702209811066575,0.012765445922735978,0.05938651023543793,0.05473008204638034,0.3063325340262369,0.3224554990738952,0.011661672176237309,-0.1562218601399128,-0.040594946794455064,-0.0002518058261735935,-0.08126408698172197,-0.05527312578013713,-0.008025712213930681,0.09541620329760475,0.3261586195384848,0.21490217926120592,-0.23754257129093836,-0.646098758768287,-0.650617096328661,-0.2460166862346241,-0.11436706466293944,0.15818028382317975,0.3367189215048784,-0.04477951243704698,-0.27104866025081237,-0.03276219817634541,-0.11718816385733431,-0.17815155919543693,-0.03038899804269649,-0.005040678997977877,-0.07258504483383958,0.040576742351939685,-0.05311896557935437,0.1373678436508471,0.23502435132143792,0.2828899653619427,-0.391194586440894,-0.8706844022605067,-0.6840567485440208,-0.32993235646286384,-0.33351135320929776,-0.0020870578916202817,0.1523655289915724,0.045180889427765186,-0.08151850161834387,0.05342809900320577,-0.17149361821813602,-0.1805910313051996,-0.01622286773066065,-0.011345845955050492,0.012321640903514727,0.12036800059281451,-0.07034923771482036,-0.05692639851134482,0.06750634528703171,0.17071121071069745,-0.582387087712592,-0.6937069030724787,-0.29966699625344084,0.09791932988613526,0.24701680127621942,0.004602011401064567,0.017175299967639918,0.04426560941095277,0.01716038890348633,0.0282363570207079,-0.05497270510502195,-0.06262380695538744,0.001401993055470531,-0.014474508039239883,-0.0021506191440521303,0.15679606649066394,0.08605531284012807,0.03006090652223986,-0.062444965256826496,-0.14530878562228675,-0.7656308484976485,-0.3426141339934295,0.19617833546076144,0.6282351262408469,0.8921634770896105,0.5486128360114428,0.1342815212764108,-0.14379109921216007,-0.17195624604571647,0.12010848304820053,0.302130800291682,-0.05351964785297711,0.009440016312897396,0.02080948556494001,-0.06189682470373756,-0.05299126634479805,-0.004459865456431247,-0.063463022282277,-0.01669748615559142,-0.31723589757065135,-0.39245615919526633,0.4469142092791593,0.46017825563808157,0.6861108600436346,0.8984469263309728,0.35420977559551065,-0.09142392889089779,0.15331988444807795,-0.0694785124253521,0.17721355157543708,0.19035947407942727,-0.20059839427877613,0.016495623083209496,0.016915532606656423,0.002442396095143319,0.02848103186549851,0.050563742427896324,-0.021549757853394892,-0.24347418130805515,-0.24207898752531207,0.1594462917558567,0.08494741142459607,0.057138865946980616,0.15192527601787992,0.12343286578404665,-0.12776970084437822,0.13036606226949132,0.13004261187728505,0.073636979921142,0.29420463922192214,0.040321188696048935,-0.06904817143726506,0.002958570784079238,0.00020110662078377643,-0.018993661706242462,0.025099570350497973,0.18270677505951566,-0.11933105307218449,-0.34957839857618106,0.17264375698341305,0.18907300176748393,-0.27996073497874263,-0.1561688748036265,-0.3455833365314969,-0.312174321557442,-0.24357951478089893,0.02509892342608892,-0.04897340091142536,0.2914650430450525,0.1757677834588449,-0.0069615749676897555,-0.1467190093165206,0.01358925209663021,-0.0028923406766346227,-0.0758079381279909,-0.03133840934464201,0.24776455991494167,0.14315586967011784,0.48260348523041213,0.4992993262357215,-0.018051306902099648,0.21419930904963227,-0.07359070612559235,-0.2560119141962599,0.061763029150935976,0.05018219266067305,-0.1076240088307185,-0.056653622897956224,0.061981761647998714,0.08522919331996533,0.028557344629634242,-0.1611118862721389,0.008936549509039781,-0.012984862529460107,-0.046124887797502206,-0.0532026864379957,-0.23621547548420127,0.08619034844198481,0.4734088154635354,0.38861872017949717,0.10130299225812486,0.26100026123667197,0.07755721080972588,-0.0860249864593166,-0.13321141145623958,-0.4491718934631384,-0.4700842506864596,-0.0032813795051789447,0.031423738216595845,0.015168868625044591,-0.03369756584011252,-0.07160666480900775,0.006301034968085394,0.014848353871120969,-0.011951351863089033,0.004592604193441839,-0.2718561353504105,-0.0854742999239545,0.1624951727944358,0.18180930849487656,0.11903238621898041,0.010775191198484134,0.01048574025297386,-0.27270261223781356,-0.3683481513748873,-0.1781206207110849,0.026132507149200266,0.18626936996701424,0.0811508516993762,-0.04248414136359405,-0.10770807958625898,-0.09017364114956068,-0.006598380358380365,0.010091308862961763,-0.0032151128698668153,-0.024657383798536322,-0.1373738410245807,-0.14199036245998992,0.00525673986132553,0.043579180436365106,0.00616665354948658,-0.03563668857392989,-0.01670894773833892,-0.3247521040344387,-0.41694070920642756,0.0540398706245502,0.2849824409854257,-0.04839379958144535,-0.072138455314621,-0.027875981134868676,-0.06970760629440433,-0.06094454413496079,0.007962140464309963,-0.005644125533600155,-0.01502601560346682,0.01153144938192308,-0.008397084955412451,-0.09061300265452832,-0.11202704582880099,-0.13062417390891004,-0.10760800480162651,-0.016694543103597588,-0.1298521298979422,-0.2720465104885036,-0.12693602056155462,0.15613571962048636,0.1693219080283491,0.007114877713568126,-0.032074685009808264,-0.012227952552455906,-0.0011164654387161666,-0.015143785504265227,-0.013024386030518401,0.008415796246023205,-0.013217175290096894,-0.016717456930930106,-0.010091879873610165,0.029969061627555832,0.016820138841594442,-0.08070268301457235,-0.08516576787599453,0.09961410173706403,0.12087815537477005,-0.04091561929875473,0.004552825753635113,0.0600058279107523,0.07031636922144704,0.08718000229197874,0.03934522462674959,0.022414373550147217,0.018060088705539993,0.012551978889645278,-0.00010026048115989388,0.001459756754777926,0.008971735752381882,-0.015993346515250865,0.008010157368120762,0.02448345555623029,0.04913586172183949,0.02517210371175755,-0.00903333056521274,0.005014383289347651,0.0020373410714508967,0.025533003501818485,0.009009818084570175,0.023945049969900326,0.010887091112669741,0.023004389916893655,-0.012797476793380754,0.018989419629585527,0.002926795067245911,-0.0018640781026506418,0.005660287635938183,0.6212375500649382,0.010204359031279508,0.01732197854618065,-0.0020487155604815084,-0.007120585913553014,0.0017778437786385088,0.007959678186631274,-0.013104048913527021,0.015832732084711556,-0.007327652265655781,0.010333222931540483,-0.013604767907424237,-0.013476164791432252,0.010860281014080486,0.0045900670634666865,-0.003541746381594567,0.018547617997398333,0.005071570784674633,0.007633959266586888,-0.008708242164453726,-0.01511099395310359,-0.018950904884433187,0.016793107369935292,0.014280832464114728,0.017905966902667027,0.007207367280703968,0.0017410360059425846,0.007725504787365199,-0.047311996185076255,-0.0008776183414635869,-0.0225717627629465,-0.015355850942237096,0.01828853582222802,-0.01805006209374812,-0.0008904586030415218,0.04458924463175428,0.01782868328757048,0.012337154429175658,0.0035711453514458307,-0.018376622805919195,0.010365344433103428,0.011415663897454785,-0.0013696153952956955,-0.002888643601200568,0.01891485080609424,0.031081523393825392,0.02931717736934268,0.016153880059603325,-0.08231440752499096,-0.09038734323986919,-0.02381110417556885,0.0062229291610783,-0.010133924838554244,0.0074383522124823135,0.13225453347270236,0.1692298304517229,0.03545245459513725,0.022973408459249767,0.06545239727508746,-0.007696785426880655,-0.019764009998457215,-0.009381947604623549,-0.016941489441756545,0.007214155508870699,0.05292097197004043,0.13503642651572234,0.1375009058349825,0.2418384155250085,0.11587143898044043,0.002430108103424349,-0.005250751057489153,-0.2062558173060447,-0.24522080993934509,-0.07637069189900082,0.09528196649045372,0.11378609587423863,0.019925215484609817,0.038283859958005116,0.06099899577124662,0.023756698344407755,0.010429760072828606,0.007325131557688631,-0.004794801011433304,-0.020687654573432825,0.05094390472667218,0.18709419111131015,0.27256893161423845,0.3562602864820041,0.17937533653293028,-0.20628353957310017,-0.28778847605795027,-0.4612927711856184,-0.6690211230718037,-0.32673936146882504,0.2030410752489639,0.11728109835470256,-0.001078740110333553,-0.0015570777838818301,0.004858787842267528,0.03720813077639856,-0.007496438319084421,-0.009547145461442138,-0.019925910692206082,0.023413342152087,0.1196710134924327,0.291764301218215,0.38306646699010743,0.30913676125098927,0.03580481954071501,-0.17063637110680704,-0.018526739776439347,-0.3001375258648738,-0.6361917591156435,-0.13450573631588283,-0.08446627990964846,-0.016793542237038214,0.0595792224780929,0.3518389615549184,0.01923725275195529,-0.08624392003916309,0.004641810391256612,-0.019494082021335762,-0.0005943943327164948,0.07899294562669062,0.2644363764155236,0.45587105130191835,0.3996217776632463,0.3375760072145006,0.1570208671640685,-0.10420932284277337,-0.03645384518528971,0.24119205493889803,-0.0814669435122631,-0.2098812959855793,-0.20358372819307494,0.16410629579793276,0.16096916024149324,0.039939788963189705,0.24221049050894322,-0.12568172993210905,-0.007096925471020632,-0.014489543977595424,0.01823692778979401,0.16010267673081066,0.27694381760609216,0.023819491173741825,-0.21010337562829565,0.36500087626525185,0.33318481495048946,-0.019932991533075053,-0.2851919325447425,-0.193467901706167,-0.024380482505234603,-0.30374057496469975,-0.15402529634293285,-0.2331925117787842,0.16319494035033139,-0.0981481549011753,0.1345722015296372,-0.10829098461488192,0.04964552838833246,-0.015489562318899608,0.00884078303611242,0.2353457269142672,0.06429341108045797,-0.0994309216457881,0.2262434823248466,0.5577004429156017,0.08741736956900413,-0.11955703135068198,-0.008745299264881313,-0.2635634694684469,-0.2112380272717474,-0.06310460926909647,0.12860620435035353,-0.20452536712726746,-0.15112836278818298,-0.4653668488994727,-0.1679443584021902,-0.1786283526070074,0.09458708256017288,-0.00383344018013653,-0.0010030058446295251,0.1926779332895017,-0.03743141373063497,-0.15571746877699938,-0.020695498819198896,0.2807236406620867,0.15693551821062396,0.25551963785379245,0.31479997840517193,-0.08986156521381596,0.5161470905808703,0.5693523767062971,0.438572643854928,-0.022073066426376495,-0.08748326427645313,-0.45539512341500776,0.0581281424451791,-0.01167152246868986,0.09137639909487107,-0.010056289763613892,0.008011697995604472,-0.013938013853061659,-0.41081429578199957,-0.549738444799643,-0.39872079971138513,-0.08667419466631095,0.08746501431943872,0.5585434589802301,0.4040512879653996,0.45980712105050386,0.9032133747530934,-0.01621978527421996,0.29406492788068805,0.602963289275794,0.04859861623716736,0.041371997108520145,0.17462570100880898,-0.02377767352107024,-0.0006047649112575851,-0.02644613514139185,0.010019382480007496,-0.0077047403541059085,-0.24463501557228776,-0.6311317244507946,-0.5172636720660616,0.0015200372234706074,-0.05444434727665075,0.4465772063939268,0.18754669333402876,0.353233299650768,0.14636655216198416,0.11250539925934636,0.33045728847824096,0.2657969425521985,0.05466949089217148,0.19979897411229378,0.041830373343550456,0.04902656772105988,-0.012835337141004639,-0.02019886436330167,0.07319554474967625,-0.08897274517569849,0.1492786700336668,-0.37492112096454894,-0.6211120376895785,-0.26659293523990163,-0.68513795171743,-0.1953596987521581,0.004087224628405325,0.05132451779980067,0.0923472959109102,0.28691480858363366,0.1246773726472282,0.3668898822586472,0.6252211476807389,0.294571780703835,0.2068234305571032,-0.018036146291129186,-0.0115365464957033,-0.013265296656982799,0.05512080049985782,0.06771688205848522,0.1817142319198755,-0.15268557606928923,-0.41246690042796436,-0.2743490332712681,-0.5238370559071927,-0.2716133986138028,0.19331300674330834,0.04781234349609704,0.19314463192608528,0.0615238687531177,0.061224571785478285,0.36393110482162966,0.6749519848907259,0.29303067219345136,0.22734395750494032,-0.0204802890293855,-0.03185740308888037,-0.0002573883764176732,-0.00641744257937575,0.11998546578005917,0.1860326021717999,0.019123248448475638,-0.041939818808163436,0.3031671830123003,-0.0697020287363848,-0.6706597149067598,0.0043467480120497805,-0.06220729407105287,0.07746907292172053,0.10137632408653797,-0.1279756777955843,0.4026900186623302,0.4455755621363236,0.22118994149082288,0.10735963427386191,-0.1044644580962406,-0.02016148151604738,0.012946325091566782,-0.021931262405447443,0.09769177788080076,0.1945693862525397,0.003295382273268141,0.009390863057895698,0.07516313438499767,-0.43162457322608466,-0.6152852282013728,-0.0826121791396356,0.10123066012509505,0.22024331176344478,0.06247786257511763,-0.1282324081937742,0.16954835550344236,0.18161821689520455,0.20498322933667146,-0.03836905447324191,-0.12099511917306469,-0.06390133916713492,0.015703967184410698,0.0065070659732799204,0.014123075166817212,0.04510639303323846,0.2287178155750107,0.17958174401320642,-0.05994635543442498,-0.41807380308359454,-0.5649045386016012,-0.4809179794234769,-0.27819691618272724,-0.14925845279599062,-0.07958429039042804,0.24468308921018975,0.3592623049235787,0.2929185025705348,0.138980532374475,-0.05252758558617443,-0.002616154488584304,-0.00850339605963463,-0.011370045490570886,0.011248891930407033,0.0018082554668172198,-0.012791025381108464,0.27093737058851175,0.4015199121773621,0.2930816084520215,0.0922740336039278,-0.10420470788768017,-0.26855542887247286,-0.15298554573322154,0.03601972064723111,0.25051847627196866,0.273329681372727,0.23658713839813814,0.0874274136488861,0.06609984814432909,0.00818293292397371,0.019074632468015707,0.013797899995111489,0.00040377947441260783,-0.0006707058987653104,0.015447740797017986,0.019784448765529563,0.12780180384890277,0.2390180190065286,0.2617517231011312,0.25108728634758504,0.10340071393258064,-0.0007354852721863196,-0.002886002755150603,0.09695870203440538,0.13750773627693885,0.030687597884589975,0.007446097567561529,-0.001592462086313098,-0.01519015717155875,0.0021301389483563984,-0.00817696780446145,0.01606466370308007,-0.01419249462162387,0.0006793914894801404,0.0020218318085520426,-0.005874510687857834,0.03951604825703446,0.03000320438956359,0.042959350604034295,0.005196095408585843,0.0055043759578281325,0.0037498817523780974,-0.01691982442558222,-0.02432579253775017,-0.025105391993964023,-0.004983349481588172,-0.0034484731394987507,-0.0048313885060069705,0.011628453239470407,-0.01415245882147606,-0.004357136422874987,0.016555753016013374,-0.7043819897573067,0.015248691424299559,-0.009345867469966452,-0.00744478805984753,0.016586628136089025,-0.01124324132923659,0.013710232813777524,-0.008744484539522075,0.005147208791363416,-0.015254573852379376,-0.0017047869931299837,0.009834727295518191,-0.0188388472191452,-0.008836824807506295,0.009367445838976194,0.013643992486572252,-0.004078446720902352,0.00710707630850917,-0.017543600443537623,-0.005772746012470836,-0.016010862075768083,0.0026535092843494187,-0.0019440050573177855,-0.002341039471480148,-0.0008399345134236856,-0.00020326227219565247,-0.013780597359836288,0.021079657608616603,0.06537098119694935,0.056756753132830594,0.0422177577401148,0.02558580219414152,0.008612757889097145,0.008812499246652642,0.057620064110772584,0.016438893912675334,0.020339048154877977,-0.012601193690897577,-0.016671445807530168,-0.01128660311596888,0.00957745669516077,-0.017755188791790114,-0.00639643581783518,-0.0035318755675966596,0.0013146489632093951,0.03658592234785095,0.10542221693379478,0.07975459444833961,0.31400104316610683,0.30346117923722904,0.07383791898803141,-0.019924177877824016,0.014704130448682788,0.04650011090138266,0.11336935177195828,0.1386636831165414,0.04870228783218613,0.0474455005868066,0.06603321957757491,-0.005054675907596221,-0.01796026055371886,0.005781408354288961,-0.013274937693435518,-0.007781640735312604,0.00655213684622835,0.110054995745295,0.16618249600277227,0.10571291215348563,0.25159920968008775,0.016653961828213507,-0.18681523720165638,-0.23440743599707797,-0.15246524810340834,0.12303764711669794,0.14222501356178338,0.22205477662715006,0.23600919298559708,0.17796758187281242,0.15944030190866107,0.03620750247175142,-0.008852368579694814,-0.010903931944218872,-0.007237565164325904,-0.005666502257161688,-0.09308711872963689,0.11793209204758116,0.24513646130158898,0.21032551805361896,0.19970306625870765,-0.2217310249460406,-0.27857328002461546,-0.26114363144055447,-0.2274184748438756,0.0068840422979465354,-0.06250757866624838,0.15323891635862544,0.4171346532547434,0.24681604291830017,0.12470281235826007,0.03626867541163341,-0.018715559825580288,0.009176389101449526,0.020114670251009745,-0.047589976974560744,-0.17811855564143822,-0.012400910206889987,0.10698283654679598,0.25923669092091894,0.39753177354573793,-0.008261198309154418,-0.31120095429490263,-0.42746341610828525,-0.37593520047561596,-0.08794130945523065,0.43066626482265585,0.6327995783136637,0.16757191201237165,0.056518484254660314,0.2176872912175919,0.09947107335009764,0.00150852395696629,0.01838857086226755,-0.0035292657359389176,-0.05882133307636407,-0.14204391115507436,0.08557817222075069,0.40388930494638486,0.36748342500488407,0.2191458079920474,-0.26422747744876907,-0.16878787087071143,0.05584646985778862,-0.3674991563792022,-0.5050412037439237,0.09979009322222522,0.45039051201047087,-0.018056350068870457,0.09368802558174498,0.32603818278915225,0.11743415658932968,0.004739738069741245,0.012676139370382696,-0.012067966154771034,-0.08511328130679276,-0.14712820203194393,0.22550713443419765,0.13761130812408676,0.18179123052738877,0.19369960356376903,0.08594748598594774,0.17572330415843282,0.2957473989477532,0.03726862374327008,-0.0158220392492869,-0.11046006405469203,0.21177445321664112,-0.12444191205080299,0.33359647229647976,0.3421834052916399,0.15834683472498837,0.03400381281039493,-0.01823583888021153,0.006341571589138159,-0.10199149493584819,0.02972354328722084,-0.021013765548001707,0.029334768060723167,0.4325110164092619,0.2847792757098165,0.3407315039055964,0.19206478878939925,0.030812410851845877,-0.22532055783525645,-0.4756726725764728,-0.3084274472381309,0.0931328744628249,0.11490764346777975,0.42201201442991226,0.4000811444085008,0.16960636118822844,0.05790013793209764,-0.012185115410329123,-0.05046333323742642,-0.029837288255985448,0.3043985391681847,0.02429622318864544,0.2538674138990695,0.03614033994709972,0.13600148362713285,0.30293405631163467,0.36854682450789894,0.11572117420625548,-0.27742285710114944,-0.7482202060447571,-0.5814377943225213,-0.015980001265457885,-0.2652384410478547,0.267455939524404,0.45576802300302904,0.22091380445269543,0.030965827177938637,0.014746377718845866,-0.059216237527750445,-0.05495320130200917,0.39014998648289173,-0.06754673011383353,0.25790662415989474,0.37542004047098326,0.5458476739650745,0.3753950071774793,0.18589996689330554,-0.5471786792735476,-0.6932775608266533,-0.6205193382077505,-0.4086188825678914,-0.35946997251993723,0.13288011885001788,0.6253750326598829,0.4353859564845121,0.022746038405386755,0.002379222453637424,-0.013275213549080535,-0.034687776456969806,-0.013760263771073615,0.40277177649133944,-0.06543341255394859,0.045929052360079124,0.4201637219759537,0.4527872057579829,-0.17868137362964054,0.0040625419339649586,-0.507877033154007,-0.7858527415525175,0.11821370007138099,-0.36145370070514415,-0.5464472587537149,0.27339912976307773,0.5296575536950768,0.20173007162196746,0.29575609449078516,0.043875794391572846,0.0054019389047868195,-0.04663987603457178,0.12557486105609522,0.2424218546219153,-0.08360187600325286,0.1811823288203125,0.3827618178900521,0.22009708077851795,0.053413141525118966,-0.02861898440594305,-0.30248931647802996,-0.2778627976897144,-0.05088677356309308,-0.2710213956854941,0.06849661738286324,-0.04943297216831529,-0.14875933025224322,-0.22195217648612972,0.1862020661051224,-0.009137958231954882,-0.011951226616748767,-0.04062751749526353,-0.08257195168089976,-0.12255129899073604,-0.21694457070613152,0.33878001008975067,0.3431580626707229,0.1714900010505446,0.2338132455118207,-0.1805045508236295,-0.1812563004029655,0.062146709339270675,-0.11256410967701348,0.21185712555287706,-0.13604065484341765,-0.41401819458262046,-0.17373130118179497,-0.06074443699711745,0.04690916705151766,-0.027470607363427154,-0.01934496989194931,-0.024500304844967236,-0.16668992717046485,-0.3036184079202237,0.07319108800995033,0.12520136761847916,0.3290839922803696,0.3317798343479339,-0.07915949599083504,-0.40009247904332046,-0.23882311836293144,0.36702948660960516,-0.05371902611666483,0.06338894168482694,-0.33519148070608373,-0.34941929655177967,-0.06390875058457081,-0.12783729051004003,-0.06172474539517649,0.0014465097147423086,0.014887155972667269,-0.03353122092215156,0.0030718655253695343,-0.02758930901890198,0.3479191866281841,-0.10688022958439905,0.4588757247091959,0.5136075239224978,-0.08308080052125297,-0.23235554300346906,-0.32401703391298015,0.09363316957408314,0.3513279314560144,0.19809372691968152,-0.25890289451857174,0.03240471738138011,0.052572116922681066,-0.08388274004840895,-0.035157676901441906,0.05170583007090945,-0.018199414758735467,-0.023358061200969518,0.12043459024545064,0.10774855845329598,0.18909758579070193,0.32997007597330863,0.4763751759923556,0.46077648529402637,0.3360245476592496,0.05297985511361035,-0.13037748158928514,-0.16693856782136587,-0.2571805885313479,-0.20300021834301438,-0.21642391628994193,-0.043267287119724725,-0.05732366765009004,-0.1622562368778576,-0.05399571501108403,0.006099486459552777,-0.010961287870280957,-0.0018492919420490367,0.12370842387673629,0.13928640672362583,0.18519713509266722,0.4341837590412909,0.7986371573187788,0.34393296395822703,-0.06352330371292329,-0.08087275307572536,0.1487351862779438,0.1932878572116382,0.009647221200583053,-0.08541225256695428,-0.155173160917926,-0.16006420261929102,-0.0951916519558583,-0.030437837365637627,-0.03512368034226179,-0.01368488634195641,-0.0013892618261586002,-0.00012642993440954746,0.023669620720569925,0.025658386763962343,-0.04038429890853487,0.11778315655746636,0.28096347806266453,0.1709202712457622,0.0275225795689151,-0.001878459640841723,-0.00915464603571744,-0.05088933775197008,-0.022897950092306135,-0.04994805593613847,-0.06939452165408674,-0.07357479527573894,-0.02712815383998397,-0.011307777453490769,-0.003870700285474421,0.0032449158951224303,-0.0015593517065408656,0.013594749798231234,-0.010991841056541904,0.013998614569892166,-0.06173923542187409,-0.057277088111738594,0.023505955018559045,0.006606427354965984,0.023463807902815593,0.009540687767112258,-0.011080585893457449,-0.029903742596838118,0.005992823420418804,0.01009796323716987,-0.0040651356201751475,0.006937454957968725,0.00683473151277143,0.005913827980094555,0.014008841316808908,0.01882966962115581,-0.6824769082978553,0.013976338415176707,0.014040979758953244,-0.0017298977544377256,0.015444199302410665,-0.005881983185321755,-0.011157064341920372,0.0008612305663325952,-0.014314292377997234,-0.007879721250053864,-0.008785701015065137,-0.008958929391740015,-0.01264890582481872,-0.009472012941556524,0.011658543346508917,-0.009083957390070042,-0.009704340152106977,-0.018674291884497065,0.015619362194184026,-0.0009545434934551918,0.01843474857453611,0.009961199607786075,0.01725975916639069,-0.007602087455107468,-0.008871631875779176,-0.015780444725760186,-0.01922199688525992,-0.007739632264449908,0.05007226480215085,0.02740109464659237,0.015389536133014935,-0.011099861655996239,0.0036456140876867005,0.0038828968040446506,0.03586111411675376,-0.008559695364358105,0.01311229027701299,-0.018329322483816152,-0.007470030748112942,0.002246619991747201,0.0015324535335595536,-0.0014144011805336503,0.017584389308287048,-0.003242147088911927,0.01364364775698211,0.008357369168058463,0.032997659793943444,0.06463772475527314,0.14147553631411322,0.15661716284250607,0.03151273180655245,-0.014687487282079656,0.018048673007446756,0.05535121826001659,0.0730865411368895,0.015815656985887796,0.03169898588528304,0.0431108002348145,0.025848291462223453,0.004613406123995208,-0.00016894461007492266,0.0015734396410479877,-0.005600401394366935,0.006341735283348231,0.024898530718273408,0.026684743199551445,0.16810080187370985,0.15776170388459446,0.1820738072304822,0.18001993518641163,0.07308391295410055,-0.031925316719491593,-0.031219638804229722,0.010775405917564306,0.1102283786774829,0.33938712396398885,0.21046444513933504,0.05765896306973469,0.03371454423902941,0.01641076737936631,0.009353242463147256,0.018018436854187653,0.007967006105926643,-0.006843915733150455,0.01462080790660817,0.1698367116292762,0.32826886411464384,0.4159715030512896,0.2559686196118121,-0.03545868565047804,-0.16077210361593727,-0.12067172164688961,0.09788338914375931,0.053495873635964315,-0.20368857699652837,0.3490960678978347,0.3524290013106972,0.0557928431470393,-0.05895361782720644,-0.01101510399001719,-0.025832825743496896,-0.009705533856597011,0.00925365829061469,0.017138043360752454,0.0969770359990037,0.30631276711416666,0.4172530746276773,0.5167272959118475,0.23318858269250517,-0.2849305242010925,-0.3333306896506017,0.3068754387614428,0.6559757529361524,0.3774602448276675,0.14243803185342543,-0.0759056051733905,0.04316277501830459,0.06495557021000332,0.18860599157034647,0.07811570812999141,0.020745442306929093,-0.0010185284869382665,-0.015781446587019257,0.036614508972628815,0.22172308737630503,0.4558935309034317,0.4752327923023726,0.4489862510906005,0.02236274155633703,-0.28323032165877293,-0.0931993992486054,-0.017852049612392444,0.19925890977811714,0.6993181451430183,0.5456378112210999,0.07247353925941641,0.21752016588615783,0.04275173391920753,0.23834973558147463,0.22091951431935086,0.003310914198454999,0.0151887498444154,0.012508682050283828,0.08952486515017741,0.3762928977984024,0.6192275255732499,0.6570876712019122,0.5325302588932466,0.07582103776905283,-0.06289277548931976,-0.13834109789166257,-0.6211358893446188,-0.4432120451882247,0.3585713180339301,0.021710626156955907,-0.2584227646895472,-0.009287405717318412,0.05876853567004812,0.24061714005421644,0.18306415312063268,0.01465768414006563,0.0167839564114172,0.009036698985791767,0.14604542628062667,0.3575497533468234,0.6713840279252046,0.6595213562053454,0.15004034225215415,-0.08175753061593313,-0.13360761627156886,-0.36269750898512254,-0.3871727180977162,0.24180296401337395,0.1602256002497085,-0.08468034417078295,0.008296766409430868,0.28998428019963035,0.16698901751193276,0.21990379609801483,0.12041377228161088,0.01783295532709105,-0.010066870587761087,0.040344407899998214,0.25052192403699597,0.38860976343650494,0.524655001854773,0.2377463551195444,-0.21120303921409303,-0.3180873288973693,-0.2176339673167488,-0.5550531232002608,-0.25547651282685935,0.15038554192551223,-0.17291120993871695,-0.55729203856407,-0.0015504411154120391,0.5757622757420638,0.3193527286483768,0.17345177843780005,-0.07826415179964705,0.05255947160693976,-0.015967084344391185,0.042275780000999165,0.27570474136159595,0.4371546216118924,0.42460388458298454,-0.006357635462759532,-0.3016139268115351,-0.5450121222883972,-0.24361112321938772,-0.17755036537497962,-0.0010589745413634377,-0.10812765375120405,-0.24225342902335026,-0.624378057384033,0.18526289029904833,0.39236112413331037,0.2273220140744333,0.0859178479307004,-0.22797841094751534,-0.0019566510416186367,0.008924224059496921,0.0497207552746411,0.22351518102403373,0.2456841121856256,0.1675273949897803,0.04279174344171341,-0.3069534762530397,-0.3495351320828952,-0.15359545344758818,0.26156879704367986,-0.1525250173814156,-0.08736662281733812,0.07041635386139775,0.2382250514757719,0.43625471019886924,0.21451343886586438,0.1999807246055498,0.11811450930288021,-0.007930924640934752,-0.005833311856360205,-0.009464203484524699,0.05572074317249884,0.2952300793788585,0.4420904270428452,0.257538452183328,0.0364797323193619,-0.25643620543185885,0.13205103085433662,0.09314331174388728,0.139175167150874,-0.019538891875256877,0.013878083836301942,0.08163205347194534,0.4854093306696487,0.13626191613857763,0.016811255285746906,-0.10735547494694521,-0.07267518920928295,0.0058953583482541875,-0.02357942920892282,0.016482481540724445,-0.0020796660194489745,0.1145817278107529,0.3213820193594856,0.049869033771004906,-0.2839847518357738,-0.3594864220049939,0.18324157981279074,0.6128604480819059,0.3147021541737324,0.257088736733863,0.11071885831956771,0.21846906961423337,0.349969291559972,0.24938064526303394,0.27546581265236614,0.10674004108335096,0.08199432857542745,-0.015576819007288977,-0.023612541323102573,-0.008030193878794485,-0.0019498674326656547,0.001758931432631932,0.025050398838168425,-0.27412462789122993,-0.13993531059014122,0.02912149291511675,0.335856867047124,0.7631613011996363,0.29980340938819794,0.33086776611170404,0.32616626754845907,0.43201645500465446,0.431458607538228,0.5351137936710063,0.35052142281718207,0.06019389216576361,0.13324724749886968,0.07437734503688562,0.030814270330766703,-0.009988371574749614,-0.0062091139730653016,0.01969988218738103,-0.1668880171606296,-0.22802590216342647,-0.1484425880516328,0.24651233641057013,0.33418975039108306,0.3202264689176066,0.4001284725310709,0.3517106988786023,0.31370685987307023,0.5004720562160421,0.4660816162882518,0.3472348807095477,0.2246419690825795,0.04904824723102725,0.055941476016801814,0.07436668612742017,0.03926051746344149,0.015143753334162888,-0.008566670496373038,0.03013496965739463,-0.2038615662616124,-0.2881827940598669,0.030901814282484112,0.3246644050938879,0.19985168232583644,0.22935240500822696,0.41640756002531143,0.2196272280719512,0.20492399025529592,0.3139135482431377,0.22724322816019699,0.11903965299152491,0.05442230424797382,-0.0044809290023994,-0.020562025786772943,-0.010429141788016636,0.021232430886108468,-0.0030321697400810927,-0.013563265301484231,-0.03501410456000938,-0.06640625505958758,-0.18459571454069132,-0.21512068028104767,-0.22456629992783025,-0.18774364218818237,0.07337312731438235,0.2577343243815664,0.16251314183891216,0.12592715070331098,0.15330862443345755,0.16940835395835302,0.023669945408511157,0.0026431108803946614,0.0063325880211728604,-0.005709408978661137,-0.025413408439773126,0.01697890281504316,-0.006219558910030542,0.015219069999004728,-0.024915451236182336,-0.03439901693489486,-0.03226807262474485,-0.1457789356119768,-0.2683037431251445,-0.250438050218504,-0.03429836063240308,0.14515462849404848,0.03908180805073579,0.11927246613027177,0.10636637670285902,0.03187140268483728,0.02336078224240541,-0.012621892981302776,0.006011506497017659,0.01925060634743328,-0.017116129642832403,-0.009158422548023721,-0.010438125170023098,-0.0017273161912337261,-0.007184910935036046,0.008916438769276301,0.006457745374404523,0.040669008492056756,-0.01263656457379292,-0.01039579350635858,0.010698207588533489,0.007109300608833717,0.017782395381437596,0.02085048890370042,0.003112722895414628,-0.001810271205389285,0.007376801219526007,0.010944756985379072,0.011016402014134825,-0.004567003118358614,0.014302658079506663,0.0005775999254484496,0.26924088618804665,0.006644998415202028,-0.008884654292847825,-0.01679736497511943,-0.008530787491201966,0.017629794267446163,-0.006057986486424372,0.0077402152644312884,-0.014236800999707035,-0.0046419403693849885,0.0003592135795435346,-0.014434309009624597,0.001974805449190037,0.007166049931378041,-0.0028169904674483185,-0.020604249667506784,0.006650032722723605,-0.00415043997229122,-0.01673745831091036,-0.009747296658082853,-0.015048050485632373,0.00539526304346702,0.002647018889965401,-0.01529530473317111,-0.018496087305425634,-0.0023484155324536558,0.006578840314167477,0.019213588544386966,-0.023219616312968122,-0.008721461980342241,-0.008174517528516835,0.008428618346838486,0.00949480070851531,-0.012394159195805212,0.0033812397474508246,0.035156438795892364,-0.016690806304904347,0.010206749788888527,0.018521299893530466,-0.0019907947982714326,0.0035875903349099664,0.002071566374585659,-0.005492867954892268,-0.014235904646703415,-0.017763897861543712,-0.016225932773859843,0.004832021275999931,0.06607741373314917,0.1674806028943642,0.17511256409347026,0.0924145545433578,0.009772823499352034,0.02258610526457701,-0.03554144201541624,-0.08617536593930311,-0.0598748110370215,-0.024399700537595725,-0.011955166469239121,-0.04707066516655542,0.0057097073989225205,-0.000429872186024341,-0.018687391824746775,0.013640239514845606,0.01622615866654924,0.002481185016744959,0.05407605471775256,0.22879945822074382,0.25116874533177364,0.2272535952637754,0.19383415053567185,0.1920568869000394,0.05755075603149991,-0.20140545509441954,-0.11548178773961153,-0.1678417221172191,-0.28912400212418105,-0.09450373205405396,-0.138455667121288,-0.23233347749195465,-0.010365961263938536,0.0017571520547695896,-0.010040175986907622,-0.004728288931565,-0.010802183710386912,0.01517224730765978,0.19859529325620226,0.3908935821964467,0.1374805113288807,-0.09056842157166417,-0.02138959100910655,0.10515155746476262,0.0539287740691268,-0.18408162107728548,-0.31791851096261164,-0.33540221937307074,-0.4907886418118401,-0.212862321817334,-0.06965090514253965,-0.15201199507713206,0.001859347265374793,0.01011620860614283,0.0006828851016843293,0.00027386648643759344,0.00793735212906285,0.031364074519755605,0.34943161489406754,0.2406258475211375,-0.0841706420386519,-0.1294351103735453,0.1925335244506017,-0.027897774006927105,0.09673772139523312,0.3709307805201152,-0.04994804358587376,-0.833393578633559,-0.6212271475705218,0.029290614722772,0.15948453234347484,-0.18949422924371342,-0.03593097212450083,-0.011007832859887358,0.011698354024051229,0.02189970773918662,0.006515380467505247,0.12276435888725615,0.47811887258575786,0.12949788412160057,-0.1802350225260124,0.02186418143458317,0.27997538331937033,-0.2433760061210597,-0.14008405613689515,0.2477670985930728,0.10869699222311555,-0.567078104990809,-0.5534157517336489,-0.02016121931563963,0.08571636536626069,-0.12301016990770484,-0.06640090408730254,0.013997255850368796,0.011956272936401365,0.023629470407541212,-0.019216138214922556,0.19649235559954586,0.15736808664289495,0.06850807077350025,0.1961355186864645,0.06807392302319765,-0.08318943812628633,-0.23147348751830912,-0.6356849827789084,-0.4485235270595262,-0.16128059194773972,0.11148185588158087,-0.004558794431307107,0.07724006038156103,-0.16321986119668233,-0.12923087188975552,-0.1383307458043485,0.06757349995053244,0.00759241606567288,0.010406960062634644,-0.02781309421500352,0.10624238525356224,-0.34728807130106243,-0.03910726458399552,0.14742208373014012,-0.12669334447917005,-0.574666905443353,-0.6012863845359514,-0.5788122466568706,-0.3582841045351347,0.06900945749867454,0.33704732030621287,0.14134574138976588,-0.08135852920215236,-0.35457888085887984,-0.2668947793044097,-0.14943555919005333,0.08872419086586174,-0.004274339705485221,-0.011358672258248353,-0.07168460221235093,0.14555877513764157,-0.4833259545529522,-0.26439779459734447,-0.13142935288391233,-0.22518079287918097,-0.6092150810033965,-0.6130053302579606,-0.30170577795697984,0.2636936786764134,0.6541889058840519,0.5679886014253989,0.18358857081019261,-0.1585631329425412,-0.3660084269952005,-0.5015403916219742,-0.3065679777426182,0.0814528163890718,0.010694570688392108,0.011967133999816248,-0.030138802731268056,0.3046398166172981,-0.30502060365693534,-0.6817344044265016,0.05182535911589269,0.0053175438266887115,-0.047143635789936446,-0.23249814321577017,0.24735680537453503,0.8922551557413335,0.8192604262024691,0.6928084299695659,0.5760066649536634,-0.14574412748561055,-0.2614651021520751,-0.2314646884257965,-0.14572865005814645,-0.0421498851496868,-0.02818010380638389,0.0032302633332828134,-0.015001700951411932,0.10439360613963257,-0.35290873209513357,-0.8212698953579298,-0.03782835015987534,0.3195896268864597,0.39588298996468113,-0.09092994440459239,0.14989059219614062,0.38821263301364084,0.09649858065776067,0.22467284472247778,0.50756241634936,-0.058086531025392296,-0.11924124254583504,-0.3232807676761984,-0.017983189620701095,0.004072924728181408,-0.0038684513404436253,0.030539664762089802,-0.13709624733024536,-0.24685099330046065,-0.46044757626249544,-0.3916871013411716,-0.23866625611428996,0.052988858540045494,0.3426167133963314,0.25490523577104063,0.2791402186768006,0.37874745954098205,-0.1253367182816748,-0.35286415659173487,0.09754171270257789,0.08411774594762834,-0.021321478575579894,-0.07576039033502542,-0.11117609860361974,-0.027834143225554702,0.00603025623627837,0.04883008202122249,-0.049622997041472994,-0.11569713393623127,-0.3328610038685595,-0.07644481157250835,-0.10042564714098107,-0.040097278037073775,0.3756672857257441,0.5319703334994114,0.4273997222071627,0.13768035261379646,-0.07153731016844139,-0.015131082380523967,0.124071221999442,0.034571855201328286,0.013522114010489965,-0.04304548099174706,-0.0691727481141037,-0.020446816983845054,-0.007659836027910374,0.02574491371655886,0.11467630046010244,0.24823473871860918,-0.10992857632235985,-0.2183742521250526,-0.21611080653934991,0.008181771695601654,0.18362147241184643,0.4091840400477315,0.39522388960166593,-0.052650843829156774,-0.056776497145860264,0.028713719357960802,-0.014292114975014427,0.006386757783751694,-0.04601427810009147,-0.08341823125661706,-0.005997585044502534,0.0016227889219959921,0.0038154533627613564,-0.007802148057500056,0.09831930198116395,0.29074963943775806,-0.0696682161606418,-0.17054163115374532,-0.2940661779800597,-0.21266600217715625,0.039459291560807755,0.03150830518600228,0.19752066981565683,0.1109961074933794,-0.25546426844079945,-0.18916101866477286,-0.015993718131480344,-0.07664227850838871,-0.16491405195378575,-0.12868714457042796,0.012563635382599718,0.04571150067712419,0.017178653293743136,0.002333171590690778,0.038157345300240925,0.2102843981390559,0.11981463771301099,-0.2827544544091245,-0.4071184194569612,-0.2945693527680955,-0.24447486999884852,-0.08454402990692624,-0.017755958163284225,-0.016507010592190705,-0.0858993414599302,-0.0203693901827791,0.04940529638138249,-0.0013915846307467601,-0.05014144997137601,-0.04501455690155594,-0.0038780852289478874,0.026160506798204693,0.015456589861295297,0.007778145821331856,0.00042027124905455264,0.03082571192398368,-0.026470329901904056,-0.117086941860949,-0.42999074524209685,-0.3476907665634918,-0.1751574460676498,0.014336046894156147,-0.11566427640907827,-0.21178168948901446,-0.05793102027698546,0.06424029423943822,0.1288665842561162,0.12917875743618484,0.0449300251192892,0.007244987411541599,0.01960242072506786,-0.01772377047757372,0.004113924411840842,0.012872220085426126,-0.016432177810291954,-0.04725708947596323,-0.05748863681451918,0.005108917795963094,-0.10816642736603836,-0.13719637732070203,-0.0711058434808874,0.005131427847511784,-0.030512615393449995,-0.16357117983699251,-0.09250724695083844,-0.027033070042037956,0.04776259272352469,0.0754381804154188,0.03129113165328709,-0.007820085081653322,-0.0022264527767456017,-0.013437710757026138,-0.006787180973046979,0.01055032856527352,0.01841075339475588,0.006101071261338042,0.0010732988019154055,-0.03284609300466223,-0.032971151856107064,0.0034370853184910294,-0.025495497242190114,0.01335853041212768,-0.014193973627269634,-0.013966523051435805,-0.023715996337733115,0.018740347779889928,-0.019240992843399723,0.008044598575579149,0.0041598704039942525,-0.006368299707499251,0.015170186156602412,0.014486985775824511,0.047003062443136005,-0.010436010877006834,-0.00046540513035110345,0.008616775984537701,-0.007470094531272799,0.001312080562324592,-0.015320355059281447,0.009293846688766145,-0.008556751472515304,0.012418014196851079,0.004284161237103523,-0.0015374439715509613,-0.017487195208462675,-0.0077002454164908155,0.0038960796063789815,-0.013158462947408195,0.01273765095488687,-0.0038428709030302664,-0.012476572528715504,-0.013453434745183155,-0.0031819677021025254,0.0012848314581928178,-0.00411299954772265,-0.009612951995049466,-0.01757797918603109,-0.014105157543071888,0.012001220599500446,0.002578335089540516,0.03085846057848519,0.028972636077521673,-0.0029088589603041572,-0.00025229849728941194,0.02262282385441816,0.020797143344962615,-0.018194283452370306,0.00039994414685773545,0.0138873657702748,0.011436236010296408,-0.007775258731723166,-0.01014111513593602,0.010081907001383868,