56;785
-0.089554273211308,-0.034519296031760356,0.03709895855761755,0.026219822846505175,-0.0317348579502602,0.0077243952626281885,-0.007399647579922276,-0.03935820989533098,0.032704732046944934,0.024193338534828246,0.016275787125779425,0.006974816576204689,0.02118129847455034,0.026514071549139744,0.02147789424040353,0.028898748401222106,0.030588286455063892,0.030207333696215793,0.0038758360673774657,0.0007820364711496899,-0.006090846599034805,-0.031478970695366815,0.01791597986553537,0.042861104901288895,-0.04158239074625623,0.006665133298609829,0.021316280731676955,0.04018102753822283,-0.03773798393018305,0.029343119225821813,-0.00923172682708624,-0.0313378856586523,0.030249458789121504,0.02080695348212446,-0.03049075722922837,0.020811629455304494,0.03286721123773052,-0.009794670113784222,0.039071225983822754,0.017546389768310484,-0.04333970506015049,0.010010535106872458,0.00402370707948541,0.012783302923690135,-0.003332196627295982,0.018784933193433394,-0.03132448985006691,-0.04272268694575415,-0.04414293491403561,-0.04380106946677381,-0.030230676815087454,-0.0109161751907018,-0.028094382764974557,-0.038444861760614214,-0.013866281010412517,0.026520122529667886,0.03129827433797006,-0.006337538719735048,0.011943765831323632,0.033643297576988834,-0.020524031650213503,0.039751435761309954,-0.01293004439253593,0.005015482684827959,0.009109915127332882,-0.003751894989194146,-0.019801570281344695,-0.020410659378970315,-0.02015616450633472,0.013816293206764575,-0.009363364940882602,-0.02557521292087547,-0.025957685619755973,0.04096634186231676,0.022472649928806182,-0.0004961183474677524,-0.021976955115422345,-0.006612682857283116,0.009382539181274865,0.019457512527253695,-0.02243876018701848,0.030420947701954464,-0.03455354876557738,0.0029421007157934653,0.024013841291438784,-0.036689164693930895,0.018945381035312635,0.042287429000423434,0.036320988983891786,-0.03722168911655318,0.022906024286537794,-0.022336941737406295,0.007920590613295636,-0.025860851538950104,0.027679670932927888,-0.022718370823502004,0.031105793541789554,-0.013583887256607382,0.06069314722591176,-0.008962142702851878,0.03586908324955902,-0.003418153379231998,0.008643766848884536,-0.015338156125759976,-0.009185850807377197,-0.022423837510487963,-0.03008310963742559,-0.02612109542823368,-0.0013151827765698813,0.010958625702487035,-0.034913319200451334,-0.03585183113797477,-0.004801692721185916,0.026651290283673367,-0.03305909148161551,-0.04169005216384037,-0.005699921887777768,0.01748316303198905,-0.012590311968838468,0.008588678431741045,0.014913910692742668,0.04652650664975975,0.030688633336023823,0.03294824349275478,0.06837038571813854,0.07664352599968202,0.0037116445735338763,0.06832189007490018,0.08012276823552722,0.05336521561132714,0.056140330307647736,0.051603262415683034,-0.0007033710542511823,-0.008234183678048176,0.04932000902738814,-0.024862363255390294,0.005986313481149403,0.03604350920418197,0.03975727496111888,0.017983191078654915,0.01670939740110375,-4.195690616192133e-05,0.03952365638286256,-0.022191405954984658,-0.007695754292028403,-0.01584264446821518,-0.03337204009744999,-0.020557984071888333,0.03266823802198767,-0.024961317036290016,0.03731825425640159,0.06808470986405529,0.012441505975257842,0.009642797123653755,0.03874857081540032,0.07492249277024202,0.07774576060201528,0.12765531708715272,0.10903514047350835,0.11595893840983316,0.08915303111164086,0.04782901242963254,0.042410234522952936,0.033456323967122066,-0.017421665358427804,-0.01127353570981632,0.04400467011965606,0.035329481659986846,-0.018987755059468137,0.014760723961151566,-0.005326127109566681,0.0068642190073579185,-0.023287248929303603,-0.0073233595771826565,-0.01722122234010531,-0.004711779901398002,0.060156272854683335,0.02509125880466878,0.08159623419169736,0.014664269391869105,0.06001787757005896,0.024255331840642585,0.0008951804882853781,0.046281140811691227,0.020635543127066298,0.0856451518539063,0.0832541670669316,0.08452320026226608,0.08762985923455069,0.04595519250135967,0.04338094465226977,0.02036487052553667,0.010787734852753562,0.04897694196445057,0.020555686445814368,-0.021206758420170953,0.00773108329660823,0.03396067192669242,0.015857719746097117,-0.03961213502939593,0.03099005682326886,0.015720019158034393,-0.0168444385642557,0.06191799384196805,-0.018053801632335227,0.005141061062605648,0.007204331024197688,0.0099539619472618,0.0094469836922654,0.02454064785405467,0.0038813406092433186,0.03898147286264197,-0.0076935173714971035,0.002789233669353168,0.04186589874994049,0.022599838355343356,0.1046089659733414,0.10426263952315752,0.12005127310314946,0.06474869943171527,0.10238365696526755,0.06967666630183106,0.04862351834607365,0.018850424167729765,-0.02847821118719291,-0.013815685500882776,0.011185214964775626,-0.0071785648799967,-0.021349971695314385,0.007970209751408726,0.004483408516488001,0.05199202549236887,-0.01830625773088746,0.0160697503614708,0.00160437420277403,0.04136975052941695,-0.005466701313894165,-0.03789741110427423,-0.05472565662310153,-0.008044716239736432,-0.009400980926766314,0.01744405661073246,0.05227423051124997,0.048768342230864,0.09961922427839544,0.0666130052287003,0.058053544513770254,0.09699225393923191,0.11123930029601395,0.08906633145060981,0.02264195375252886,-0.01594899676071155,-0.009472209871268128,-0.0009538432912817904,0.010717794235660782,-0.03477754190499112,0.008343866555471617,0.031669847973439164,-0.04391810232021115,-0.02752769451168726,0.008793854105383817,-0.006101719101810582,-0.053493694980927285,-0.015067161607060545,-0.03730669012791275,-0.004486989448147538,-0.03227970749897103,0.027427908490036162,0.010963781898141005,0.007794219126724472,0.04638932989154402,0.04018870822001933,0.07521830687463485,0.07118248575983921,0.121402030237439,0.11660699801293355,0.13577253983840534,0.15459200678740972,0.10981055496014913,0.01758803385655154,-0.024390849459842386,0.0321876568560434,-0.008820605513818415,0.02445523037621564,0.03559532249441641,0.033516753889176,-0.00869898911230437,-0.003251906065007208,-0.01912215275196127,-0.07067890700613767,-0.05043160391250604,-0.06739718698336138,-0.02442444122898408,-0.043196643780729044,-0.03928425313551016,0.04616004911367883,-0.001808749226081082,0.008150207268415826,-0.06365902184298693,-0.06516949326368172,-0.019830741751478823,0.002074580296221043,0.05260250789132944,0.09482971267223904,0.06062077886587977,0.07408132233574778,0.02135123329705947,0.0010284889544659387,-0.02464480211104109,-0.009530299119292703,0.0016380203849527498,0.001279090910608398,0.019254288966211966,-0.04291738774067238,-0.01441004018570015,-0.09319567417065112,-0.06228714213177964,-0.1389596967727789,-0.1262288356063012,-0.09476497982475794,-0.02668238095962911,0.03978285753940092,0.1094886694818304,0.048559201272510476,0.02221369148465016,-0.1295425007437164,-0.10903483653123536,-0.08422765837771745,-0.07134710971589592,-0.1468316974135689,-0.1123327894114948,-0.059600586567031086,0.025825187274609786,0.015917154193641488,-0.017076420044861696,0.02104619103073907,-0.014920112980004882,0.005320741940801095,-0.02132390770659644,-0.00945714313913185,0.009578873582012806,-0.01515812366983171,-0.08822329296404433,-0.09685145113346368,-0.06367830418070637,-0.06318551594121061,-0.09580597938196342,-0.05428335794742308,-0.031603448970110505,0.1071707957165528,0.11154463619741636,0.09001647806626592,-0.05046452740716767,-0.1159582638222427,-0.1909840499572291,-0.1588691508973187,-0.16724276873882987,-0.13915612390462054,-0.11060928509704301,-0.07786490449590941,-0.03706281498864231,-0.02873058751637078,-0.02960292520594118,-0.005917638848936708,0.003067463968645437,0.013269800260940432,0.022645114658458775,-0.03451636197519774,-0.0041161827673008985,-0.058037547713008494,-0.1091170742100247,-0.0522717194190922,-0.053524893946515745,-0.05453217091502465,-0.051941938437735626,0.027395973230267406,0.08145886162856407,0.1880208757149739,0.12664875367049375,0.06993452100714607,-0.06378598244874303,-0.18434522229243205,-0.21614144888698708,-0.1294978342179644,-0.13596334540944174,-0.1309873639731571,-0.09464666998317711,-0.05925084235816512,0.016831871156115143,0.019612462162440652,0.039631440753499836,-0.0025534577329696887,0.027844132738848955,0.00893415544253913,-0.04458400076645092,0.002297734532601282,0.021156696238357565,0.007678714175095944,-0.05057167314855801,-0.024585111422324054,-0.006528496133086705,-0.02407258977372882,0.07335747516120361,0.09714673503299179,0.10491049383559199,0.1289772799230413,0.11666939484221482,-0.010933777962304147,-0.07530584255289613,-0.20799751976807157,-0.14445498826157727,-0.1361111126808878,-0.12805534962615508,-0.10331126113185757,-0.023653136123543958,-0.05634228379487854,-0.03544848873496216,-0.01054301223689576,0.008438397011582856,0.006600311373350632,0.04113455519624683,-0.027887871120634913,0.016658003392250882,-0.04276349571850126,0.02150275621141314,-0.03658378000799587,0.010626489644056094,-0.048547113490060974,-0.03388640859540252,0.05396188473080848,0.041027030793059555,0.12216896947695527,0.09987226305404416,0.048934969805111195,0.09042683370576964,-0.08837374730668503,-0.16451802261450657,-0.21792813167922095,-0.18389414943419424,-0.08762884869013714,-0.05890416433408512,-0.04419087035299241,-0.02719777608620812,0.033774186232742906,0.028911489783232568,0.061404596088523035,0.0004976731797418191,0.0032445648980987305,0.034184946009294254,-0.03318962732512854,-0.028364545260922983,-0.026390378836329626,0.004051415614125668,0.013262636109365235,0.030979451899195605,0.029095267309943253,-0.010633619486627196,0.005132985353598409,0.051372640155240144,0.05338044597894457,0.07555805270004319,0.01246447365591772,-0.01682853524185319,-0.1104315368553127,-0.18040779350469646,-0.12275593122972664,-0.1050235427773714,-0.057262842380763644,-0.039160133309222335,-0.022040790740179162,0.055380949992348306,0.02011665204782989,0.08175072013364257,0.016739520118022058,-0.03199500185675081,-0.01625512314843597,0.012288603576294856,0.041758235226830226,0.04107851618375615,0.0057901508369256035,0.019833768880672994,0.028637347961054646,0.012131073344128896,0.0750013503878463,0.0385353621688198,-0.02234289351519888,0.05520654081165573,-0.021361974970868225,-0.06340877482756088,-0.09695320007544322,-0.16518134330238501,-0.1982297338646038,-0.19244704970275256,-0.0371466219093733,0.001406664879512514,0.010648079496113148,0.06109586485041889,0.09270784370626307,0.11617182771484252,0.0447438047431387,0.025403471311454495,0.0229067950868836,-0.0028875957356127636,0.036889244038195386,-0.00964420759666422,-0.018304215499605685,0.03197250631304226,0.0411303485727475,0.06283569635941202,0.049396828681752186,0.13272718212683363,0.10901685148168462,0.11934385117093921,0.09409278925136456,0.05695263624766168,0.032727751608147546,-0.02036184433355173,-0.10146592097324444,-0.19000908368830913,-0.17650056167216904,-0.07759665127975045,-0.029062593059249058,0.07096238611240559,0.07769083937471523,0.03987792139863203,0.057919573665446665,0.09481950766587602,0.13046701631229662,0.08988930133963907,0.004488381968953377,-0.016033049272916548,-0.0036355935366557965,0.032976482706264625,-0.023093202022431567,-0.03437581915738955,-0.03873269487839349,0.05605300723469042,0.01602871177853941,0.09647073824430408,0.1281952506449658,0.21528114992726474,0.14172401340732593,0.17980179118508308,0.05877567278659803,0.05482881658870792,-0.043371285787831566,-0.06744999959923904,-0.031142090392201123,-0.050335264846850365,0.009473289232472657,0.09345913299588333,0.0680199301806696,0.07340071590686786,0.1122278892164201,0.12791426057669075,0.11923727773798894,0.012929896871429534,-0.015723223471544395,-0.025182062408683665,0.010310753981856241,-0.041863281824636826,-0.016467789408605073,0.028343250689100187,0.021907086841188257,-0.013378972131507579,0.0883813956573785,0.11195674807954388,0.17095627437314423,0.15854564564537113,0.2282554239096379,0.20148266597896294,0.09963251864164649,0.09146975195175339,-0.023128508554567627,0.005848812835091504,-0.04262831849644505,0.015167058849672477,0.03177706489178485,0.08887122374965098,0.08661132515308657,0.13688825199458465,0.1394330866731518,0.0739540882948185,0.07753536516784604,0.07969853868397432,-0.0037979152938370626,0.025249305616197208,-0.010134937005980994,0.029963895212884565,-0.03479234068112294,-0.034520911298158,0.02318212110403508,-0.004848757733694404,0.036163333535915096,0.05177319484974728,0.12244303203195389,0.15259890592744255,0.191814556003719,0.1536162876647865,0.13313030990494815,0.09703055282695629,0.05017186927780448,0.010211355029134082,0.004091301640086879,0.03818287293880729,0.05341231311981057,0.08079643759200052,0.07962764655522458,0.0787898041933608,0.09865434263911785,0.04773376757212428,0.006459787714561513,0.04011543560889826,0.018990181378875808,0.0027112217207559976,-0.006699535519567404,0.035906185123994544,-0.034914112007835826,0.004456767804783402,0.039942157574797084,0.04843351262186687,0.01394700530486362,0.020766055457756595,0.042086141622611185,0.06103751686245349,0.13825893078430587,0.13825953263365579,0.13832664016303095,0.08385090937988787,0.03626785451703965,0.0897407523173971,0.08282063990697588,0.021604897248531447,0.05664974227461766,0.04775312917362933,0.039153321657580765,0.023467426142229776,0.004166276753715782,0.03543771516485439,0.02306284270614974,-0.0356752413275129,0.0361192386009481,0.012486582031159793,0.02759657508851069,0.004237450678550197,-0.042772886271040575,-0.026812478045093405,-0.016095780675922808,0.020263960055077218,0.025225839583146652,0.008478895364469101,0.06703026852631468,0.028521186206872925,0.029802989408444256,0.1171909977575948,0.13942127705659146,0.09980941920933073,0.1344981709078649,0.06198546532510185,0.051277450565573306,0.07779953732060713,0.00024058650942804702,0.006225606561391276,-0.023479657304350872,0.028810627776711107,0.021431401440815023,0.018604619889656213,-0.0035440637499391803,-0.019400561732643595,-0.02622896013525861,0.006163183742503647,0.011953485110832775,0.01065443317742799,-0.005320642769311657,-0.02205766723538796,0.01834673384842166,0.04774108147208509,-0.031932599915739296,-0.0030216207745982528,-0.014303187279266546,-0.012895497717958825,-0.006139415450835308,0.0109883739973249,0.02184549103320569,0.07511793024277626,0.060263749854914055,0.10528163004440798,0.003479118914601492,0.015412592615361419,-0.020546758104512796,-0.0475942706837733,0.0171540194549652,-0.050910940725441736,-0.001723752872404858,-0.014239400431153756,0.013498724181123736,-0.04687235225871836,0.04073023816468393,-0.013135542250740161,0.0032569067048460265,0.042051642520910565,-0.001567096385662269,0.013298136749782623,0.034748708725027846,0.033829668324219436,0.02544184380396377,-0.053534071450752084,-0.05593151876914506,-0.04609256120172593,-0.0737006337054473,-0.03114261465091407,-0.021912294296696527,0.02667282146898891,-0.020926408785604814,-0.03092966795832464,-0.04017250951250825,-0.020862623113397427,-0.05896071775356288,-0.08385583678996761,-0.04245232989365336,-0.004412615780785996,-0.017743222300566273,-0.05491612246926151,-0.026583885680062883,0.017365391352273708,-0.0341127133460503,-0.02989078077135152,-0.00048178905873988675,0.03680967110982557,-5.8176197916158295e-05,-0.022028352211662567,0.03591400953235195,-0.00796079293724905,0.011593649468362966,-0.015509880337312083,-0.046728511488687036,-0.043102845058896666,0.030183689366289894,0.01150336620633062,0.007727054473016655,0.004617229346306375,-0.03488008746303169,-0.015821638811049223,-0.06938019877546005,0.0028532355899014913,-0.058524964698051345,-0.033239882561904174,-0.03281755078403554,-0.03245953618622732,-0.05184259525914542,0.029363331207974026,0.03164560605914654,-0.005205882417596462,-0.03479392807808505,0.043032390010323725,-0.002630570387341589,0.030342548209943997,-0.03576834346535932,-0.026192562088984107,-0.0019526097472376896,0.03366125422895703,0.01720418777662868,-0.03556005059650152,0.0012632257316744111,-0.028062052827526548,-0.013530509649712235,-0.019203143178565796,-0.001194934769699014,0.00315485514517995,0.013629478260256227,0.01049127452473317,-0.012025330714022526,-0.03799209350819719,-0.002214784668113481,-0.023202698788685732,0.005223709480542414,0.03254057783903524,-0.04300159442431196,-0.0206175915797237,-0.015668733064201745,-0.002007079485236904,-0.005398169630755814,0.01967361748661022,-0.03431721879783905,-0.013066605522597115,-0.30011710516774176,0.009222665419714629,0.010381108147489635,-0.0009913907920983418,-0.01081145716309237,-0.007266106670266335,-0.04076548088131282,0.016041518798782944,-0.01303237262015389,0.019653034413731976,-0.015444519963020013,0.034600561597354536,0.02296497094905803,0.010415854818152014,0.04116870890450469,0.0327365504501394,0.03304532109262116,-0.02979276513400332,-0.02017753048262626,0.025256443350901322,0.03309771958849762,-0.01046132730119167,0.011119506206029304,0.026316812669490628,-0.042565629034736104,-0.03200526219747573,0.009177002921865428,-0.04095412799058079,-0.02631295324333824,-0.033433154161939906,0.004426324786438103,0.026739540881203654,-0.0030689035981980254,-0.015323856080330938,0.005120635900145304,0.021825149079581056,0.026373433445907767,0.02917623057494406,-0.026691818124228526,-0.0391892886151966,-0.025377926901017627,-0.008452966928210126,-0.02247583958930958,0.028459210999057107,-0.042436811007650704,-0.008454151452382578,-0.03964086584091434,0.028519848144594392,-0.03954468145773866,0.03394108472514223,-0.030500283952846544,0.009360994355906867,-0.029272207743759993,0.008293608865315232,-0.04274508399833242,-0.023654309336559265,-0.009275192458005645,0.005337239330685132,-0.007025574390290907,0.03273689228455911,0.014884449647836757,-0.03277607471657,0.035509190886486415,0.020361741192762045,0.004507271850018594,-0.019872316242830396,0.03489034972520317,0.014958555772347558,0.002226999770970209,0.03330506922766364,-0.01920467273892697,0.03768238183560815,0.008735024953830684,0.030861893409488774,-0.0019762395494958983,0.03948459310518002,-0.01267630580583544,0.0168246582211626,-0.0408524209700812,-0.013158789869911222,-0.03958876958132722,-0.038864463953023606,-0.028712774716175702,-0.04167375437017839,-0.000236969859139222,0.04022795461958902,-0.03215665264415733,-0.020960941764978293,0.03638344206870505,-0.014971909260577313,-0.004005832160865154,0.0407587463186643,-0.022995141149173833,0.01533485468735271,0.005678768868837075,0.025437482442408565,0.00045250616484035424,0.02496925351355101,0.01218226421534477,0.04284040205611525,-0.0045298900529714,0.0591820011026647,0.04845821809182075,-0.0017034655164882286,-0.019987211539002302,0.05747451207144932,0.028112303625377668,-0.029765212566498497,0.04239305312755417,-0.04108727840153074,0.040680038939698765,-0.017777906845903923,-0.0009071379618009257,-0.03969913925242536,0.03532873609395722,-0.008798403906554455,0.024319994720373224,0.02847726276648934,0.01875560122129139,-0.002569333212747654,0.03138328171686799,0.06710774109383326,0.03072032124135284,0.0661038636716569,0.0495159217418162,0.04844781702730794,0.07778772151491876,0.04624672599595898,-0.006089449714060047,-0.003594342965158508,0.029197029964081266,0.002431366865157288,-0.012500865328860281,0.02193754395438756,-0.053760044583179074,0.009000949715788227,0.000565291412596826,-0.00031870006411828647,-0.011864131815097512,-0.0002059228702898327,-0.03892602038760154,-0.0081129135472883,-0.012798975950500368,-0.011732003312288585,-0.04175575235416305,-0.02297532527583711,0.01201366760437793,-0.0018841797476539766,0.06575071897559881,0.004121113867625618,0.048617861955438046,0.06108830200089064,0.06641394263894623,0.04623341064859763,0.10279770681212408,0.07864524074512282,0.06427930878872508,0.08802440466875142,0.052918712196291524,0.06724161790026646,0.013598362298706155,-0.04199641452163251,-0.02783068891958147,-0.022182589224519378,-0.03395200318512873,0.01906568765285791,-0.00023690903522930552,0.01477416928655203,-0.042707683296033395,-0.044257299828741506,-0.03559309985906318,0.024650153418934024,-0.0194737354986012,0.0048613025794582545,0.012710265477762267,0.04923115793153487,0.028224527467267214,0.04401533211930918,0.07146762129989455,0.057625408516345344,0.056851560610457756,0.06143025277808682,0.03417268532930547,0.09391672391610177,0.15702760385820086,0.10800486902240045,0.050447363364870684,0.08474376156269264,-0.034767837973116014,-0.04559108035229347,-0.06055311794962091,-0.06608341842674574,-0.04836611769540417,-0.03495633800836818,-0.04069168106986229,0.02407385476225017,-0.015452613921601605,0.04103562061541121,-0.03479124974821285,-0.02853001026813333,-0.01150778079628173,-0.051064635144313496,-0.017332362171535436,-0.04724931249383823,-0.04356158408418512,-0.03489295508585326,-0.022825403892216517,0.0020058491073172064,-0.04550532927007461,-0.01333303932394981,0.1073216745834746,0.1884408504468137,0.19381954298177886,0.13703522679248992,0.06903378714818205,0.006467367663472992,-0.02983751247331722,-0.06365734342437263,-0.02322808039984853,-0.07987544625616923,0.01825366168434341,-0.0010564019440147787,-0.04124095904068789,0.04110858052390908,-0.03602040124231295,-0.03947113218848381,0.04249646979260483,0.0044405798197895245,-0.024074541331980382,-0.0009459607454217196,-0.02012424937477617,0.0010286037124963097,-0.07923409917542706,-0.10507493938404272,-0.09000495991158969,0.0019452748789125138,-0.019028129084540463,-0.058215121931320356,-0.02196468818057175,0.04110939259558101,0.09080104092926457,0.03683964172900904,-0.0023505368605715934,-0.003622330671048708,-0.05593716648610098,-0.01958790579073234,-0.0028024371020901055,-0.06543130164305416,-0.05815929377477972,-0.023457393971083523,0.0042212197614227625,-0.006578591580075636,0.00951446488374207,0.0008667748409544642,0.01629252104062201,-0.025566063155616336,-0.008525054422890628,-0.07065519292603295,-0.08365556852799487,-0.06164644751060212,-0.049923933790398146,-0.02378420932085292,-0.07194744465792921,-0.0030570731186656424,-0.059293758328741675,-0.03263301518881716,-0.009928673217905774,-0.04875444504513309,-0.07681524889832778,-0.12306233657065038,-0.09308168106055949,-0.0424345381627635,-0.08595560268780884,-0.03004423330623028,-0.07181029714969211,-0.03209034303122747,0.011902576258978845,-0.04423710819818793,0.03748465619319951,0.024988189789671905,0.019677749675265598,-0.013237366781465941,0.025954765194063593,-0.03764561368838245,0.003453780062796175,-0.07113998012917218,-0.026638463924513297,-0.07733165930229151,-0.009900692143174543,-0.020460112181809216,-0.02397507684499045,0.01994839721763924,0.0038322086298522495,-0.026998229045802995,-0.08769168945665082,-0.16898038453346365,-0.19467895448524872,-0.16104603355355673,-0.07024083392910035,-0.036935518779352444,-0.04754191373279236,-0.029725921256824345,-0.018232905838154952,-0.0393995854165889,0.031178580922261077,-0.01055068563934912,0.027359886581281148,-0.0319805739103811,-0.039522081305245045,0.0028488222605163272,-0.03197186497156371,-0.0223909246999609,-0.03185485257629629,-0.02728387449739227,-0.013484566217224131,-0.025107170144010857,0.01271817790143577,0.039576823678047504,-0.015071917259344743,0.05664643508321552,-0.012170052946218009,-0.07266265279954545,-0.12695345982582623,-0.18415944445473684,-0.18356348681573534,-0.136800249895193,0.0008318894625587339,-0.022929881889785102,0.004568326108002439,0.012171637779888443,0.004665130220044902,-0.01824252229723874,0.0687926280874086,0.0347333283870223,-0.024646493027453885,-0.03286654665611283,-0.04431874565738963,0.022749546063250546,0.013360308259524686,-0.05385809460020853,-0.00851640956819928,-0.014174760634587797,0.02850415341520896,-0.025594110309506247,-0.022132536694507245,0.060792265892058564,0.02399862958448848,0.09971175401020893,0.0643782221678491,0.11507285192215587,0.03004148928588524,-0.07164898248571885,-0.012392604372860277,-0.05877623131351585,-0.021307708859915148,0.04986945235354221,0.08536235585469519,0.009916978718047845,0.020231413807092907,0.0152482466778495,0.01876026952462114,0.04505419615969404,-0.02561829955597431,-0.028285570859310445,-0.010655407430661077,0.017300895407673135,-0.006986001618708426,-0.043035235206883245,-0.04465783264125603,-0.06175888445150795,0.0477064905852582,0.03643578747056924,0.025644441482033205,0.023253408543361546,0.15411302524688092,0.18914440758290188,0.2044015014670091,0.22571775910071795,0.15793887641260734,0.019420381238394988,-0.0064626634681662605,0.0381277348393425,0.04548515118760581,0.0399289697923669,0.04089374110528651,0.020228341238317685,-0.004040598895483485,0.014902789904294837,0.045479223456818256,0.009607971808606081,0.03149439790549161,-0.018514901310652587,0.022737552301541265,-0.0061880673404232775,-0.02378060382283111,-0.039211231585786314,-0.04186529818547218,-0.023893005727918713,-0.014050373535425766,0.047375190734650345,0.09022695869377159,0.14054532258925204,0.15684572493703494,0.24119662434474987,0.24456164629649665,0.19371985373900621,0.1183141668769163,0.06126537741847389,-0.01394361642159311,0.07081654214993449,0.07099855845378952,-0.01691153268303531,-0.08311241477292619,-0.06490438504333396,-0.035449881452506264,0.024119994334534597,0.06008490591863913,0.05589374949461854,-0.021514410271124246,-0.038239296833902675,0.01655768049071703,0.01846788240186265,-0.029276295035816163,0.01091344008076127,0.02006422704664423,0.012359836110324925,0.015436437354548214,0.027918578951642556,0.12959742824954948,0.15115760093551017,0.19153971297270542,0.1838999388156914,0.18361085501970992,0.10153480637009715,-0.006666792478894118,-0.05132290797185654,0.01178382162841993,0.04679219039289473,0.05019581001617439,0.0007522385924771029,-0.03442477492577408,0.00017809249282561663,-0.05689001017685477,-0.01333316735469034,0.04188190261805247,0.03284526743833634,0.00505359428238818,-0.020102271676777975,-0.02164494878058037,0.03849467161206065,-0.0026345571345309715,0.034242780068671694,-0.010637902643685719,-0.024743404565589218,0.06732515578670882,0.03773333738925929,0.0615453685321022,0.1300467757150144,0.10754542007949988,0.11521052754339348,0.10140800102638525,0.008110866565099566,-0.06226099865664802,-0.14532614265097454,-0.017416610826536272,-0.012342411986660928,0.002614912260545692,0.01840192157738977,-0.0032784670762212678,-0.012296729140633117,0.006222177073238297,-0.0201174398416023,0.05430499516245271,0.030067872335974872,0.053476104611753505,0.03838452655322794,0.01645608574715454,0.035091281676226826,-0.024527463405397926,-0.0032083653251547776,0.0327712447312646,0.05102992788152751,0.020405734049400333,0.10596144482417501,0.10977958527961389,0.10845613756452524,0.13286272471549174,0.07666461479549032,0.06631146297664164,-0.07088894569888639,-0.10859946481036521,-0.16773747063179792,-0.08508246579508977,0.03641359807221455,-0.003982188917546919,0.002526133219644259,0.009020534586612634,0.01199168781881188,0.07413731547129011,0.07556322186460966,0.014291995322538402,-0.0058276386387927535,0.021511954476782405,-0.01808647354623265,0.013025277970219098,0.024824997891863113,-0.03086684106794893,0.0038812357629918275,-0.027625291107035044,0.0622778935094913,0.06780689711331876,0.07074744257931272,0.0436511581782115,0.10330921209053902,0.0893186492607945,0.07036171017222193,0.015997512937051067,-0.07372914892805142,-0.10042733194643397,-0.10542989256687334,-0.05483417614961052,0.04191756835350086,0.08042943388742554,0.07875584568197479,0.1036553293134548,0.09527595300149912,0.11646491534993626,0.10228298756248197,0.09288025564027234,0.014072779243747752,0.05189935378499748,-0.0404823090259377,-0.02981824515818805,0.0009041535834662763,0.015639562217490192,-0.01765703879974322,0.02614635019507609,0.026753892795525834,0.0708015371300227,0.10459471614179829,0.07237168145915207,0.06639668983294478,0.07836877579392969,0.03527956560333186,0.01151394750534162,-0.00913148496322473,-0.06472550400236389,-0.07125797317686385,-0.03267502782364911,0.055157959844845714,0.03658458193805159,0.13190160929405972,0.10844957901017413,0.06855346540615556,0.09207466809929409,0.10348777597726345,0.04170464907847415,-0.015103061543026155,0.030195548270042723,-0.04179144710662259,-0.03654633122315229,-0.016273111000687932,0.030274939940707592,0.006233534661375483,0.04555400605934248,0.05752128336545928,0.048460334734899774,0.03283660625502237,0.025845493484470003,0.08257252298080413,0.008674295896165574,0.04775219413942398,-0.038658409674624125,0.03209580338075391,-0.032917716718374415,0.02377069116502341,0.046746434855598866,0.05420976625740293,0.05983327075751996,0.10187142423898611,0.08094913377829215,0.13823953722512106,0.05680262355524388,0.06941848152956318,0.06409532395817746,0.05599406913226653,0.02166113936995378,0.03784844240453064,-0.01647898710504428,0.019943804312631607,-0.028665249258464892,0.031983774648567775,-0.012840571012401472,0.045230729482570724,0.012714081443082434,0.015470949330419911,0.06809924116054035,-0.017484300601052608,0.026935566303306485,0.0024305508887077095,0.03183320628950117,0.057227790677462344,0.0091845677158276,-0.027266111544106034,0.026413324412949607,0.037487651026700326,0.009184407274186844,0.07540982160767398,0.0923491939852981,0.10670047984439891,0.03488374807571805,0.01967519315283644,0.07753717508668474,0.0013727416827086234,-0.024042311904972316,0.021190379685027197,0.03193364656261781,-0.023201337789846736,-0.008383704128081683,-0.004805255063622742,-0.02026718388949766,0.04101350936934972,0.01100940635155941,0.006109262147856859,-0.009332953945237666,-0.0002964433509768374,-0.008491020085920689,0.009408215112984761,0.022362585220112183,0.02363314660691985,0.04747430705339873,-0.04287443900569914,-0.05276748092176008,-0.07148033204425504,0.03867810989865155,0.07976533721971645,0.08900422027859181,0.05011033983554419,0.046623751726262784,0.03492959452004386,0.059631885049544156,0.03007763765770491,0.018506011950057126,-0.029431416334021934,0.011012109311014068,-0.023835239993689576,0.024414131675036352,0.0422922017793613,-0.010595983211200203,-0.03895887930812628,-0.029373784955817463,-0.009746481804296553,-0.03225985018705956,-0.005403178127761222,-0.05760501663593209,-0.03578279576223314,-0.02200357252821908,-0.014705682981171874,-0.0028286795522337784,-0.016199099580929483,-0.028156632907571037,-0.04589028334026012,-0.033479549478956726,0.04451659631693854,0.045486968045701154,0.08262753693551012,0.0426441581368031,0.046479417029700876,0.006127822518287953,0.04825943810240166,-0.034047560335909055,0.03912178653520468,0.04347318180390289,0.03993375594290436,-0.00179763355035026,-0.04237582241477066,-0.037174365491423104,0.033086993040498586,-0.039304096270335306,-0.04085477249656006,-0.0046875834106052975,-0.0054215445194785526,-0.03865111794604493,-0.0261362775146834,0.03911873314045079,-0.042943554880265224,0.013823697916842723,-0.05276300418391968,-0.053692086681980555,-0.0330547622243407,0.018700757512379776,-0.005090381653970718,0.05331039632458566,0.07739090423332,0.04158457215881522,0.012962621013113922,0.020258367004284353,0.0032650978830001906,0.042254951998762856,0.03405063640321045,0.017135771607867712,-0.016391298909996615,0.04169862051791043,-0.010268777278845006,-0.02038063644351932,-0.027050621536609837,-0.03987343587152852,-0.017451235291596937,-0.010540944161430013,-0.061741008872819275,-0.0497449455563525,-0.05581282095786336,-0.05187559362844534,-0.02094043667469802,-0.032999478960722604,-0.060375758536680375,-0.032808605576443536,0.011589102300146429,0.015850165955449223,-0.021564840769152126,0.023433852139297193,-0.0035059223868238935,0.03969621795852738,-0.018164019672808205,-0.02547588748498051,0.020431052388290745,0.03213005263970227,0.03745965113193523,0.017954946786471263,-0.03320064926061919,-0.034459891128460284,0.010941754286872577,0.041499243225702434,-0.04127248826897106,0.017585528858362055,-0.007280700333605633,-0.02063572409133764,-0.00673141068647944,0.013958457294995045,-0.00876957575040105,-0.028861687951436687,-0.01475314882028771,-0.04269698565865381,-0.013689214847129923,0.007765750934077463,0.025678011559477153,0.003898979177373034,-0.04539685120807217,-0.009684297963667746,0.01527206440501698,0.029430933618713587,-0.033581190112302976,0.0022356205517999016,-0.004240683346791419,-0.040809996634910556,-0.04087070640593938,0.02560015286507492,0.022395293332786143,-0.04327295111314701,0.041115005288941055,0.0069766330671580295,-0.0014062151480785767,-0.023225616318210584,-0.007315790269773136,0.008802209922637649,0.01624428757094559,-0.031004021222032028,-0.025793110288968107,-0.01989083857074212,-0.041541448192715186,-0.02955003915366822,-0.0265764495223574,0.006098728080885775,-0.019508450085020716,-0.001448065038375356,-0.03340872817538142,-0.025232127777973044,-0.028782197049571905,-0.04354638735628327,0.03763384772079893,-0.01899407123387556,0.03874798584769533,-0.006253476709860065,0.018398883999235494,-0.04129612858470513,-0.18076656908179642,0.031994055795353776,0.008324940021442327,0.008474644028992962,-0.04038667366945675,-0.03905903948988928,0.0037308711614047144,-0.015365109058357692,0.023869968328281387,0.03624195727297245,-0.043312374114999955,-0.008314751752058085,0.04051129976684758,0.028181314350166384,-0.04301623870675698,0.044225788120994675,-0.013495895042742161,-0.03710419645728743,-0.027931113050521456,-0.007505137430522562,-0.018827899609355825,-0.031317185817402636,0.005087465386816952,0.01816408317642213,0.039164811784168384,0.039314334401338476,0.03037176322185882,-0.010981027470824106,-0.006429755488681766,-0.03371732091450281,-0.02659883310590091,-0.024618660069322017,0.0038348619010698157,0.03948781204584782,-0.017385375769631287,-0.004540966687994588,0.015304663296751366,0.03964404531850036,-0.015680426748304745,0.021786651640845582,-0.033496616114461995,0.022473017508530074,-0.01565643303993063,0.008871429813979825,0.04725889634536546,-0.03820673835244417,0.00587245159102637,0.041553278542420025,-0.04096866680209683,-0.02924001765829582,0.006389486774838424,0.022699383768545554,-0.0011797964429868227,0.02415653420193616,-0.031364668504127405,-0.03723230592004803,0.014849481421772144,-0.04092330413809065,-0.03066811722686452,-0.014103853336313827,-0.0019185164579075284,-0.0032129091075735793,0.03126283445741445,-0.014877410135228683,-0.005761702792766455,0.0330946078471606,-0.0027679122002625353,0.03059685044787419,0.026473819323313504,-0.0006772415764211676,0.03031911712185238,0.056006815639226035,0.06718605039828361,0.03786862921395543,0.04380743292249191,0.029658115389449274,0.0037807871198056297,-0.011992081462468107,-0.00309206420342712,0.021983126441875014,0.016194779352929612,-0.014067225772499223,0.022106976207117542,-0.023277672216554218,0.04444717826641201,-0.0426347616808728,0.036426177069186716,-0.012651016444012628,0.006763575514876975,0.023994030821109243,-0.02470993582409555,0.006984541600617227,-0.030297814741658897,-0.010850892223456114,-0.03485495283399953,0.013188118829790641,0.053602468092279684,0.005613523439505938,0.06712576137536631,0.06995345155512916,0.0974093131923034,0.07354712240810678,0.14237569064067965,0.12620208901121396,0.12361241172426825,0.07656159775013632,0.03067325465750602,-0.002618580860814986,0.025321770172423683,-0.02145575131343043,0.03569790596547771,-0.04240082637096585,-0.01880083047000936,0.03186494987853527,0.0006638036030984788,-0.027890206955022562,-0.01818816461645955,-0.002321706168687579,0.020001364575119827,0.025431095447214194,0.03314572189409404,0.04740015581849642,-0.0143811376890684,0.0021916607362113595,-0.014306074397081354,0.05041274462609543,0.06686567316866814,-0.005963190756680476,0.07954857803490044,0.06648232910380489,0.09567895027937495,0.06794784413520041,0.05155958075293167,0.07972195935481943,-0.021776166241934847,0.0033863338900881053,-0.037461965607173985,0.011953480765993223,-0.012984491178090049,-0.030198478962011725,-0.020661276061984927,0.006375669558185493,-0.017076215569279483,0.02109633368659999,0.01919453061386409,0.03849569007687251,0.003012792033250193,0.015283538354112286,0.012770537578928213,0.00828386603287066,-0.030326384531240647,0.007197494594606557,-0.06510096000559265,-0.021736319651906654,0.04370532785425278,0.03659455668929391,0.04408647289896016,0.05411692110490246,0.03909039885488194,-0.006179784376803492,0.002825849807688278,-0.06259163468022676,-0.08943915506930816,-0.051980256095725305,-0.03380620988797583,-0.019230173348512843,0.012527812142072879,0.018436251512141226,-0.04317566856841854,-0.02631844626147297,0.007625648694312923,0.011699326889491024,-0.02980004214964995,0.03707044694905724,0.052003073568396375,0.01744410313912192,-0.006935047321596353,-0.03722675976039028,-0.057018165110110985,-0.05002578899672802,-0.09614094352251072,-0.033689168781231585,-0.006151495374189475,-0.04339618937742327,-0.03299129609620156,-0.014793194977546947,0.008369630704413171,-0.03689004531618831,-0.057165325376646155,-0.09104351946230987,-0.11427730083418454,-0.09388511880055625,-0.05898388815552333,-0.09805114997831327,-0.0720144222209723,-0.011652695999915757,-0.03701405551851929,-0.02604281001524973,-0.021542850923264495,0.024073839008067487,-0.019148858186058666,-0.0007459024381016961,0.06262404019802441,0.027613520391947494,0.002944508381919806,-0.07081274070573622,-0.030437182567050407,-0.07268669197249895,-0.07298130860333,-0.10880904952111296,-0.05666872771984343,0.025044665102225087,0.04082073500962187,3.953187715995938e-05,-0.004137295759475065,-0.0776184927357083,-0.06016012075238853,-0.05659466262181878,-0.10769919333684926,-0.08046497280353385,-0.1369964134210653,-0.1304252094838271,-0.03851964211531947,-0.006828166696326227,-0.020164588741790605,-0.03816169929078636,0.022698731288212953,0.021763384830043087,-0.023215754965860296,-0.004618927709196081,0.00502235748444124,-0.024317047097058737,-0.011448299725480346,-0.08934082590138229,-0.14383172827027768,-0.10143658143550745,-0.13240984291282795,-0.07604606432355202,-0.04940598310760299,0.03564746346139598,0.07589582806979124,0.013518134613184752,0.006969460323400542,-0.024673498157805018,-0.04424530014406108,-0.10060110786637806,-0.10315544209978332,-0.11983043163867507,-0.10133488530989809,-0.13510417824412138,-0.09713603645800406,0.006634491648235632,-0.032331564085461936,-0.025645688031506624,-0.019902805938253363,-0.036297887343991454,-0.01613129778061875,0.04719187419557726,0.0297057546162452,-0.040588908225417095,-0.03765520321938953,-0.07215504659747701,-0.08806854227143461,-0.10253308504274901,-0.17704514661472034,-0.0866924866067145,0.026031712444855422,0.10059388249035092,0.12718051531425317,0.102853554221976,-0.03618742266413432,-0.04470485016519472,-0.015363815192427927,-0.0021209574594291234,-0.044139868068340346,-0.08705894496726048,-0.09094473111747546,-0.04452673839809411,-0.04905461038077633,-0.047428075156985564,-0.037726696783520315,-0.02863796456177247,-0.008315767271605575,0.046545395573105386,-0.017091905035879203,0.02452744986916237,-0.042825958086404686,-0.06307174009143336,-0.015224910031694981,-0.08245023770323391,-0.10311938338281458,-0.1341778740993945,-0.12319002794070683,-0.022386840802970848,0.062241812782718876,0.14877513398367692,0.10326777735149281,-0.0014403494113850045,-0.037669529316986104,-0.012843799194970149,0.009524198026500704,-0.03216297942237108,-0.015179184945590615,-0.01753859667144122,0.00281220822113957,-0.08788895346397803,-0.08807187086567765,-0.017045074307552532,-0.00022145291399421513,-0.009834220895135436,0.0021451719575711734,-0.03873228498720454,-0.005699654351833161,-0.022350572962142864,-0.05983349645412835,-0.04101983482167633,-0.0056022456347374775,-0.0591039073063216,-0.06590848390906717,-0.06768700653650006,-0.02320599757081918,0.04481474036741703,0.12092234027816,0.14034848713447623,0.0006614964863269905,-0.05607411893239931,-0.0271851773945318,-0.010328107347622156,0.012224936828531248,0.0646766107570799,0.06443417246358216,0.11744236736975847,0.052744222445198025,0.025986240160793785,0.019895995198088014,-0.037290291549434154,0.01689427094402678,0.04189947517169353,-0.03582542541539058,-0.010131832714926693,-0.029879677569652874,0.03343620545513025,0.03217460258473708,0.036335925212957275,0.010022527371503729,0.013103812933814607,-0.012657050879900945,0.001003448414822858,0.005354968226250707,0.03922014451034299,0.07504662776080345,0.06427577466133466,-0.08081285632876477,-0.0650045565717656,-0.10442484781090607,-0.055115952009154395,-0.0331838307489099,0.06857250946480083,0.10416902879337994,0.11450461807896455,0.1715324596141093,0.0807057807145446,0.02021976984606559,-0.009940825160111303,-0.029422902321208654,-0.0431786320520946,0.02629727757731631,0.012419730379408822,0.02748749768279218,-0.042507732641717824,0.0303674735020887,0.04122534393942014,0.06885439482208527,0.04917592460359648,0.038961302387892485,0.042378615193895026,0.06163319913135461,0.02971690996758328,0.005975227606445566,-0.024966202133798528,-0.05289613100071603,-0.0718828647331734,-0.053747744977253896,-0.0532973060208418,-0.04622703076547408,-0.015096101779311727,0.13318164104519514,0.19627358863049718,0.17118368588803662,0.10549206345234119,-0.008447458410004638,-0.03387989800470629,0.02823693095046824,0.019592504398771825,0.027660368353288535,-0.00665899616524151,-0.03414739724975057,-0.0280510426439959,0.017328516326562748,0.09782960889419565,0.08904094563850935,0.12164116342762456,0.045387531995088305,0.08766023066280078,-0.009788670860873058,-0.05110260732748336,-0.12626096079444835,-0.08222991858183198,-0.08834123098333845,-0.057372307278447,-0.026534240069596798,-0.013780090179055656,-0.014490759615154645,0.09872973661534341,0.14677463758760137,0.19382121321736087,0.11053363544301002,0.03846485989675939,0.0007262536654936526,-0.04756783481880635,0.042334799646053155,0.010063762705232343,-0.04123991108671877,0.015411960211889845,-0.03664187375305221,-0.04684161107769747,0.026432417344992406,0.06926248198750844,0.10098766748761348,0.03929664211333637,0.06873577323971367,0.0036140011572310775,-0.08678558160350132,-0.13988216397009962,-0.15990023316263985,-0.034897846335827966,-0.08043284816467149,-0.1039132453366591,-0.0748888954094912,0.03380103376157152,0.03712444393521602,0.1274409502803664,0.15678781583637388,0.16049379328153246,0.09457285019872154,0.07694102799453059,-0.03578758419313902,0.002169767135536211,0.03527448952236395,-0.006717871446836064,-0.015375058382556516,0.02133961617189717,-0.013192937379870963,-0.00961006307065096,0.027111152649360443,0.06311657419788294,0.060255399821295366,0.006379679942304187,0.00787315412540767,0.031520427991957735,-0.07559778931457717,-0.18244621986473836,-0.12519148152185863,-0.09840578442487175,-0.12954126636459964,-0.13733496678909837,-0.10503181491290398,-0.00713240081675679,0.06573633587051482,0.09535248020942999,0.09398471965651632,0.09056768257059158,0.0961106816360765,0.019228681061428596,-0.05780391654643834,-0.030054156375430175,0.011703181869548761,-0.00019008633942344064,-0.03914162948070269,-0.03583219374149806,0.008725833697458375,-0.042641154198630904,-0.027864217759280892,-0.007105965500886168,0.027118087293466844,-0.025372093496936907,0.003968325232121336,0.016571549916055753,-0.0606719444463032,-0.18376135923567435,-0.17227767978950267,-0.18673209786358,-0.19232431851700676,-0.11519553605023267,-0.06689495770621212,0.02814704832762451,0.09905368077443501,0.13256854385199324,0.09015886964652316,0.10244587365746811,-0.01913815722370631,-0.02928039429021436,-0.040981870497171086,0.02801169509266173,-0.0188986261071213,-0.006956250298421025,-0.014543040903410053,0.0017232729640930006,-0.01288674853863456,0.031840283488881425,-0.060780187145060095,-0.051991907143669386,-0.042289873581989566,-0.029506829114286905,0.04448358944738844,0.008020411602707387,0.006317340747803286,-0.04196175111589212,-0.12881838777018279,-0.07893864427239973,-0.12547912091825864,-0.06085977120770061,0.0010379281636988431,0.12353379657227623,0.11552543895472663,0.05424637830376628,0.0782140303681924,0.03190573518253607,-0.022933096220047182,-0.026540969462650277,-0.06439073992196205,-0.035320995851383645,0.009038993067253127,-0.018435909807716228,-0.034096569799609185,0.0009669812895576698,0.04553244604347834,-0.01953299076400897,0.009260955198065933,-0.07258787441918572,-0.030974158908617835,-0.001431395806884621,-0.003032841895263802,0.04760489847587713,0.04186530711704352,0.06686502727773576,0.047213787139104055,0.010639974763315336,0.04076121030984912,0.06530179420164575,0.10508932632820028,0.11665257532012273,0.026898136791532065,0.07975675751331157,0.007731992634534201,-0.07561723494011229,-0.0944853866974759,-0.09745947689094463,0.018787375640260274,0.03365555241377024,-2.7741990386427546e-05,-0.031182561278067632,-0.020824795062012142,-0.021581873552603367,0.020583251103374917,0.02471039376599653,0.03753994566726198,-0.05779137646289275,-0.05641169077912527,-0.0731077408001479,-0.025223979040475544,0.03966235015222039,0.08266845922992551,0.17090892147787268,0.14433174937068907,0.1422332546125803,0.11601443992380096,0.1290245037120369,0.094479339423603,0.07719217282605216,-0.013810643924036536,-0.003954227068411753,-0.03107426602528918,-0.11542990571253824,-0.11231839512654211,-0.06118291580041185,-0.05145824637139043,-0.013512892704217244,0.014861448281694343,-0.015432938378307455,0.007818766993218202,-0.03578080589159653,-0.009676549105742602,0.028033543923232845,0.01846341708208595,-0.05447581863908533,-0.09532104234969911,-0.09532939662781963,-0.03215777837503745,-0.00678572886967057,0.039793353915681326,0.10330248862993688,0.15883500668063075,0.1789941700258615,0.16183629683285938,0.08422197225196125,0.01213850167281518,-0.001639794587682676,-0.039058302815023,-0.11368402078731976,-0.06175286800578636,-0.06704669047784652,-0.034005040207486084,-0.04273133880951367,0.011462231119524373,-0.005407841798960273,0.04391709143721013,0.03361678836420247,0.016347083598059746,0.03066623054769819,-0.031003874372436097,0.00099301111365889,0.05635702401345198,-0.007314934377833746,-0.05283221443260031,-0.07333074556228698,-0.06239246070254053,-0.04876619198777222,0.017157294102027175,0.01832814525891753,0.0982341024739025,0.05249823363838966,0.027130163694423438,0.026403008921174892,-0.06137679899614871,-0.0400561766083587,-0.07314797736165027,-0.1402667194328045,-0.08564433310058688,-0.10610272692331528,-0.02418755009403459,0.029245220487554315,0.029307715708998705,-0.02170682527266947,-0.03741425044518558,0.041313119239764766,-0.007334759500690967,-0.014463487517589848,0.012400380969099746,-0.025303665939493066,0.0369890801925534,0.062395477956748775,0.03920346022825014,0.03247086843673322,0.038015860548928616,0.01897180985551131,0.039003194562658126,0.03707906438942322,0.03161522977158559,0.06409031088783776,-0.021520482438492895,-0.054841078167545736,-0.014138792324849915,-0.0410552159832913,-0.12302314821821149,-0.06267599131991387,-0.03365791575587458,-0.048727871235059686,0.01369191946909614,-0.02905744101112892,0.011998584818725408,-0.009345471379102185,0.00847591929779352,0.020436681488457873,0.03053435898370977,0.006931608879856841,0.008448090409004362,-0.024012342494867757,-0.003562217847255296,0.0277219476288806,0.04395740889822063,0.053122836160692924,-0.028566432566115255,-0.0012283791908117819,0.049219215214384174,0.025390895542333893,0.07889608393647442,0.021615908923548456,-0.03166222520583918,-0.023637856306365185,-0.05600119582656163,-0.037162651041673996,-0.09075576786616786,-0.0031621791784258472,0.0038544831533008977,-0.060994441846507465,-0.011966322979290879,-0.018126238784155913,0.020065039836038585,-0.01385062382015254,0.0025228390057729687,-0.020087764117875315,-0.03740035036656916,0.03305470700518918,0.00896748865325335,0.041483359798056944,-0.034297882911585406,0.02283514519739469,-0.007301427742932633,-0.014581378939357337,0.03131999999741181,-0.010262462135955075,0.03049082586121555,-0.002651673716593069,0.06168121626310696,-0.02543224860743949,0.014567522257689215,0.028228967307132764,0.008581861304383442,-0.044200093417826915,-0.016811075897306484,-0.04110120614824609,-0.0360740625227812,0.03020997719271489,-0.0364781197639145,-0.04321275936725932,-0.002061273649421642,0.03731370348549528,0.0015589219577105192,0.03970439192765707,0.02952148230122895,-0.031560887727757225,-0.010287374979907402,-0.03502018906142071,0.01712063067539402,-0.00974909275336764,-0.001441782240542483,-0.0003447690711427677,-0.008902191782796092,0.0497848094607645,-0.019384579820001163,0.06164782253016729,-0.016039998889165737,0.06076808002119468,-0.014933421418341085,0.014187409020992914,0.04629165538709258,-0.006916607170256729,0.0023527499199707956,-0.04744060752238596,-0.03815463705069011,0.013918253198349068,0.010326781784307728,-0.040685941547487045,-0.01213736782476459,-0.04335912201643709,0.04025658345581955,-0.0027596289944957814,0.013297770810672398,-0.03396982930471871,0.0022559524480479255,-0.008621050872247819,0.03731624863605322,-0.002679561022700462,0.001761614299551563,-0.011957854650920256,0.009974663353175366,-0.012248136918410176,0.005672624232675101,0.012439994648173166,0.005389308165804615,0.01775073329470236,-0.024196003409749752,-0.02569726536415284,0.031514363269672295,0.03799367223560554,0.030541733254184338,0.010092529688395739,0.03414098427413902,-0.02443415418030612,-0.008331896480757434,0.03070751906383885,0.024993299198022168,-0.04204553469483802,-0.004946669641250504,-0.1517460436427385,-0.01938870602883623,-0.026309340580403462,-0.017884778123442885,-0.0361710183636226,-0.02094796329749214,0.01942761818955103,0.030755419147804833,0.023852010307725692,-0.02835578534755594,0.02533395108177022,-0.03638934788682976,0.016027880020525652,-0.02512568402640535,-0.006521275440586988,0.04211800765014912,-0.041239120194032135,-0.0004513813552143257,0.027391744642470267,-0.026133905708192073,-0.016294432624697618,-0.0372009181898395,0.02664992712827414,-0.020994101620020238,-0.030246580095526093,-0.009794948549822016,0.010970457952024448,0.03919488993344579,0.015271745570966966,-0.04235950885782792,0.012425890241551038,-0.015821393052189357,-0.04370748109345833,-0.021443153528608067,0.04418976475656585,-0.025066210243452285,0.028259673560705058,0.03299678556060422,0.014183548652333842,-0.039672184979283355,-0.0338182899437644,-0.034043181325228815,0.0353152844699798,-0.03221517044969568,-0.008090043061598226,-0.0033790193689324857,-0.02090047453046203,0.025625004954045804,-0.016533862953355835,0.03616274486813634,0.005166736991989707,0.01511145896602386,-0.004651050982697804,0.01492619735329895,-0.03849548323560969,0.037619120060612875,-0.021893133415277682,-0.03808665448876473,0.03422770395901153,0.020084721540447728,0.022645737802520657,0.016512715820214168,0.03896137571548134,-0.030201246143019826,-0.02739122551411254,0.005438071474523465,0.04634000077123489,0.009805664317423184,0.06050797914294472,0.05285844941106142,0.01741414890586026,-0.006085994654635503,0.02462212123911622,0.05248640813351757,0.0022102438639193347,0.0014667944373431307,0.028012812773564634,0.0056792219883289715,0.03568428048543654,-0.03322534187081024,-0.021914576117563457,0.027902977230169216,0.03714714124654536,-0.030840342022577145,-0.022675960300690957,-0.03424659446552954,0.022302679814102045,0.01203391681567554,0.02528104890120831,-0.03651313280848708,0.02238235874570228,-0.004038887209292846,-0.028656645936508244,0.009187011979418387,0.035152067162029586,-0.014389040370432057,-0.044675538206634904,-0.022754701437995458,0.031756682711550646,0.02126783531120429,-0.04991751957339079,-0.0009839110003719803,-0.04770790126656383,0.001158426948951657,0.02065703747264479,-0.011008174886287692,-0.018454246651491268,-0.018946383691965933,-0.011667494429082628,-0.016047824887345914,0.005421769677432593,-0.03433490967496579,0.01247077553953354,-0.023861482435548434,-0.02968147182279305,-0.027279897580638663,-0.015886243654008463,0.010483155280579129,-0.047332807718191205,-0.01197454486831303,-0.07482806338469367,-0.08117512097011399,-0.08054326407773672,-0.10166506200386069,-0.13308073244944793,-0.07289646961949015,-0.057775382315635955,0.02835941107538889,-0.016134474757728733,-0.04787750959852768,0.005349094099755628,-0.032271591087654775,0.04973124067097672,0.058850504709868245,0.05319763082011615,0.007252924122339607,0.026036947248693234,-0.038170558979924066,-0.04159369368160887,0.0075768212608951025,-0.028467729518856063,-0.032188967292998284,-0.01171441928238139,0.042609015769767736,-0.03908747064999465,0.009025924088431381,-0.05997958916215864,-0.07939389827389257,-0.062251658452015586,-0.10321940067521684,-0.10116327049548426,-0.11259127398414862,-0.07072874130839955,-0.02593325526071204,0.005025007018008936,0.01551394991976026,0.024293609666963617,0.006451679022444558,0.0030352372395265944,0.06256725644650715,0.05776858764318901,-0.0012071245330384144,0.07989255894527862,0.04371979807211966,0.05069406040258857,-0.009615709751940236,0.016520313002577346,-0.011172045990461633,-0.02556958026361996,-0.043952198337878626,0.04395443385133877,-0.038567938187318254,-0.030316576871822837,-0.03346345650123424,-0.07504098060063166,-0.08296251887438734,-0.08509341936309898,-0.15374711964281648,-0.09246786737864722,-0.09017056427401997,-0.07033795829577454,-0.05370331215066788,-0.02649339768156302,0.06755253176504745,0.05695439085609806,0.03346379330138375,0.0308956605230581,0.02227585997184698,0.02112689829340918,-0.011994616423221065,0.02603823451086208,-0.007311293870896632,0.056041327985267786,0.027874379927250798,-0.012747287418207168,0.0026413772076271,-0.0383374865629356,0.03627004876360853,-0.009532850048997687,-0.03958471328649799,-0.05044946508512089,-0.04485089700819676,-0.10924271961071005,-0.14010718416385895,-0.11258339989285106,-0.08331371031951794,-0.11005562359558568,-0.035050869096006916,-0.03351858987289478,-0.052585697958720375,0.048309941399193354,0.03561429763284879,0.07482422778464859,0.11475765809383899,0.08227291606886464,0.04023327541404502,0.024934350224331308,-0.0360198088019473,0.013778151667632545,0.021143667655822297,0.06968020913877641,0.07359175999741403,0.043132396645529314,0.008296857731324263,0.009846986122287377,-0.021174787277288075,-0.002666975547452021,-0.03411175338804688,0.01080247502543461,-0.05930918585226739,-0.10934483057467863,-0.09395113552103583,-0.049170146406761275,-0.057223933506812825,-0.03738396039475707,-0.06555271046728448,0.001186227589941768,-0.011669269187990555,0.04328744063151193,0.07132953795390738,0.05907181993286921,0.022812125496114832,-0.014282456533955865,0.01184322957005714,-0.0681917928962432,-0.0290797372297736,-0.051461298087548624,0.02280335828252011,0.13224015217068724,0.129284038709669,0.0477837477187819,0.051299389351833195,-0.022372327613541333,-0.027729922804474894,0.0046950051396474094,-0.04432429395222625,-0.05511163058168096,-0.08065670658169721,-0.07606376373938582,-0.09532525213420645,-0.012906772911217154,0.0003296909174662352,0.07530826089626246,0.10225986581073965,0.1405616388778603,0.13415921585919421,0.03438155091455919,0.04920629701917808,-0.051994750119704315,-0.11628157449097341,-0.13262090171636357,-0.0739174629931583,-0.04413974468399864,-0.052150956781321534,-0.03945412666057704,-0.0033880743752665787,0.11330180721053407,0.0924718066498555,0.021756997781525112,-0.02686275438564167,-0.03468600541234319,0.03884013195905833,0.03423988506633279,0.033924409032032345,0.013735247801520635,-0.01081947735277345,-0.049014856722495455,-0.01725150613530394,0.07963569843281587,0.17563261504429387,0.2274608376254796,0.18899980440010392,0.24229748008205335,0.17956680518032742,0.10727628083450805,-0.018357092935323772,-0.0742975727948869,-0.20775577441009557,-0.19960853129878298,-0.10913313209750546,-0.09127087761598209,-0.051400687985061595,0.013061885493139138,0.07658297523928845,0.04478861823532186,0.10144633310309237,0.04326391334481315,0.03298395566280537,0.0006652586671538703,0.021941357683273464,-0.008384121394591512,-0.04150331386130074,0.022332628975513122,-0.05240037600112568,0.04493635557203252,0.10430178548079691,0.16344939877988948,0.2720992667277686,0.22591588179126906,0.22580662979135696,0.11051563606154449,0.08987209559718692,0.08979972114717899,0.10984047003180225,-0.014858518295866758,-0.14229277250765926,-0.15461087678793894,-0.13954788575219143,-0.05879939414545261,-0.0392360928278383,0.025765206444493392,0.0745357195467928,0.1083089737822286,0.07196892270272999,-0.03026064344026599,-0.023502219102239624,-0.024388240747257164,-0.02257201304966591,0.005138464147832767,-0.026615592326362007,0.027836865109263934,-0.031289326184519,0.060992171780255185,0.17487757550298402,0.2298890362046986,0.21719498084981292,0.15389913606019348,0.11739916716037666,0.02994259270564703,0.0685841945702207,0.12042772465545747,0.17480234374194525,-0.01567853852147897,-0.09320774551381585,-0.16674215804734255,-0.07809850457595116,0.0007929918659078913,0.029111324066905368,0.04278801225512069,0.10616392242568555,0.07601076883124312,0.004009368521718739,-0.024376168167361312,0.02778149021644418,0.04397290091300773,-0.024746518644044705,0.03805072457929076,-0.03068222733626996,0.0346945260152639,-0.02491956422553454,0.0687900215401648,0.11554693786316553,0.1483494685755714,0.12628223146465808,0.1159485050147426,0.047880607853549244,-0.006563906172820818,0.018396684410902663,0.0835275270373892,0.1337164676951936,0.03596621195709648,-0.10078462513482458,-0.13869010208657856,-0.02946495187671962,-0.059386136890508166,-0.030269074261613686,0.06929565663613654,0.12650561848583786,0.07550586659445688,0.05280844040030214,-0.024727896276250143,-0.023793377156175334,-0.010759773920477844,0.004588806645113211,-0.04065281519997514,0.0030281171302222317,-0.00241538246183766,0.0013501445154272549,0.06977886207396553,0.049923280924909316,0.0683254631595316,0.01154418803100084,-0.005209542828675584,0.0455957668846271,-0.012757453919393268,-0.020569593700776274,0.10059749181046258,0.13818356607864105,0.05482234224830637,-0.0786256716873411,-0.09966915075147594,-0.11919791917206919,-0.10374849674268574,-0.04092706226982936,0.018668963299819055,0.05127656493305537,0.00922702333609233,0.018274153827994688,0.00546275029708733,0.012305989347593785,-0.03208277459064619,0.03551430838359198,-0.03606054335932008,-0.007533473945510125,0.030811548236843938,-0.023716861669230073,0.00829098824573346,0.00011211179197772865,0.01474264207107468,0.04603822667639096,-0.0019180977422298244,0.0032091644354823624,-0.023901255245092623,-0.00493502392931291,0.035283306310299176,0.018807400294450376,-0.07722394588216266,-0.18409004136912982,-0.17898429670536933,-0.1671818595285443,-0.13580184127157394,-0.08554551476794617,-0.07510490796461186,-0.009435256456516534,0.021707994407547,-0.02864211330358292,-0.015184364133491727,-0.024343267511213254,-0.0017824936044222005,0.01846794892599563,-0.042451799522436,0.030368847085976463,0.005104829414341132,0.0007495437970860879,-0.0892923306213764,-0.018448121705112074,-0.06663635179823481,0.030228146133151893,0.084932921226739,0.0902152084482458,0.055229276961344415,0.008732033551946003,0.043090033348720205,-0.05523171166317749,-0.15727708909675386,-0.1479725200393221,-0.2052624125171874,-0.14508005812749616,-0.16946851065504803,-0.11853297920827581,-0.04918443611170798,-1.896026433942209e-05,-0.008950384652124086,0.020167259694746448,-0.05380110118590929,0.00810192786808506,-0.025446456734844344,0.020899747493733793,-0.034709966858369114,0.0070834949215925515,-0.003347615910710246,-0.03048590868237983,-0.02812743766380085,-0.01861895727219246,-0.006124593807010941,-0.0026230485605733766,0.13603308118335328,0.19201499384720097,0.10498996407450444,0.05124245612998788,0.02297193147431309,-0.08501628370093472,-0.1441335076765921,-0.1361646157705641,-0.11809322621025325,-0.14725148959149328,-0.11776734746709329,-0.03023785300160558,-0.07078434782818432,-0.0877716342532158,-0.07229088276778588,-0.02789349566048146,-0.012132402370691039,-0.02039077023197057,-0.02646183544664465,-0.03472337802147248,-0.033294780331860646,-0.005145676397146777,-0.06799330438029111,-0.12473824470179638,-0.08920668430902583,-0.05408652751293241,0.008110482519239536,0.09375346875254734,0.14677971978217375,0.22637867820493712,0.18748324776135458,0.09574057296104725,0.023104239311337822,-0.07304297389837906,-0.07877621394895966,-0.17075414883643827,-0.07732171721229335,-0.09387461914847886,-0.018763249063821257,0.008974729886544018,-0.03527304154976971,-0.0731879350318987,-0.022294851021363173,-0.05586476103348706,-0.042704661219032665,-0.028547942141035718,0.027202773796344424,0.04260506312966504,-0.03620769965153862,-0.047125137664772956,-0.05636119177378853,-0.13500423996789304,-0.06110371954015172,0.005994362370802334,0.03305372249175226,0.06080393731126315,0.11625053248795562,0.19029147602015753,0.17071627692684013,0.05793259176243995,0.023854579933215953,0.010492922735453302,0.007109837131505982,-0.0846331925988163,-0.031028690897644793,-0.04427954463946744,-0.039526178518435144,-0.04291309415480849,-0.01913415979291073,-0.04144488271666586,-0.003444987449988566,-0.06438655621777818,-0.014714933693830048,0.020765172488170516,-0.0403246772621703,-0.03719250620764284,0.020326402975589224,-0.036879120226332496,-0.0213165729971815,-0.12948823551550487,-0.09231910560719331,-0.020163954834779334,0.0345168806137551,0.045423482454319965,0.04751139179656901,0.09376995891822097,0.12115494204021295,0.10734434688506714,0.0694760059098957,-0.023779484268863966,-0.03249282364730926,-0.05028256245029351,-0.01151690791295672,-0.03388287413841689,-0.061962700457176584,-0.06746326913011146,0.0060744564309215,-0.039723429763419964,-0.010926430102311003,-0.05655913576559668,0.01380901326813317,-0.04660835422916561,0.012347411061386933,0.023396905249375738,-0.03753083903116312,0.019787889052242793,-0.02810969697502556,-0.1031538114782457,-0.0809028240407368,0.013104345462007587,0.01864998702007587,0.02114795261281921,0.0829959086553422,0.05229349623166331,0.03388431239591371,0.07797087538028506,0.048261697450862395,0.028806737665947345,-0.012665951948149737,-0.0038629696995185975,-0.011449811560907226,-0.05244943704242911,-0.04363027200259491,-0.0735992182406607,-0.005606327735365939,-0.027843285637253665,-0.06385387609008222,0.0037203042304421456,0.01899252617766548,-0.034256384585329175,-0.04011580296586448,0.042852163610785456,0.01828351801901782,-0.025512962154163838,0.009595179393831376,-0.09133123923602267,-0.06752577060857962,-0.019252226238188123,0.03391251474171884,0.044997695893521934,-0.011619113443118131,0.037843811218804146,0.05309062810973157,0.08792872088489917,0.04046010000941251,0.09622916977065174,0.027613601305195898,-0.00575257877581674,0.0015107785732420146,-0.02851792908968965,-0.03374126685324183,0.0013568361528446607,-0.022483216056144964,-0.03366807613602251,0.005695839298516388,-0.05069389791721283,0.007616892074544024,-0.01288704794597182,0.035237196065668164,-0.005108659441648605,-0.031865340511949246,-0.02678190200526659,0.007216192020864983,-0.05636933213389249,-0.04882934912536124,-0.04179510400466605,-0.016470778540134325,0.0006954558122851868,0.0445711950229992,0.013815396107917282,0.08017203853975628,0.11364611629680996,0.09941423219777933,0.09511500182118762,0.08309021210440304,0.1273713585796817,0.008259601691365564,0.009757224645911104,-0.022673213899009063,0.0031758844991260477,0.002201825805920814,0.0162055396044106,0.029134535663441697,-0.0032116676985832035,-0.024858449399700694,0.02599101668450732,-0.029131574810124804,0.022304265945520575,0.029960858944266356,0.030101486327386393,0.004053593476311501,-0.052270156086329636,-0.04190350802640014,-0.0969340220314335,-0.07782412110364902,-0.04970905004699866,-0.08790492899350051,-0.030453480996167605,-0.07296175992581518,0.020565138489317427,-0.021392312707727523,0.01641106714772449,0.027601345371295695,0.011394876833159689,0.039313108547066926,0.057169192812980205,-0.0017376721481547693,0.04528317952930877,0.009469370599237976,-0.005707095150421447,-0.027606700945634062,-0.04115592137934576,-0.044901724921003326,0.04261330229985303,-0.0027859356810002664,-0.03458719388941492,-0.026482502861160353,0.04415580213776696,0.031881508018538826,-0.048323596525437135,0.012540163059165747,-0.04032081617094323,-0.054917253442237635,-0.028985190923858442,-0.015632074636077777,-0.019270391020617412,-0.02276073670978196,-0.007558506264818432,0.0022126659045470037,-0.04362398139701594,-0.010739409988564024,-0.0016464099281387908,0.030320872929809527,0.03193047426801034,0.06494798643903042,-0.018438522330590564,0.00029253639380899055,0.0068309056539503695,-0.01713416025617674,0.02603851280503235,-0.003005724177450993,0.01400760089515126,-0.03524034201476606,0.020891330934499783,0.02706469352150371,0.013827948837265442,-0.018307223266650387,0.018835752628935536,-0.01278103018164986,-0.027918283434946633,-0.022436888806711342,0.03493265683616768,0.020668583649775276,-0.03637676488454367,-0.015295949046051915,-0.023862247234468333,-0.01884876448509092,8.663191021125964e-05,-0.028964232042916364,0.043473475912605974,-0.022634382691553982,-0.006211507667833797,-0.032032421964721086,0.02126377371484475,0.044593439920174456,-0.015584750558112969,0.015605627269370032,-0.019834891057640497,-0.006855359301021475,0.0169261954648752,-0.0015303673020828608,-0.0034714147007880443,0.03974837533103763,0.04442569739712498,0.02047158602428075,-0.019749710827940803,-0.010709071099999275,0.023561060954589354,-0.039465902997439184,0.0006784974626570747,-0.013439781531534915,-0.04554820838778584,0.03600391456307614,0.015407801851445033,-0.027836689765820995,-0.0016788758555313689,0.03419242206866752,0.032998180693923615,-0.007692342008071994,-0.031946222821094536,-0.015328324118275167,-0.03266216987853376,-0.016083734466308015,0.008750311649365804,0.02511583391865596,0.002656066305766012,0.025906052864179692,-0.01091842138202299,-0.04053876426592203,-0.13866203478909864,-0.040469360434657514,-0.02088307819188131,-0.026708078009702534,-0.026512244299791946,-0.028567647553727704,0.01317521197079027,0.01739170950508317,0.0024547723479793134,-0.025701954528026556,-0.018909968216634168,0.016054383491390833,0.012700387775095683,0.011567999839368926,0.013573830534162312,-0.000597492798664603,0.029112377943318408,0.015774002620767395,0.0012898110843287455,-0.005975231992578934,0.03327687961540906,0.04429527569373724,0.013299865614164314,-0.005925019477317295,-0.01819633048643185,4.3434655627018595e-05,0.014156074755080255,0.00642934177167781,-0.021156668411607415,-0.04047512001943057,0.001316825013689026,-0.027214882514569737,-0.008425313531100265,0.023380673137124202,-0.0039880092927600365,-0.014480144105466664,0.006571229583375765,-0.000451769223859047,-0.0334656701319847,0.016601425225381584,-0.02416674025054917,0.035159108542378886,-0.009659297750814913,0.013829109292340266,0.0060632997068915135,0.049952153665929235,-0.017077846021945797,-0.03433679639354477,0.040819084519330306,0.006251540522205611,0.024222840769358364,0.023093175064758373,0.011455612271149237,0.035407549373210515,-0.003588445056728276,-0.030835925786687507,-0.014187844912140033,-0.008865842612608251,0.030334166109876905,0.04364100461118216,-0.03630019322704765,0.04074272930393065,-0.029786623994001806,0.005690492097130778,0.03853294338397894,0.048959823894002726,0.01568978008338364,0.034078659690796737,0.051456706034047735,0.005365617479952767,0.0668298440555255,0.06354092219368504,0.05160240689315651,0.033981803017386875,0.05393730740082329,-0.009008900491872071,0.04359798044582355,-0.024220449716411376,-0.021101176708743397,-0.010487072602333988,0.022716335061838327,0.04488655833563821,-0.035291149775271737,0.007441784497821697,-0.02144477718279126,-0.014964754796380604,-0.01818805324995353,0.026395960051972263,0.0008656219379453057,-0.004177030680657955,0.010105664362686435,0.012696108090397862,-0.004609997964111264,0.0033534142772405824,0.0671237554521153,0.07809378818398223,0.0755023853789267,0.017738278154484245,0.11214247182530276,0.07988067322709423,0.09942039299964486,0.05025065154844303,0.08611205442863772,-0.008332377520703814,0.013994804470548506,0.05814184634157987,0.013013411529008182,-0.013375996630420012,0.03736431036387733,0.0029547824505553604,0.037312352531243584,-0.008400043940729962,-0.02277251197189035,0.006177295696501281,-0.039150399085284296,0.03815480203013773,0.04130727954593074,-0.03237949623237453,0.030661868809249503,-0.026888643529568473,-0.009149487118411383,0.05844263921293675,0.04750537500849173,0.07881019250352819,0.016582017633452018,0.03911112920308641,0.06419976945596227,0.057527074835870634,0.09770175311073002,0.02615428811585845,0.0746439833206969,0.05585708700342777,-0.024353233933650083,-0.008852677406565557,-0.029322853266662823,-0.023717720644088457,0.011818042246266083,0.02843203936946981,0.011664428196708147,0.014331892232682882,0.04429497955877971,-0.017367019525598472,-0.03858383056527822,0.009368175712975775,0.02234145731311275,0.027410860292995914,0.024873039538593995,-0.05658269658200595,-0.04602786687842938,0.023729615397270882,0.028159414865262297,-0.010836309654065759,0.033004345418102085,0.05607471530395997,-0.006797275970951415,-0.04316828023952788,-0.014287547343570023,-0.05576112279418842,-0.033241450392445984,0.009206058672201787,-0.060379224244740404,-0.05735305844037488,-0.00730525246806234,-0.07194553494511108,-0.01730963801300623,-0.06814815110012655,-0.0042843606203236476,-0.03848430191121353,-0.017742953668720213,-0.03812700346833383,-0.003639331842693759,-0.0043902569773309925,0.0032314124001465803,-0.05317520035633741,-0.0654058042357536,0.018701191616233206,-0.005304414599034222,-0.040269883338586096,-0.012837953079846727,-0.053764975014385645,-0.01623137193104363,0.02139907206281556,0.04406697378256701,0.08997528922079331,0.0864587102324277,0.08053967002142069,4.976600183712258e-05,0.0628648454597074,-0.041665217628899166,-0.023734280598111546,-0.09280564245497322,-0.11930084088149324,-0.10965297964203086,-0.016793812507224837,-0.048523849858654315,-0.03801688240166681,-0.028739684420437336,-0.03149007768194586,-0.030000811457801722,-0.03208039695780089,0.03555983076386331,-0.0030865609476693084,-0.02922280908391365,0.006849783567990615,-0.04180949395950576,0.005323435840670573,-0.05710147477761775,0.007202403745487831,0.031675311286982304,0.06673517106243726,0.16067609973644612,0.17309189469587893,0.2801085261905547,0.22399722255135177,0.16743320657065486,0.03469886606043323,-0.024080293100768167,-0.00645715943770452,-0.0501903474889943,-0.041742935521896105,-0.11393577884270636,-0.023548899609527236,-0.04404026604018739,-0.014897974465133825,-0.043681447752521314,0.031099135521593303,-0.030528456755871916,0.010245216809561714,0.03298140396592802,-0.04450993271614853,-0.021430697553183362,-0.03167523769855263,-0.03650632560460392,0.0428053718176994,0.018132224433113655,0.06137152280658181,0.08331231646045907,0.13429861689381553,0.20702477289823148,0.2766379594403749,0.2954680810555469,0.16243918455677997,0.13330354082215853,0.017221092714490658,-0.01431616354688619,-0.1114962524702852,-0.11966864266367042,-0.10483220578728604,-0.07904085245611868,-0.07445027962578632,-0.05133347259468211,0.027180947351574437,0.027966232532478704,-0.028480693817448364,0.0007425608806210255,0.0012412227031053807,-0.036471259350854136,-0.01024183603238737,0.006250966654381968,0.00917438348344237,0.028165570639087905,0.06000956930400997,0.03817681934178892,0.10173865745657613,0.12942522617848956,0.1411471212483301,0.15726713769495604,0.20338564491217162,0.1428107279046326,0.036475982616989054,-0.03552039424524878,-0.027403305006496428,-0.038897897968984095,-0.10441882020042825,-0.11317442826938703,-0.022873427447052862,-0.06078945559471775,-0.023747055431979823,0.009308145290954275,-0.022702594842444884,-0.005442631795824054,0.014009726429396496,0.0013948998673865736,0.023404195170452103,-0.003062839539196302,0.012958484638023054,-0.010571156401753094,0.019320258403647744,0.025247662148588798,0.03379811561875579,0.07037800861613734,0.12666439746601535,0.04542308295751275,0.01934748858941565,0.004485694342628866,0.0667655866924593,-0.050613319178715324,-0.058613370422020215,-0.06701141992347108,-0.06046624810295963,-0.018728562788964283,-0.005066256480047133,-0.045219969923121106,-0.014036919095243698,-0.021526185234308503,0.01871998024259934,-0.012959458394535628,-0.027689279261714647,0.028876576852998444,-0.03303977728614592,0.011870479395459233,-0.00017092606586935778,0.009154941008497196,-0.004874261683139524,-0.04244965786989362,0.0523501777973737,0.032289435065116036,0.07032464066405492,0.026576720454555492,-0.006397162451010297,-0.1626279883568749,-0.24205880143160854,-0.16121446275905765,-0.1217684753418477,-0.1973892646231373,-0.21242301963449028,-0.1401423903529131,-0.02368844497089353,0.008242389316171328,0.030355503192655807,0.07460150699603865,0.0861103836800856,0.05106291185720421,0.05211380269715061,0.03054908509612781,-0.03415737920858677,0.03725600479435891,0.021921918217725083,-0.007256874054916313,0.013097546815329281,0.04373517946044111,-0.023512272056602473,-0.02369146716889213,-0.02387533056332101,-0.005798300039091905,-0.040487729487910275,0.006102571234596082,-0.13416777658161672,-0.20526391263156485,-0.2885604510190489,-0.2557917270156033,-0.1999764342354331,-0.19301371702386408,-0.18141253961243872,-0.04740987229155386,0.009153270284265215,0.09661834456529425,0.09466724716857247,0.13779703645406022,0.09186982053457093,0.06462010304679879,0.004690150008979077,-0.03281782455718005,-0.005684332131559344,0.02232581122771628,0.012139381414913998,0.0037952928630997787,0.02530449724999519,0.04462979101179241,-0.014008094942738206,-0.008665908350325529,-0.007829954345375,-0.04434098134094571,0.02852924625767198,0.0005943890615972448,-0.08309072170840116,-0.12240642165116866,-0.20523047953123322,-0.1429207995231483,-0.06558524867671972,-0.04224340082435077,-0.1079818206005205,-0.06517401702410153,-0.017123382284037876,0.0030938098171670297,0.010874272833226119,0.056786537220290124,0.10980984764411283,0.06878676666022696,0.036020362416397965,0.010132598389869856,0.007009944330224609,-0.018712117353681498,-0.04248474582777946,0.03834160491868632,-0.003963434505621852,0.000568782694993526,-0.0471764343169074,-0.01419427518755133,-0.05263765441046377,-0.05041200406668954,0.01245211585082514,-0.010297770536906437,0.020221480237385733,-0.0679901293447071,-0.06285669561112912,-0.01823987036693098,0.02171703428788555,-0.022116505283200343,-0.0684681312053343,-0.017188333138975706,-0.03240183267968019,-0.0747516625858014,-0.015817243699308266,0.00977931848047773,0.04308361402967971,0.07200465507434815,0.0792792350441127,-0.007873018200292287,0.03128455908727072,0.0004175126929450092,-0.04128559168632653,-0.01643316292731161,-0.007762870162691489,0.022583360973260226,0.00022582061496709472,-0.0047880466264066095,-0.056124034852683746,0.015748880549044456,-0.012693245998375196,0.011503775586818171,0.011215756979518465,0.01643716026648104,-0.055980012804863935,-0.03795113710227712,0.018065962340124652,-0.013963123485795387,-0.053898546523325645,-0.07578774141091082,-0.07153211651022352,-0.15887875869297463,-0.1204078358690658,-0.05939446726194878,0.010341895546099676,0.012046069773382826,0.01642949622612528,0.044934591822103735,-0.020502905258161747,0.013699435986763282,-0.01053219426164278,-0.03795916187960904,0.029870299628549448,-0.029469599328626098,-0.0015659797571260948,0.023526826779347663,0.023306832426940392,-0.03794897025540649,-0.027287618496965822,0.047612181604629183,0.07727698439770317,0.05787649840879799,-0.03527174869149309,-0.08104324244263554,-0.07964108771344733,-0.0794681565216627,-0.0813819275345807,-0.07213329715467086,-0.08788124405861807,-0.07865837627285495,-0.060156601884320926,-0.06808496332044746,-0.016963090055560032,-0.014833106875626861,0.04497839184609584,0.057532289671366754,0.03197419467109872,0.04092661320780245,-0.04419515357988215,-0.01973795709511039,-0.024271201508828322,-0.021072143516489953,0.023268184563738113,0.01571279798000946,0.023323208765608026,0.007876433616801933,-0.0040346042515860565,0.07829434897840747,0.13816632086151387,0.13626906219381268,0.008800660722820779,-0.049922078082966864,-0.01961081626507938,-0.03641114435976952,-0.03074533449409565,-0.0913991061515119,-0.07561315240905436,-0.08837493456464661,-0.05249146907556424,-0.041367568372775776,0.04758484693462091,0.07310595773545898,0.03999260524185507,0.015068717655686346,-0.022238396440444213,0.023938116014152716,-0.00727617795494268,0.024721970827543457,-0.044218381884584254,-0.054962669849060834,-0.034237315291403926,0.016835741848884766,0.03383666803895722,0.034131155863822545,-0.0014910336209528767,0.07670479743356047,0.17349734233787345,0.16325044205511166,0.12420965191659543,0.08691683772536818,0.09850995235451088,0.03183736939958833,-0.008916547430356962,0.0029268088321273695,-0.047038809074977046,0.005877271950486178,-0.022895023340325914,-0.00619197881443743,0.020011152182133122,0.08186312058294105,0.10278193521571755,0.010024571591598636,0.03121335694824778,0.026163419270137912,-0.017049102660504464,-0.03433509525863521,-0.03277300846416188,-0.07286369753701216,-0.05549491969753885,-0.022476909281373737,0.052675262902273264,0.07944225927182928,0.0626150261618432,0.12275662719869623,0.15773910112316186,0.1576254523565977,0.17131739628965786,0.11729805603374008,0.07397458749586816,0.04966759484609914,-0.017692279730829496,-0.02255268287834301,0.02547336597872688,-0.03746360432673062,0.0005528283135479202,-0.012863150345409156,0.021941381202581624,0.10701890198359595,0.0704120061514268,-0.010804564755766468,0.03404837325330093,0.0007348378686016165,0.03582782814638009,-0.007261162005590687,-0.018461730212970356,-0.04297528084683348,-0.06108851161317674,-0.02601283217446814,-0.020377622733952567,0.045175180132963955,0.02342932670553442,0.0879538312245588,0.10924622613547916,0.14788659918843325,0.08406226717506979,0.11069249497158802,0.11387605376905793,0.036744056693549076,-0.0027212560799968165,-0.030656378844773322,-0.000310181203766501,0.0013822323029151619,0.003177712482606884,0.021902701598345703,0.027421386503003374,0.034090719441142774,0.049844101823079655,0.05856553949437535,-0.018989163589946064,0.0023949139312300694,-0.0026679395189371205,0.007968159221887023,0.03657083487666074,-0.02633321348124191,-0.003732776322865971,-0.015479536997572966,-0.04485716079011435,-0.014427884494782418,0.0709622479674019,0.07755526778858732,0.013273224119456402,0.055337326940057066,0.09337072045600603,0.07104369632554283,0.08544293236354984,0.019060477776655177,-0.006669040211309221,-0.05897164225632377,0.009577072156762971,-0.02530028413520497,-0.027605989069660237,0.02241174453388885,0.026710895285964487,0.05557531930925472,0.019601040883110273,0.004644562025023106,-0.02226826478028482,-0.0392130000986729,-0.030842808872299433,-0.03788002710291868,-0.02953324998938441,-0.04422270150582359,0.008434838967823191,0.002774742592805215,-0.02404524747467339,0.010577539540420662,0.04812158981711643,0.021753137378663634,-0.03167426283314467,-0.015899459819251734,-0.015543670704778583,0.01442367716924638,-0.030909584735541108,-0.07148252793185157,-0.05059084138045161,-0.09768420825052736,-0.08233720413285794,0.0026566583270355984,-0.008009979102993637,0.06828904262871748,0.011502903301397452,0.03453570793015772,0.03035910513710882,0.015086698819019832,0.015270130731667443,0.03453636175852176,0.020490183856706028,0.00044773967702799574,-0.03587495851779937,0.033224869431939516,0.0036205113025462197,-0.05411992563877426,-0.007325150259367327,-0.08843881309712719,-0.056935542409017846,-0.042234034692360735,-0.04583641844156423,-0.05394618348293578,-0.08904819365863366,-0.07651991205293462,-0.0981001023707773,-0.09880331875581748,-0.09626566977288523,-0.027632155858676552,-0.06133887176057684,-0.04631298679067204,-0.006771608272631985,-0.005570741387512188,0.0526103018633601,-0.012072543867343234,0.035994742757797245,-0.004872918317621698,0.025973782295437783,-0.042422523617819036,0.03441687253727611,0.038005486802196946,-0.044875541105327994,-0.03399264577108247,0.002112065638305834,-0.008022487228446581,-0.008889295447970071,-0.07871107334810436,-0.050198097206701306,-0.07496881514524735,-0.008945014110464437,-0.04864864961696198,-0.015253686711924721,-0.03878166519106878,-0.02900232094570782,0.01818071997428958,0.027470136376110944,0.009254255845713657,0.04592098758841723,0.00044440434547442757,0.043422091093024626,-0.02556046403113666,0.021465421682791343,-0.009690385839725956,-0.03583615633367057,0.01024028630983087,-0.019445194434788603,0.040755899688916915,-0.00013123176323808953,0.003829021709663276,0.028501924454554996,-0.033335111523794016,0.011352891410114831,0.029264926787784314,-0.03622906629280299,-0.0008912419207845897,0.01155664172536432,0.060552658511314694,0.030219935439140356,0.014519494682729154,0.0594414464071949,0.11352810758936911,0.07479431406784649,0.09483389627182191,0.09467350515775269,0.12940057987206263,0.04906391840759781,0.09990304499188468,0.06668819379686576,0.009898578818350686,-0.0114441731561183,0.015137027992143066,-0.018621143709634653,-0.011445936646037288,0.0333544371452059,-0.019886984803963118,0.024323794913055936,-0.004751754837487599,-0.0374248628626238,0.0403047569570627,-0.03337373736436002,-0.008492102339726356,-0.03366850325635782,0.02209496010843428,0.01613104195820275,-0.003426256786025852,0.06127931515395778,0.09946424259678951,0.028764153603592083,0.04357024193816051,0.036406086558809114,0.06296146917584149,0.048043136977141236,0.015601105646840533,0.006507874391147377,0.033451549111648965,0.05448032617208234,0.013127974457025043,-0.013376233223167323,-0.0314484081745329,-0.034038512059113214,0.035760802706147767,0.014580894264791153,-0.028089900335995007,0.012871612320754592,-0.022528262530290114,0.02249186509665994,-0.015873715825205272,-0.043910431684895716,-0.019708590881163512,-0.0091466806296923,0.03248891489922782,-0.002809210180872161,0.03431387789514528,0.033458482304216816,0.010203626914977037,-0.025883444918292146,0.00013162255815411054,-1.3237294557742766e-05,0.03444070166082398,0.03643070470014533,0.03164158703418001,-0.02994743026598645,0.03944124300099305,-0.02982459814072771,-0.021432304095242088,-0.019387921767881462,0.02301601159376451,0.0017546770168132817,-0.026006255470577104,-0.007237711602711975,0.023450562482143177,-0.13530983661752496,-0.03201548895947433,-0.02890973641250185,0.022705979680077797,0.01638070781155537,0.027543067176060546,0.0016819170777164745,-0.036821111668966726,-0.0055181450708580325,0.002947037143813929,0.004891104927011452,0.019981729181808145,-0.01697640775263149,0.02995960812656773,-0.03128147409259515,-0.04146711703847301,0.016611980276766775,-0.018322006643723535,-0.011243464497043682,-0.02894559750935045,-7.680832625970723e-05,-0.01865185347650082,-0.011337400422452073,-0.03383172983494728,0.015643841557066954,-0.041188376712973256,-0.002351509503886061,0.003285232002052294,0.03939516633591936,-0.022346020293599306,-0.02710307246466533,-0.03862694683016635,-0.03399292908928978,-0.021816545205182038,-0.020071427665271504,-0.0022975688089339878,-0.032860944743628655,-0.02903760298603743,0.039240755144529224,-0.009975550638293923,-0.025610725818967398,0.01912555144770375,-0.03419069842104825,0.019696174087980658,-0.008514392214694393,-0.0027780001912945805,0.00489674171590611,-0.01671560422995133,0.02038207726368839,-0.011020764058483115,-0.011441786627378344,-0.014204664298960768,-0.008229049850825907,-0.028447549831768653,0.03524357559371182,0.04181879632511432,0.03858093383921257,-0.0030791161529401707,0.00048168576597569583,0.0363145837449862,0.03496932458910274,0.03259982824211988,-0.032985949299196626,0.03440918160608053,-0.02044983589115358,-0.039520299995097846,-0.028282122236662422,-0.01927632465266461,0.026728646013791546,-0.03038702115759366,-0.04518462998381283,-0.05758161444693119,0.006691696776066051,0.008574408347558854,-0.03978399054957894,0.021006231411645458,-0.03438044019801483,-0.05340084128818066,-0.008237367918254268,-0.01393078786509025,0.038467408650991644,0.03234896465657172,0.016617110015773793,-0.041857053261029176,0.03193726743231535,0.024275612448007893,-0.03320557696822622,-0.009478771427335969,0.040359118670102195,-0.03436716867971567,0.04179594069450564,0.004352096943590457,0.0010772371238671437,0.011738177212164982,-0.0012564985665229147,0.014870294183780636,-0.002202795744567528,-0.013733445381412818,-0.026039161190843443,0.007389166820841411,-0.025951014320536453,0.004947575263546352,-0.07192756225960971,-0.08093279226689704,-0.014215644508174217,-0.06865934480848389,0.016951322795656087,0.018712756449815033,-0.013031436977280179,-0.01403654513696256,-0.035861351137174875,-0.02035122357662491,0.03151334637125022,-0.04166364277516554,0.004785240157040951,-0.02163283744053548,-0.005602616766288274,0.000203118896112907,-0.012082078808014781,0.00544448189771582,0.01232053580693331,0.023169572794754782,0.0429260899057755,-0.012526698322918162,-0.030141914803452553,-0.01832930094215518,-0.031243542680516347,0.03867156540973548,-0.03955468502016299,-0.022940685455657996,0.009056789701083893,0.015954943747906323,-0.02430609514508002,-0.00018139300124744775,-0.05717743396209606,-0.048021324977817456,-0.033216195511767965,-0.025802735092588524,-0.03982610915191732,-0.005830684856625569,0.013608699374394097,-0.030621441149146864,-0.009389048280154366,-0.012083700894204234,0.0060574070146185086,-0.03199664922538824,0.042596727698285985,0.0418165393865498,0.01657050790568129,-0.02686353205215524,0.01772874665807098,0.035383681833808224,0.01801775734165586,-0.022195346380231115,0.0307952064151029,-0.009220081049366663,-0.00960535333379311,0.0319977921953341,0.013084611166014948,-0.008304994108689161,-0.02463600712200991,0.031234334673210722,-0.046637584308011855,0.005999002520054821,0.003824848895453541,-0.046554808621791,-0.04085694336340132,0.03847666456351703,0.02087822953821796,-0.03762418397479377,-0.023448409445024323,0.011754798304209802,-0.017344570199407723,-0.0052887001518874205,-0.0032075483473062733,-0.02214867499124091,0.021232490522045726,-0.003014204335200872,-0.0356321050412215,-0.0064382039186582215,-0.054227084426110746,-0.0192730803358247,-0.05244986948981868,-0.04220796328980274,0.006161718555735754,0.04160994656325513,0.041161219289248006,0.04214287460068573,0.028798719243490097,-0.0033699474629895337,0.033736763548759,-0.03031142640221414,-0.028423556858468813,-0.023709715888636646,-0.016504281531234448,0.019596062007913775,-0.02232287624388832,0.017843351830803652,-0.008464732282162706,0.02119090137712053,-0.03864023388109295,0.004883504835226689,0.01683891206933591,0.04436581753967768,-0.017761781707130865,0.03324642901995352,0.021731302113422998,-0.02637316666840293,0.031511112364451074,0.0060616262559908115,0.013726367620671927,-0.007882520475686114,-0.03130096192851423,0.06542892005110724,0.10016492976868131,0.07323924620313288,0.07092419018055716,0.007000397295468031,0.04081227370598368,-0.02890900853551786,-0.0273869011883692,-0.06441130776975772,-0.08407282905248979,0.006201966198622966,0.03357468896541883,0.0012315373027361055,0.008350669698860776,-0.023869341492756217,-0.03795289265802776,0.01977861308446226,-0.021697374023485216,0.03429406873750536,-0.008174317783438087,0.012064203165624374,0.0017087802925493984,0.051778837719846815,0.016205999036303632,-0.005979150841006146,0.010725591572974225,-0.03885163114997175,-0.012773711710646183,0.024468128807393436,0.10436600141161062,0.04461593662042098,0.0641531576892339,0.008440575931560071,-0.037893978374049855,-0.04131349604233324,-0.0842231502387702,-0.15234432266887116,-0.10532871727704264,-0.025617334547976496,-0.03038899589351592,0.0366761283643248,-0.014007138954342364,0.023511872805644863,0.002738035600136256,-0.029064193854308768,0.029604469600924596,0.01603416217963297,-0.02710917122588627,-0.007431864150957328,-0.03908765489146337,-0.004062772792307268,-0.02598868565109515,0.02625619635209623,-0.0026168216931000345,-0.05375709793504253,0.026415475281899664,0.057194964713141,0.15322378985140395,0.14171930498578023,0.04141392548222926,0.07319026757880265,-0.03495119622690721,-0.023760973682126627,-0.011922235997518639,-0.08874089069437359,-0.09842315756812565,-0.014160973322690206,-0.038295399319704354,0.0030188041742859866,-0.04037393295395194,-0.03433826672120482,-0.008588593066292175,0.031385215967823066,0.03233436884258211,-0.05327743181671381,-0.04220522360756699,-0.05274391788237222,-0.0415259211582732,0.03711296238136805,-0.023445039641808052,-0.017844855969315503,-0.09986420551577538,-0.18319177489609945,-0.08174226647047389,0.012185564444059455,0.12859753488553136,0.13530064495463553,0.09978098435165303,0.04615108874782628,0.09373840900296161,0.05185403135190061,0.014337498878897669,-0.05440172151162168,-0.06650568132498401,0.00972697243210859,-0.01006513295768542,-0.019073596135058806,-0.03183830474266132,0.029861168990288255,-0.03252719683447547,-0.036035376653544185,-0.007415933668012599,-0.05471955822750737,0.004550292841276233,-0.025230746699540358,-0.002950613018022458,0.019902012039753607,-0.04804524283206175,-0.12283246962592034,-0.23442167953445153,-0.25354014922795143,-0.21057499156455142,-0.0283142879609407,0.04298805612053873,0.0793457132560466,0.12812918747894644,0.13016570891476717,0.1457827746715306,0.09739924028912231,0.07341493160843078,0.015998725905332564,-0.057189911258487824,-0.019336372956610826,-0.022540726648463617,-0.032630490723536514,-0.028232317145058156,0.047410305834873,0.033796826944948836,-0.003708261678677811,0.004422564964792267,-0.028532002673754067,0.013373120962764804,0.03605341766743441,-0.0027715615480113287,-0.016147980067030353,-0.05562668206074051,-0.18197545890005404,-0.27784029774558483,-0.3321239320023578,-0.23190130489228433,-0.025044102442750488,0.05351297398113099,0.08201452534962694,0.0918678830830462,0.06173476384597628,0.1431519204541436,0.15940600183139844,0.08548919816377194,0.05252517843888374,-0.008973019003995058,0.019725376657976707,0.04103097470029037,0.024620936430708798,0.03130989459910079,0.024910796395578777,-0.0018708214209448468,0.017207756825245675,0.065075582887122,0.052801528504531764,0.055782918886122405,0.04022263570870567,-0.008769777024317155,-0.02234786017498789,-0.09685773033424354,-0.20065950903074295,-0.26322437757983574,-0.2917804754218116,-0.11646141416589456,-0.03603168306200499,0.0705372534828474,0.015232935964038095,0.06456165022998286,0.011928214793552494,0.07866758101431842,0.07648388681170723,0.07066066114758363,0.06134992162784628,0.03056860001614529,-0.00592578498974752,-0.0008232332051581794,-0.012586607670395404,0.041115724895445516,0.014760925794676458,0.0005989935836881128,0.007700804926395554,0.020907026281071606,0.07383800497489498,0.13582428787293863,0.07939150863514212,0.09270558625830634,0.005545992953637404,-0.11702070046725621,-0.1897443606472063,-0.2150411617237697,-0.19722793775328762,-0.08018999445636146,-0.03818716790782877,0.0764812612059812,0.03590288217152145,0.0526385075628877,0.07948670524946619,0.03342984759998284,0.11379925697627828,0.10323549334404801,0.047586866115339695,-0.012128883197772368,0.017607602270213237,0.04041474858292417,-0.023502830110795903,0.00244668411462852,-0.002064418017592871,0.00685448410611969,0.02229014220719797,0.10633548101188857,0.1623364842319996,0.16629769886325013,0.14136577254303118,0.122445102661143,0.04780383937896758,-0.11736271034246183,-0.18314824012078187,-0.16959539699783424,-0.1770263085392185,9.675667885982399e-05,0.042414514598574884,0.10369462684185903,0.05996705055909059,0.0326181934246938,0.05705513953598942,0.050887530970784446,0.0744499094039002,0.03528567376299882,0.028827282747391245,-0.024828029755870673,0.021322051961145623,0.032301731907072195,0.01791530112420969,0.003535724709502488,-0.013607521801870208,0.02889530532375803,-0.031836269609568146,0.09666636500317763,0.10667891338731672,0.166965602015597,0.14627843311605118,0.16849947051977193,0.02959768008305379,-0.030639363159553106,-0.07333371697338467,-0.1206942728785745,-0.06663389801961492,0.05047718045628341,0.13637788930793157,0.1223124529266346,0.07751028774474131,0.023928423978332173,0.06237115501803978,-0.010439288187424324,-0.010337628352038471,0.03606435946641145,-0.023251440779831663,0.05086313512270812,-0.016487008234166784,0.02643760314312407,0.04428668512524736,-0.03460584568353426,-0.010243246858503719,-0.008476901974177645,0.014514522914995361,0.04122242774013807,0.12232062012190945,0.11865450406341752,0.1322025883252939,0.13792247923583542,0.040818924165909085,-0.011416165411024817,-0.0422879248685615,0.0077154511510111115,0.03691522053663334,0.08921111584569638,0.02999822223647368,0.0773870971134658,0.057330905418510554,-0.031293553984179504,0.02786218392817398,-0.0030180078997518052,0.028855653923056866,-0.023490360915544718,0.043831095718783214,0.05281335018937047,-0.027660394483707995,-0.0036121848970762467,-0.03869171234563088,0.026276509616031403,0.008735509536723656,-9.187282238636425e-06,0.003210514683861037,0.03952079436127318,0.04299981746434815,0.015957750524371307,0.11259876208993688,0.031845409778108257,0.03207592299186924,0.028595104973949275,0.04067002525599998,-0.015726124277225244,0.057820747156476816,0.003376826449984374,0.029363257044370667,0.014317200412548902,0.03088286613426229,-0.026306891456628942,-0.007846434178044068,-0.00292357282983355,-0.027222942877797866,0.02269556436223342,0.03007440278124245,0.05177025718348564,-0.032363062132893534,0.019139154060463032,-0.02456190361575292,-0.011151508420475303,-0.04525411048075185,-0.044784910770854405,-0.0047827321881889085,-0.007588514050084823,0.03470918245889696,-0.00120844900186962,-0.03792682512907919,-0.002005407959054371,-0.024035700985091446,-0.0006513239676925422,0.01885748532419442,0.044216764856967176,-0.0145130032686254,0.0005345789177163429,-0.060667530067483,-0.021718574278919624,0.0007347667883807291,-0.05272475743248651,-0.003664030808598964,-0.047757081029446716,0.004115404648122628,0.05237443068288477,-0.00599338726440429,0.044533697252710225,-0.012620788214365563,0.032490335538690775,0.01999243944892468,0.04214096466788729,-0.018563552351904204,-0.02470315682750875,-0.04742305981501701,-0.04005737379238741,-0.016928496942022052,0.016141878228474973,-0.032840348118518284,-0.058944127569786106,-0.03658462541920137,-0.06034225479472434,0.007172193455537297,-0.026073275715834687,-0.014351109299715854,-0.08228772490383747,-0.05949767206681235,-0.062121350847303636,-0.03045806296670657,-0.019328129418402156,-0.036291979978391876,-0.00454389030284995,0.016234343002719136,0.0018050180927952704,0.017398389672158607,-0.03097446570538951,-0.012552881730335915,-0.012626051503805684,0.01975621077778655,-0.020792538247105127,-0.006191683444623688,0.02250351064617234,-0.013633267583159995,-0.035374136867022385,-0.035017435621079306,0.0030758426184994106,-0.002781200900724036,-0.0015317187204784287,0.01945405034993054,0.03288218868370757,-0.009478196831434941,-0.08579553196089394,-0.04718483505505778,-0.009650865608795849,-0.08294414729256118,-0.041914335111370625,-0.03662744728429779,-0.017206068261958106,-0.018019425236984358,0.03295949680501916,0.02244362997616172,0.023522214088331682,0.033884536808630024,0.04822242755445557,0.018505642950733484,0.02615115343674002,0.0095369412197252,-0.025429778127499292,-0.0037188425827268164,-0.009554509095367494,-0.006831079087233737,-0.04237459034566969,0.018600191615617812,-0.0072787351085228215,0.015306493649175804,0.010768605523108371,0.054224045038073425,0.04178285410356819,-0.006901552608064284,-0.001665073227307861,-0.06564833744390795,-0.08096102431503513,-0.07658137435404183,-0.07530102634993309,-0.09043418814261404,-0.03827076261958069,-0.002038621136458709,0.03882449817156029,0.0037664451186377444,0.014858892298944347,0.04498413505705311,0.02876409901138331,0.00951821625279205,0.025604280114530465,-0.0011294551187946496,-0.007940137492811375,0.036974363249266645,-0.015031303236868791,-0.0580871036407747,-0.015578988384915511,-0.058692048076871305,-0.02867050471113061,0.019984687656398204,0.005520150811962265,0.014290319284669348,0.029544845535014467,-0.04138233729981474,-0.04806899602880274,-0.06857440624474256,-0.09855988292321745,-0.05526017838493853,-0.03538669513395497,-0.02153217469274407,-0.03185292244177874,-0.0189107639767263,-0.002512700107323633,0.005219798417877417,-0.022593794051952117,0.04679943631592528,-0.03764174783427569,-0.004118018106875426,0.019997577690718936,0.02226533908510348,0.02657327816314357,0.011763091335979473,-0.030694363978673495,0.029524548508026077,0.025745807427923977,0.011169851268299499,-0.0676866849730936,-0.0421606265121793,-0.03104338948912365,-0.08246744046666614,-0.07740920099634888,-0.042528436975219006,-0.04403949340070439,-0.04933611105643465,-0.027604848541327585,-0.052456022332738134,-0.07789369645872195,0.004453501668701736,-0.05042417863217443,0.02675417653726525,-0.024475554200364243,-0.03598537132280607,0.03484006689943929,-0.03637990279600134,0.00928163772275977,-0.02850429866587296,0.004805302488860707,0.009336664541403975,0.0020143671126505894,-0.03910161649168466,0.022036394942852047,-0.002964299241836022,-0.025701452456053223,-0.015066810178141203,0.014227359058736695,-0.010496639319500942,0.007619222119197042,0.017533277713998045,-0.03678345924171323,-0.02979131494748724,1.3754989085780273e-05,-0.020935444134768246,0.026820673769854676,-0.023391908596995716,-0.0073402871678826635,0.02189562476635934,0.03026757057020993,0.033689338070417664,0.0006092723800058122,-0.03760273386631132,-0.0009338737217658539,-0.005484047176975003,0.018553394201765053,-0.007668165204792748,0.03079962872139121,0.02119058735831583,-0.010153331270941382,0.03556788800734797,-0.024078052628586585,-0.03448439764705774,-0.004818905125517238,-0.00958237281609506,0.017350545632657033,-0.035441684884226526,0.03483810325922359,0.02432616087909422,0.003075809126769001,0.055271455324876304,0.01746063922444751,0.014124921607038836,0.01678655951111606,0.04252290766786199,0.02125886809928793,0.01953294766808566,-0.00664058236037505,0.0288881920017067,-0.03079282040573718,-0.009954421249043409,-0.04120869074185433,-0.018632572301297678,-0.023501418595441977,-0.012144142990445887,-0.03752580573856606,0.04104944471799281,0.0113360697574698,-0.006607652583594562,0.004851129751692552,0.015766578227504772,-0.0006633186912593899,-0.009844714254570537,0.013021623842875871,0.011428525103392552,-0.013147297605794365,-0.029421061131385783,-0.014099536227854498,0.018351113174825382,0.04692007792914678,-0.018032603902683218,0.0030656865353719536,-0.03241119568372509,-0.010432402990048191,0.040120798212490295,0.026319660159182967,-0.0225996339500488,0.028638828466611976,0.02920488218412889,0.026189937707123905,0.016799091319255985,-0.028458162052126784,0.019283493712390437,0.000752732231884139,0.22506538043701083,0.011315263354096508,0.007011423099866157,-0.012925761065855785,0.035718625911667246,0.03549276490103342,-0.023052296218468334,0.02537642586733015,0.02164339086511336,-0.024842644079348365,-0.031972755591197034,-0.03381636075107338,0.04137714217806722,0.023857708089597716,-0.0343188542005487,0.014819124459372335,-0.02113404975264687,0.03852512029636336,0.0075981443982667445,0.009408223830735833,0.011158093305483686,0.015879125288964846,-0.029916330646009678,0.0009824590046905,-0.04386526994511591,-0.02337043798590186,-0.008091847385432675,0.019157105117800867,-0.024151149528365667,-0.027577785852601837,-0.02403490318473646,-0.004971163461701388,-0.00378837923468658,0.02518671704760877,-0.022023253342863088,0.0019130732225064258,-0.013607481977449282,-0.03148871124734934,0.011455399595979689,0.01796158883150505,-0.0016069080517102994,-0.022355926441955703,-0.014976040369088991,0.0095160655887423,-0.031226842058167857,0.013499582247456088,-0.021535648352202112,-0.015641055756696266,0.036664590010933536,0.041049015384648044,-0.023659573736519224,-0.014628631146984997,0.00254120868112868,0.03402918243411789,0.03932745248001873,0.019754967219615498,0.0013952289506806643,0.0023435079294455994,0.02393504945588525,0.03251852872676353,-0.020736619463897685,0.024675188816282587,-0.03836709607720171,