28;785
-0.2901353249201789,0.031010105101350015,-0.053643594717953436,0.0036861380789521138,0.07556178628419294,0.026018438500353836,0.07856517261743569,0.06737135863548482,0.0491716977091444,-0.049275716594323615,-0.033159366550198896,-0.031719925832165916,0.049534422167103055,-0.0652110928773115,-0.06102129252550776,-0.06286759752905252,-0.04849817440009531,0.004441469537454914,-0.08450216389364837,0.013100976256623573,0.05638685424005289,0.06555895182839759,0.05646775945291406,-0.0036154581924177876,0.07377821362092332,-0.06054585063656147,0.032368491946034854,-0.048857901683658174,0.06163632993477288,-0.024240025888995237,-0.05306839026058993,-0.057280238992998264,0.059894399993361484,-0.06915893256064619,0.049834522246261,-0.04102854253194967,-0.048916159996658624,-0.015493096503336906,-0.05407740457370016,-0.054613603911460286,0.038785344406220085,0.007824920074790367,-0.05095496879265371,-0.006132453573327702,-0.018094026746064917,0.014477520761150508,-0.041956210007947276,0.0576618918566492,0.044550158461770545,0.02332161226311163,-0.07781981257600638,0.019464125314816002,0.04020829918949157,-0.01645049068132921,-0.04150910092359423,-0.039101500726378045,0.0648359421010008,-0.06358917618922905,0.007099639324760142,-0.04517283642109128,0.06116909232238765,-0.07150811069224308,-0.05429100423763765,-0.06207658276855371,-0.0065665511151346565,0.0190644432382939,-0.0773635290069557,0.06740828469540268,-0.028829248502530255,-0.06727308059661659,0.04544319907497991,-0.07168219967771834,-0.035554995882279006,-0.06872941589530661,0.03732562965105552,-0.01133808218635916,0.027986158277158918,0.08074771649858618,0.033925478551134765,0.0804668949233621,-0.0053104408785426506,-0.038183109315665056,0.07985395062469787,0.04410810269093356,-0.028841354800152777,0.07858566219181577,0.044687962700965846,0.009447435954670413,-0.04754005613490655,-0.03291334027522093,0.07421735366490036,-0.026635916447584573,-0.06503032863251614,0.04654362749957605,-0.008822405040956443,0.055100089199473755,0.07184689503878247,0.02341625729257626,0.04555376578992479,0.02651055925330672,0.07958508908125404,0.04219410233985153,-0.018007062290761506,0.08714348432284864,0.1019671061441128,0.08083666711447739,0.08200785228279248,0.020158251999784292,0.048234803299049195,0.03634136169730389,-0.016205437023746303,-0.04884134927598361,-0.08473692930833428,0.060231609469269795,0.0033355928700591914,0.02682417661600438,0.04757859057119606,-0.02344880022814781,-0.05729106296541597,0.08560395363314617,-0.014006249564160305,0.061006877962003145,-0.02435803887995107,0.05988439531693006,0.11157487999369904,0.019304229204435232,-0.006733089964575013,-0.07795927603187469,-0.030661003948005788,0.07390105025614863,0.0913578316299388,0.10619426964089727,0.009055426331354895,-0.07806192214095736,-0.011903190349433,-0.08704861447767623,-0.03966168117532356,0.018372626549963654,-0.06060818956288109,-0.014144430801363628,-0.0022056550532769258,-0.003766180336530664,-0.0556188509089701,0.06248819984402234,-0.04955503869051407,0.043033576622605776,-0.030462358478059604,-0.07398573734050357,-0.04771919907549107,0.020913682280944843,0.025619915011011477,0.005669092093659474,-0.0018695175424602872,0.040476841758144574,0.05117134953211912,0.029567126521042077,-0.011530803900640254,0.09918127667756621,0.07296171941020115,0.0571417094669639,0.05140531451186711,-0.040088130590785774,-0.06992946331732308,-0.06950127283810908,-0.019720868721514163,-0.03828489658847258,0.09257353375282198,-0.03613697394781588,0.07945759418712575,0.054493844226475914,0.039979168696345005,-0.07735853753763859,-0.019489378572342085,-0.06436732505164995,-0.09126373845471758,0.043295778838785784,0.0016048296552192717,-0.09859266992119001,0.053494676125988835,-0.04668201029203385,-0.058909022355461395,-0.016953712761620266,0.04797260719148109,0.05837936070685803,0.2276935509578307,0.2176842830462993,0.1782904028611471,0.19271549669068916,0.03728569146572394,0.012098248981451698,-0.04659147447622906,-0.023785391451077914,-0.019003810575156682,0.011101765241560722,-0.004440975805587782,0.07803091049368457,-0.020733511548057908,0.02515000380236426,-0.07524062951764594,0.011911308418964303,-0.005089175448088138,-0.04143545697669201,-0.11337775378273057,-0.04593105292094489,-0.04191246314267012,-0.08618972696706441,-0.1904143278985013,-0.036351381322340726,-0.06322728131464354,-0.026698761017411612,0.07551695423387095,0.19547655197587602,0.25452666524257755,0.12231097285492691,0.06232829208875059,-0.04762941425833686,-0.036060299132749205,-0.1068536926709185,-0.04194571175344476,-0.05438373967664287,-0.04438803470802615,0.03513355695412021,-0.06125631098012764,-0.05861575735001355,0.020148911326697484,0.0042982440337805865,0.041511554954501276,-0.10163397320612921,0.007948472399996126,-0.02465665131399976,-0.13781596279986338,-0.18186854856802517,-0.13816174706540657,-0.1938277296175583,-0.07335447749078633,-0.05457299566481663,-0.13161234360945698,-0.09989054280803453,0.004990793817183476,0.0006406674380814206,0.07534697556661897,-0.01997689420059448,-0.014567666538762673,-0.1100602846693086,-0.010911533368492118,-0.01676441708110405,0.01673693715433403,-0.004932419757512947,0.007272520983206708,0.04789926064402638,-0.056947610680444676,-0.0394026722682943,0.0630096872696378,-0.005938218700437145,-0.07916365692036532,-0.027550189266149938,-0.03730203832366961,-0.11167352592400202,-0.07614945354111496,-0.0845843961664573,-0.08517745802945396,-0.18267317375446063,-0.054748157309028635,-0.006062330910425466,-0.14358152398741011,0.0033873071344356796,-0.1228619895339724,-0.17816760661368783,-0.17562536706639933,-0.21765965796706782,-0.1364758183370483,-0.02903902278567682,-0.08550753770754305,-0.004350290324201533,0.07593394535444863,0.0845658578770633,-0.01091779975646195,0.045672924767871825,-0.06825611436425368,-0.045985754819373434,0.030571035248376368,-0.07668007280825967,0.06427524686516391,-0.01401368428067434,0.010393315461728005,-0.09789486479997164,-0.19008460932352025,-0.04467321438402632,-0.1135286297682355,-0.10986756078736515,-0.09167628251457999,-0.11211439804303681,0.0569155591826565,-0.020677601251739588,-0.19005942984542562,-0.2800447851604682,-0.32573717976739186,-0.23310175895916269,-0.21234304918127167,-0.06440345591868703,-0.05869904437925724,0.09938741925382823,-0.03676050825643991,0.08963343388504066,0.0898674387163674,0.017148790258034435,-0.0055429511618737244,0.04005290102257432,0.06127671136557999,-0.008411500513070958,-0.09097946287623494,-0.04068867675800391,-0.06035338179076912,-0.046095102687701436,-0.06183166326273153,-0.07190489325599048,-0.06236713907004444,0.016577564016210175,0.0219340991993885,0.10043568969291514,0.22613761470249627,0.20134322285145043,0.004464633972864514,-0.13902680008167084,-0.22603237498308978,-0.07915790321399611,0.06637366452477746,-0.009943847316586322,0.14457354216928345,0.11619339043464183,0.05859907916195353,-0.0237899277131475,0.11059876886789272,0.019175604095423918,-0.0007617732118076111,-0.07826588742403107,0.07296597186674654,0.019643801277180847,0.07149173804227053,-0.06457959254646119,-0.057454697959898056,-0.06934848033324964,-0.01748476723365466,-0.0031576629713385832,0.04383005660210562,0.02410649432280595,0.09255979789949623,0.32586620600445415,0.4978586872551574,0.3762672899590399,0.3508324638413195,0.033397136498539134,-0.011527309762597084,0.006542440169197694,0.03760962191273245,0.12874442801004354,0.04963529917767478,0.05164763869277534,0.061636634767276155,0.08688948675977841,0.016645208809369698,0.05878154877139339,-0.043176255559259455,0.05400663920238494,-0.02300770136777713,0.033328913501323026,-0.014513070210381606,-0.06478219849655711,-0.041876223548109416,0.04989366444886977,0.12175305918616991,0.1482310552334237,0.10879869661856628,0.174153352175994,0.2657570171654506,0.43593117662060726,0.5114641256269296,0.5358534981275961,0.3288283321607015,0.16493222487233636,0.03937337539921929,0.17910141405395058,0.042221146491232896,0.1285763649312502,0.1223670368836987,0.020846625864246494,0.11130437594954332,0.07413920271300924,0.0356895602717807,-0.005427328094505322,-0.05506304463952913,-0.03297479759681465,0.07280235775814871,0.07621609076546428,0.0036631949038453096,0.02921379775478116,0.07119621334670818,0.11566255321272154,0.06295245119553555,0.2140892581100822,0.10451735964260542,0.1924933120532782,0.3258551189365792,0.44029610452936363,0.4315683273648914,0.3552063399377369,0.17758559798030482,-0.003175003925828807,-0.0001678458021004984,0.019251248645065035,0.026414454308895552,-0.03968188517691591,0.018990044275608173,0.029226745205245964,-0.06192847038549074,0.009014461871898917,-0.0028044370061383107,0.07748206990758186,-0.03216039316418736,-0.030996599259409265,-0.08356782198673901,-0.04085822141317745,0.011646257917770492,0.038889903867003896,0.0717846618062324,0.001006832095398729,0.19569602175788411,0.10119564763669113,0.2021213368439123,0.361592707855621,0.2583417810118232,0.32760752047033087,0.22462060138821355,0.09689220968625539,-0.06445810813272017,-0.04109809790476111,0.05190882649013554,0.03978022913061724,0.08747613129650966,-0.017176922517912776,0.04230837452687515,0.0028170336443388093,0.004853385343224628,-0.047359144618335874,-0.05573186345033588,0.08014285605130846,0.03583319696218231,0.027334013666651114,-0.0007508021119964361,-0.06367283483009357,-0.07736698391169711,0.003745763358072572,-0.06384557741219143,0.12310813924516271,0.11256265256576249,0.18647164870038693,0.15090107149273313,0.3053817878177742,0.17114838954587072,0.2000250998333412,0.14595042345265452,0.04813734422610032,-0.21461630089269143,-0.23416845417301985,-0.031049378355659046,0.003333842069693606,0.04008891018865047,-0.00313889140010498,-0.022181444486227147,0.01349459701629748,-0.07358142330325622,0.03254559487781412,0.00836855266362661,-0.026659904311171448,0.01250436108800858,0.010199664171530322,0.029734840648022565,-0.04151453817755322,0.04490110912189683,0.00287182676644872,-0.016115071338037242,0.04751854242936262,0.09132948428528165,0.15470900927089024,0.2745398951892243,0.15944468660090647,0.08582003219168827,0.12421903480016937,0.11589650982042389,-0.11132140983929752,-0.27510777350281324,-0.2877894839158743,-0.06979205273431652,0.028609790005626523,0.1673914443558877,0.07831380669977751,0.06352072427173865,0.11692086883894476,0.07762105316723909,0.058576089928225474,-0.05759098210983049,0.0167584766511889,-0.09409520165153896,-0.09192585810924239,-0.06849630678815453,-0.008366915384604436,0.03650872317474589,0.0350689473781455,0.001967627773466376,0.12090549584884179,0.06361231826841385,0.10068999597714756,0.1751128140417256,0.12398839137765454,0.10772569457469146,0.08363723009622726,-0.01761896397028932,-0.19634873779511117,-0.28594118496438325,-0.28109613881128215,-0.11467304085679483,0.16111599956033118,0.20596336472624127,0.21667278831338602,0.16239859282861244,0.059812714095289266,0.09971921027992721,0.03299350335917104,0.029181590685143775,0.0073383990717035205,0.024019806106463655,-0.04788001890886884,-0.04510350929957252,0.07065181786719132,-0.022260016946777234,-0.0785025513546681,0.11253845757490955,0.0855337156914751,0.07597602664479274,0.23297397821045188,0.1185830136475259,0.10622700590339748,0.04103000594843601,-0.14448944794269042,-0.2199114959483583,-0.15374275039644536,-0.26349599669188184,-0.13356743601592674,-0.05132773223986654,0.14830408736269032,0.2130996461949998,0.2690039475074666,0.19941543883444748,0.09441544994559892,0.08722309220094769,0.039439672199664835,0.024852232233324924,-0.03927940384681813,0.035924778264612676,0.07722440245046137,-0.0019014238365215545,0.0800053179091526,0.07965349108971981,0.040129234562144685,0.06778867803775689,-0.02368059932318569,0.07512864611046365,0.13762451893518227,0.01891820103524832,-0.08266821972102496,-0.04630939931850105,-0.018098158706354502,-0.13569688672360478,-0.1218628499983711,-0.18435665561101025,-0.15457582609746962,-0.060078031699034785,0.0692384393998266,0.07034918252636192,0.19823209791847723,0.12553078501255396,0.1789595607061825,0.1794370878884029,0.06201197361927257,-0.017926403564203393,0.08476277663850683,-0.015032973885861091,-0.0015366870082339323,-0.06585485933600874,0.012665378153802032,0.059007972824968453,-0.07347067881883965,0.08651075486139087,0.025699805631976744,-0.020446237728338465,0.05076863352801423,-0.03858572923399511,-0.13031401784721283,-0.07774185954932562,-0.12702330268829068,-0.012318187951302743,-0.09949890787324203,0.05614480792449458,-0.032510079245256944,0.048206484786549986,-0.03919309397095578,-0.07743328144123757,0.01071943639575161,0.15216066235945386,0.016433705845637546,0.1169478694286387,0.10137176113643079,0.03281232646543293,0.03336925814229732,0.027404272293872455,0.0351613640979885,-0.04203482860371903,0.011825593740337377,0.08541865593029781,0.04845750093645233,-0.005644512711625381,-0.04485047866094248,-0.06580653653445712,-0.11061890197686686,-0.04577497971686308,-0.05219162930286757,-0.03764938710264,-0.020646301756107314,0.09435114353210128,0.01938955706296907,0.09767345857634613,-0.0700435182316836,-0.028771504360037718,-0.04646893042680865,-0.12054699566612449,0.013867939873081403,0.008559727747910363,0.04563703256088902,-0.014487668905679488,0.058182571151179384,0.0777999744925915,-0.026782645770228257,0.06504244864972304,0.05319797997941579,-0.00120972350208619,-0.08362450974355416,-0.015370019228927825,-0.000589089540920641,-0.027541428356825114,-0.030547231274743666,-0.030122280154501007,-0.037526561677712254,-0.0262684518302824,-0.010678207953278115,0.017617967611229662,0.07547439377727144,0.11621160352407474,0.10523104172018266,-0.012160786780418178,-0.02117972819370638,-0.12157178258986726,-0.12665515387901177,-0.06006205039823591,-0.06189179812184145,0.08545653145918247,0.11053054558969531,0.08883550048133755,0.04215686425797685,0.027352199362470235,-0.05296587819670284,0.01764628676104246,0.004869407738256192,-0.07447260565121529,-0.05343554877405289,-0.02053532016666991,-0.008588896524873412,0.030607285173663658,0.010376264196100639,-0.02199081502518483,-0.03709195542207675,0.0006428394477825814,-0.005642526433644161,0.12098403806176,0.09971541704887323,0.03021526214569227,0.06818709308134493,0.0361251092875375,0.07024058236901838,0.029069917468211796,0.08775425798423864,0.03551242899504303,0.06403895129598487,0.1099972477011617,0.12152148121128936,0.014032128433115545,0.041311691201956484,0.0011526489125888314,-0.07386474096337513,-0.07406105799950868,0.0442533038428634,-0.024237244138812893,-0.07170224645436371,-0.0761425340619189,-0.010123034502815658,0.02910878892312614,-0.009752103444128201,-0.035594633137377395,-0.036102389022522885,-0.01897319796833516,-0.04200286459112293,0.007217258014736564,0.05893613409910673,-0.015337042405095778,0.026212952600352318,0.036846985880995976,-0.05314264161095799,0.05847907668611476,-0.022342743734566555,0.03884427569864865,0.045420458683829684,0.003405633194519749,0.039757978472101996,0.06605689835458514,0.06829947418835727,-0.007804452075530985,-0.06292842414464106,-0.05434942013334049,-0.06869640500304032,0.0739006601928948,-0.07044244884280548,-0.05743712368492316,0.05526783600218007,0.08595306864604647,-0.07744001755592536,0.026186394130607128,0.07139825771601359,0.03831945400765422,-0.07203469273554668,0.0170400696450781,-0.04914389981514829,-0.031648901521274336,0.035332632255551576,-0.012815188199328094,0.018253810573516636,-0.11076012879074419,0.03774450534937585,-0.0007510841881149922,-0.06868960564788557,-0.01329576771268578,0.020447314200385876,0.059325790379908976,0.03899640161345365,0.06607486434749571,-0.05657694483486809,-0.04675852695916785,0.0010108191685050086,-0.0029457391578082194,0.07731156218246231,-0.0022653081643122077,-0.0683100050001214,-0.04982429777563498,0.04249762058573212,0.023297583885913617,-0.006418571294999075,0.031526442321710146,-0.021466418118936997,-0.07890474705514143,-0.011315703549329852,0.06705715437953205,-0.05833772676956,0.0075760278073887105,0.03348849065397571,-0.06188084790113972,-0.10314490451648758,-0.08851267224325414,-0.013785104096596196,-0.06391790643504484,0.01942359004322844,0.05497496856090452,0.07770901245855652,0.05410191988466168,-0.01968835792743209,-0.052434691777187584,-0.03181009655869314,-0.004402616916171338,-0.30976285448535973,0.07848000159957418,0.04466005286561367,-0.07179871833267673,-0.047227541521650346,0.008452555629249233,0.028691164373765756,-0.017629670096811028,-0.00598511023597264,-0.027455760103985156,0.07747866292398113,-0.04777705416473687,-0.030255274114589,0.004736978314813939,-0.027784326172616357,0.012071755796435353,-0.06878562992887302,-0.015630416700851215,0.010334541184761072,-0.07877587804742653,0.07718049238379318,-0.039426677887143075,-0.012220239643423399,0.01596661422510378,0.060143380266149245,0.05313230220661502,0.06847323905531526,-0.064598121634288,0.04854330522376718,-0.029156078775363574,-0.019832598661897016,0.017742010877638804,0.052497710877346115,-0.08361412892293059,0.06689692434905965,0.07818811660669607,0.016689850281531665,0.006000041612403345,-0.04907853954172075,0.07290230985762806,-0.013246535936631457,-0.04574767905150339,0.04314642600345627,-0.017411798515161475,-0.04752891623027071,-0.002423190867584416,-0.07294138971858377,-0.042936393585652696,-0.015313200802469371,-0.07865056720201762,-0.044904997165963384,-0.01816111381553292,0.046674706300938555,0.06876576585833713,0.07547698350604484,0.06217017099643559,-0.06534024758082767,0.028464343004243414,-0.035350112994373205,-0.05829100773090312,-0.0015567703889909654,0.018349165890741044,0.031284734047559604,0.04694658822274803,0.020485993232818238,-0.02468538347770595,0.012619135796065502,0.0562475933864912,0.013169790382741547,0.039138614244774904,0.04736964490151464,-0.018175049569552758,0.05561579585388989,0.07391640639518546,0.035771127429461716,0.037388729475732435,0.04223278042197138,-0.0019238600193703613,0.03118376013175953,0.03320774924740278,0.05146600842417025,-0.06209329907700699,-0.009537346184562574,-0.015294637602469522,-0.047070624532307974,0.05876624450174823,-0.029596263813071004,-0.07281233798672648,-0.019341524375174966,-0.026643063144701627,-0.022531319836796977,-0.07771290812044451,0.01669588970952302,-0.01796040881200767,-0.01129850099912705,0.05934793242552668,0.1231518970948294,0.08093216499626578,0.08611149519723396,0.09222104295338238,0.08296278105783025,0.028302872703357528,0.0971092751445031,-0.06251178474207073,0.041649188770802696,0.038356428987497034,-0.1081275508436889,-0.05037889288695264,0.04366691818371735,0.0659535015592454,0.03531130733642057,0.013136544757363786,0.026711021411691134,-0.06478906309027765,0.06337034129731302,-0.05835439771913658,-0.042892952033972545,0.028693412831781794,0.0509620677906943,0.017475959312296424,-0.04132292982744037,0.09774459459733584,0.15997321457697727,0.10922209271238296,0.19238246154454838,0.0958956405132314,0.10724242335928733,0.1490478734813323,-0.012043991508446952,0.030149694422141517,0.07296278213896211,-0.022610605110665375,-0.05527804600348474,-0.11891686773143037,-0.11819388464373215,-0.08499019752907805,-0.05208692703379838,0.022549822127668786,0.047001690292308676,0.03891723462737643,0.07279845409919247,-0.07019079868320835,0.07012236232462588,0.06899630245803143,0.04802011536545652,-0.020041807286767504,0.05011414899193641,0.0496923693109116,0.044731357646907444,0.10769161561835458,0.18939730834605006,0.20369618427472588,0.26150961264381944,0.1640865388144342,0.13631500772129562,0.014182863621982879,-0.017028310799774477,-0.04448959868497303,0.04631141552738088,-0.036858983926710095,-0.021552607794061058,-0.09835908705144669,-0.12479446506416356,-0.060181549294996216,-0.08694093420938583,-0.00574924424460873,0.06943427071953469,-0.032433192280554995,0.037007268853063664,-0.07079978413182055,-0.049854073313485216,0.06753286924874699,-0.002383400326467129,-0.06754983081054788,0.10498962782939644,0.012579230076117484,0.1425263110093751,0.15657227365938522,0.14882848895387718,0.12300724238097989,0.25700595246097185,0.14986105806252262,0.13028286133220834,0.11473782519985172,0.07602047442708738,0.17953586451118597,0.08978107970450235,-0.002992608445150217,-0.031957697059001464,0.028228983567633713,-0.11930018194245753,-0.1355708102081322,-0.026013817061647005,-0.0725729477888185,0.01829874318130005,0.07600672946713455,0.02805048882455809,0.005227967494637724,-0.0737032873338659,0.03374481101420736,0.08903956059623103,0.00607914100132784,0.09073478386162709,0.05750804543592195,0.14461189566769528,0.14012898702976953,0.12419740177541544,0.15173485572337533,0.178568143116884,0.1170569340203137,0.22795608178997193,0.17023824340289767,0.20052871732643632,0.2713643699358566,0.17279556274496163,0.2272938120306515,0.12445036683909484,0.011228579485763591,0.023076571122077498,0.08381598413836247,-0.03825531403873745,-0.051138943599490255,-0.07367385835530077,0.008628856003955314,-0.04279418207401005,0.027009332514110643,0.02865898195388632,-0.04115351330520687,-0.04680485898904881,0.05135925197103564,0.13339720972952596,0.13513500326052297,0.1904394999592176,0.09350722533047962,0.18459140199166857,0.19305266134796428,0.18900680142203302,0.12447383857977568,0.11441450814590308,0.25039764362529865,0.18998085532371498,0.217432419375072,0.17350238012681907,0.06761688327770501,0.1743492915980492,0.11632839357185551,0.04542279643914498,0.053613314382538614,0.11147569311241508,0.05800530523244945,0.040592791177365105,0.023810902799043437,0.01921397050443719,0.07630855213965632,-0.020417786118472593,0.030517049456937843,0.08187449864861675,-0.0025589807985017315,0.061060606259241285,0.10366989378468588,0.08298574745750584,0.16600161382004633,0.17001728892506776,0.10165821617217274,-0.029477482157199735,-0.0035296320813946224,0.053704067848198395,0.12174179467377064,0.12678504192884185,0.11017676043257212,0.11419572038108669,0.1254914996637611,0.18592176169036492,0.20216356645518194,0.1360711104510059,0.10236759723618954,0.020709337451540657,0.019772769495052352,-0.0016876040342643749,0.07883072790042452,-0.08231322881938286,0.0019492574919262977,0.0732592458169929,0.05840961044667273,-0.013808042594598323,0.05240533503788476,0.13947844912659663,0.1442005643471677,0.11400859934045952,-0.027874444494223383,-0.0354823076613384,0.034368540780869546,-0.07271676805927721,-0.1352016711539181,-0.04940045538799779,-0.022391077844516077,-0.08302310631440822,0.023708790223069955,0.12657837874918765,0.12904443866337129,0.14497908713011426,0.2166758553859438,0.17035880076004584,0.12992111055943364,0.11095593427271505,-0.02694159827723622,0.06416477635176349,-0.08349108305330925,-0.0471460858748119,-0.054626988761148326,0.07418708281010189,-0.04524781571080045,-0.010555329008125745,0.038244615911435735,0.11979178855786016,-0.008999312935866645,-0.02955220435129205,-0.02264785356610814,0.0015328103562056987,-0.06062818205205926,0.009710807007613436,-0.19746240513631766,-0.03153394891321807,-0.14819209903533198,-0.08405485655224063,-0.10695001834598411,0.05160865193176148,0.15373073543115431,0.12928700438816199,0.06085938839030641,0.03255982631415243,0.06620576825495908,-0.013918343541323232,-0.019579148866007163,-0.04765480900027964,-0.0637673886075878,0.06646485651191981,-0.06893410330246928,0.007663940696383342,0.02233325677416653,0.011373335120929817,0.0932838021190217,0.09953919213677292,0.041487245918372904,-0.037766177601683444,-0.042188656719580844,-0.09726092014067654,-0.10543932845407733,-0.19444964960068925,-0.11781296982277187,-0.12012344060082167,-0.1481073865732038,-0.19557045460562136,-0.013152519717640664,0.060242354758845686,-0.008513849220080779,0.05375841407340121,0.01303877651562739,-0.026811147494860032,-0.07091987197209125,-0.002374081236368994,-0.0012088593501922182,0.013001057966914841,-0.05700662424334674,-0.06569568070521883,-0.05705767415913763,0.07661708756966935,0.007073627869798536,0.04888728738070383,0.011805948833707202,-0.026272963150938213,-0.08724849868074948,-0.08753760288082867,-0.021890845792561512,-0.010342597340300946,-0.07538951808504028,-0.0548062221114653,-0.05770199711926625,-0.06459509477416435,-0.18034327593228588,-0.1348684910478707,-0.01594850985292584,0.07002337142145798,0.006145118856851331,0.055332696910451645,0.06739962000891297,-0.062209578190335534,0.02452786975171456,-0.05270649134096766,0.07053570323213211,-0.07140884866725003,0.04549497323055739,-0.014282103822808317,0.013807116153752904,0.024979330813728585,-0.05727930225222098,-0.0011450215340210771,-0.009503298063948458,-0.04015355690706404,-0.033432590471900885,-0.07310300773339705,-0.11940461884073045,-0.12848383418628323,-0.08333611056546517,-0.06041969734443347,-0.06303485605405919,-0.09468236739841003,-0.2685315723098183,-0.1699272024336021,-0.07849839364330802,0.10008980434988128,0.14430093448469342,0.07662285599676273,-0.058517998018974234,-0.006932721073251012,0.06688759267895063,-0.046571052987370756,-0.029391754110994744,0.093388455985254,0.026651193999636915,0.07248384791957442,-0.008982172710518682,0.047876937935556786,-0.04090371040712259,-0.02265482680359644,0.05590628478180518,0.10686600788383892,0.12005483378385909,0.09484955659557573,-0.024210027759647708,-0.07376235582678896,-0.06781522762716263,-0.13726708102253413,-0.17340547172444173,-0.16126887409477766,-0.1743269135724959,-0.057771516430197796,-0.0003856754821243509,0.10583684660877694,0.0987717929890601,-0.0027910000272124034,0.05042416119158158,0.07911818588716894,0.007275293955371964,0.02780689922986971,0.1243176420628083,0.049805685718889145,-0.0334963107525347,0.027831772224313538,-0.0708321862336517,-0.0482086163635535,-0.08184299158069011,0.01685087837909871,0.10347697172956329,0.15017134528225712,0.08344203005507676,0.1502207230961576,-0.0013212430707110364,-0.0847513419306509,-0.03034433494764436,-0.1528901105348663,-0.006665989517852347,-0.1656005282342463,-0.24254965528580824,-0.06771538809423251,0.12063848687570025,0.1364679517601835,0.05965417243222006,0.14083539376623075,0.12999353486594073,0.169335435006513,0.04421499247463146,0.054555088820415085,0.07405798080341466,-0.01789707647080354,-0.009595736167673511,-0.0030529268031323628,0.049888442140061114,0.031320171921356554,0.05465060891080545,0.04888066787162966,0.15261241418257449,0.15943496027091522,0.19510015289023022,0.12236746828139382,0.009429519299136343,-0.06543697887413359,-0.12957240539297907,-0.08284715182606027,-0.04685367487584136,-0.07720219215026962,-0.0743236011822852,0.06145100495682739,0.18784155410935793,0.11710453785106366,0.13164803602873493,0.1258270934618815,0.14648252338838005,0.06732760191887249,0.15569568304880566,0.08292529774023631,0.05690737382548714,0.048465894846901454,0.03480679606472876,0.024899136212218283,0.05002196612675314,-0.0032620665439833923,-0.08130630454354904,-0.04812443408160527,0.10492091955278202,0.13565916846581144,0.23554521269382517,0.20105955519283203,0.051866828049468676,0.00835864836234786,0.0017311174393901852,-0.019118887234049108,-0.0700027883735451,-0.11075178504179474,0.029929709164826873,-0.02902862397150955,0.030981587933417494,0.05523884718822782,0.11033809860773726,0.053793067505161704,0.10124827354430001,0.188446507659956,0.22587529129969808,0.1789309760254382,0.022951340826496573,-0.011402349147276301,-0.02540459199869134,0.003238443389043364,-0.08092163249893465,-0.07386515893683492,0.028466237799847225,0.09065452278278949,0.16556861811491136,0.11350060992511146,0.1435843007714367,0.08650806560056111,0.14278882191858125,-0.09154798774772295,0.02349302709008541,-0.03446205518717976,-0.05253780493831661,-0.11496191567230757,-0.03457079214360118,-0.08210801760193415,-0.09732290045072511,0.02134591536091075,0.02817319695887635,0.03286930250242718,0.07784237112672811,0.20788040255846926,0.20887335983862337,0.09480498163921611,-0.00698930950111917,-0.021100849185350913,-0.06978667390881486,-0.060423372604711076,0.04583161919565149,0.05784853662286067,-0.05046798146116431,0.024771711407853246,0.07300553923847784,0.17811411239896063,0.14734449338215386,0.14638424772747466,0.13233903983081421,-0.025550250125846857,-0.10114162111059838,-0.13364531299486035,0.010499933973555656,-0.06442446897053172,-0.11458530952837122,-0.02118423729651865,-0.1134280617753342,-0.11494761391444183,-0.03361216982441901,0.11811395630362019,0.11577783410289386,0.1431787984579973,0.06980748592076601,0.03139660620020458,0.07630638322406498,0.04631303019143286,-0.046596677614864225,0.020277576760418498,0.04322779145028928,-0.009011283353486298,0.023303302874008794,0.032160438015990535,0.044935396612631635,0.006313688718305491,-0.000473999453984925,0.11501918998795078,0.07877750631225411,0.09810362538192584,-0.0863496768497383,0.005670295121186759,-0.07602989139010617,-0.039864919821223366,-0.0812444024890438,-0.1439923253267777,-0.14097614130798147,-0.05435486394970272,-0.08031679033398748,0.11199502626662046,0.029934221322383894,0.18835516314642992,0.049740342392281714,-0.014482636701941385,0.028004519665076867,0.009776495348034849,-0.0018749096420950632,0.0685040683739942,0.04668603873793186,-0.025284969423908902,0.02659459035171017,0.020082645224997833,0.056627667978798014,-0.07017003677794934,0.013422660785670084,-0.02902385775778379,0.15385935798184244,0.12455623322203035,0.03146655127559709,0.03400752015129842,0.04292348539427437,0.004527120687943816,-0.07630466925694901,-0.11344899524520757,-0.11359260118399604,-0.10701107395498052,0.003815570758178916,-0.022105339245117123,0.08652649858856552,0.08961679717192837,-0.029507961206445447,0.10135905758602168,0.08324500973685635,-0.014755691337503856,-0.08449908782217122,-0.0006928803595283575,0.015377857714318443,0.008354682797374604,-0.061579182500381455,-0.044593217998871504,0.028476348587904675,-0.028433949785525627,-0.023443678051326796,0.09347832987922466,-0.0024967552686274794,0.040391979505508886,0.10338360627077635,0.07605365261346224,0.04438106288301281,0.10536029680953979,-0.01898668995678342,-0.08073162032841529,0.03864098718447436,-0.13769495503493845,-0.08664506641151455,0.00714088639277883,-0.01954722194989733,0.04611778132577699,0.052157243237476614,0.09597342925799748,-0.034146928261261554,0.017349928228844198,0.04500952178083555,-0.03987564734527344,0.0332467331213045,-0.07293420963615554,-0.0565836373505503,0.047632272026437564,0.0868681651989884,0.002123263193311508,-0.03877939097929378,0.0984248661352144,0.038790359800554154,0.10906248518061265,0.15969695417975763,0.11299176890396746,0.11070583235255309,0.1122979210712246,0.07508600907196956,0.06610352847387149,0.09660569708575673,-0.0011039485968098199,-0.05283728502051794,0.042344695272531895,-0.06675162537333068,-0.020233733845020856,-0.01432619810917412,0.02578087276991302,0.05163759165966704,-0.051424552239144994,0.01930334017343589,0.011570550131517409,0.023972108447016596,-0.005044734887963975,-0.011988684427236638,0.03297547926233339,-0.07503488801731552,0.06816812423528733,-0.029840680998169892,0.0857945586149116,0.11396964632474058,0.11829373541341116,0.055366050439986575,0.20185610185613675,0.19174498828181885,0.16250858568992832,0.12604355082533625,0.21048511465975211,0.2048161946226227,0.17639777546514396,0.04810190260103727,0.025410397645734974,-0.04919891770280051,-0.06570084651204185,-0.06424506238923543,-0.014542556120162425,0.006429870075169839,-0.020811566335372178,-0.025436353110514422,-0.024991776007100865,-0.07015173381634135,-0.007384652964156497,-0.07571294015232544,-0.022507961305517743,-0.011288382306156598,0.024236958905261438,-0.03987861567698643,0.09035765854098468,0.022065604903122347,0.006603272615980537,0.022662331418369364,0.12091466181952606,0.01589273268079811,0.08002464674454667,0.022913771240762482,0.07435293899023848,0.10893608092648095,0.042030136670749646,0.07461497052128148,-0.005639950690313878,0.0952803073703578,0.05192858813194887,0.030459745175052257,0.026555013540328073,-0.0017736752661790495,-0.08323463605654174,0.011719394807079515,-0.04226775077226491,0.02301826861628142,0.07939161656386301,-0.0060457590569233015,0.04587270606240079,-0.0103948643671872,0.026917855167927253,-0.02280084929428695,-0.006918005426706269,0.0075898722064804865,-0.07530896039680492,-0.050407081328972814,0.015085443080405192,-0.06554046435562214,-0.02776017340529906,0.013973352232728225,-0.04010612858433495,0.05237770582506077,-0.03175309333865331,0.04476993866298013,-0.0038821245710350966,0.028486837767221863,0.0531636861038426,-0.010731698194906854,0.042230424523620635,-0.025123221650527217,-0.06445777799375456,0.03429127840318346,-0.027186845167054604,0.21201890831684939,0.0012798968336044886,0.04507984831051615,-0.057631011363383035,-0.0774163273154427,0.05087516588025544,-0.08387206926509151,0.009548536332621376,-0.0562572993845427,-0.0740122250481287,0.04158217015400268,-0.08221782973101424,-0.0746986386050808,-0.006010031169518997,0.020022905907414908,-0.022259911702021625,0.07692872688018222,0.03251841115258322,0.0026018826728737648,-0.06477955070426626,0.06005748303445971,0.08286206838688821,0.03083668014921948,0.013077119662190256,0.02635459082300452,-0.014496681983461598,0.0026033278993271196,0.020358026256664427,0.0157893600181405,-0.04827862146965808,0.06931396192568029,0.03991222946313178,0.04253539165860889,-0.014469615703868647,-0.0635016914642647,-0.0598925491425782,0.05658937486229696,0.04313207534283237,-0.01842473878291956,-0.0783801410549314,0.033337047890220926,-0.07419171388373892,0.08148460052296548,-0.01607185794898536,-0.07783638903990228,-0.019407610849306273,0.07771269219577862,-0.08474318871944542,0.05364387976796667,0.06564625587915819,0.008566272355631508,0.07687823269354939,-0.0018112052638995604,0.0642180086214641,-0.06638290875120638,0.05532647477899819,0.06071056569676344,-0.016374000869722162,0.08414705460518167,-0.022054410646089075,0.037746817485557214,0.05075112476361584,0.03298357799117858,0.011175791372134591,-0.06449380600313123,0.0001558906280605669,-0.05862562757792187,0.0625864261676512,8.756565775087904e-05,0.017226985792247174,0.07540978959007558,0.015335255946179571,0.03497569250330236,0.08191572359630266,0.04680613339937076,-0.05303989667361012,-0.04954030327542393,0.029904332607285363,-0.04308467853212184,-0.06434602432068812,-4.358219241811158e-05,-0.03769696921423268,-0.0709529983279708,0.02998218925880368,-0.056256010021468156,-0.03278135159738736,-0.05016760664380909,0.05089053443498247,-0.0473395172281025,0.058500153696829635,-0.07876692797315825,0.040440624679063356,-0.08286273896360681,-0.04416206076013187,0.06432735978892437,-0.00596086800650076,0.09542230212647464,-0.004341563089492752,0.12875320355965933,0.09520816597989376,0.017669151820936112,0.162144350615103,0.1673518620521888,-0.0070978749561601134,-0.049564054285955526,-0.05909283254117927,-0.02440776916499423,-0.08680917016236313,-0.014225557983662125,0.06543142329706492,-0.0755909888355843,-0.07312622335518384,0.05765756211461658,-0.07359679357294349,0.012131436376821939,0.006156152022211939,-0.047887719896218255,-0.04479431816316021,0.09377402868876877,0.029386742066115922,0.08917641335743433,0.02430051610295695,0.02002004780967403,-0.03507342582040959,0.11782971633208374,0.03557938140470929,0.09728442913976879,0.09042090782098422,0.09721981236426708,0.01920329655967282,0.06213226561891942,0.007105820248811926,0.09457149347187971,-0.03736150720879983,-0.009674253696179982,0.04297958320909304,-0.030195951623071742,-0.01727966022402142,-0.09089835901656416,0.08245661448479555,-0.05824292843417692,-0.04814833231195203,0.05841183869889129,0.013972415803897081,-0.031216602543383147,-0.04863351948116015,0.09876028051308974,0.16513271802426566,0.15724628191212256,0.1298582721149465,0.06617283865705621,-0.010871195203908442,0.004785091262314914,-0.15088652157259919,-0.17631431851084173,-0.15739544182505302,-0.16541189849265783,-0.1583225742699927,-0.22695191991388533,-0.1486684676888674,-0.17056163710855624,-0.11531690980937244,-0.03284587151607619,-0.0805249886962172,-0.09242416015405502,-0.03596821838230239,-0.055289744931811415,-0.06047566618828492,-0.08289968298091724,-0.025125268383679684,-0.024873380821806953,0.008103734731488883,0.02437060701063482,0.07419799680493816,0.09660774973367686,0.1907712802457033,0.032246211997755486,0.01561631526940684,0.036399571329219095,0.033232654000637005,-0.09150755507505907,-0.1378583911159569,-0.025352287241096495,0.03303805914053159,-0.06288802481888278,-0.13569128281977655,-0.1290984875681545,-0.024446851519748083,-0.0666233441419283,-0.10640246340490608,-0.04535564041268028,0.028337567587627153,0.034643934621423914,0.06019049493832437,0.016226527329231542,0.017849231975881678,-0.0664805394919857,0.053507277086972165,-0.00910928682142753,0.013829868122989806,-0.00022510171802323563,0.06630163309608227,0.0684902332916363,0.04099827436649243,-0.004053714996313986,-0.04198890653953499,-0.09609830230514765,-0.15607194183689377,-0.11327113985198982,0.02708797458528625,-0.019298217431275366,0.0803830849654817,0.024565591415278094,-0.035084701086710884,0.08559567653912147,0.05874808666660025,-0.050293934764937494,-0.004894245481584391,-0.08623882076910383,-0.027608977376849766,-0.14390427703377032,0.04836168575911653,0.09215210748009005,0.0525493504620749,0.08557433750667555,-0.05726231995916728,0.08344722577387015,-0.021160154581663683,-0.028535052085496632,0.005323638984293089,0.11260337190038189,-0.046287553407767815,-0.0641933943976291,-0.07854111041569742,-0.1393311746610782,-0.13032592054186554,-0.13100564467061426,-0.1505231815203724,-0.11746856372515563,0.043302367419425454,0.1539474761028879,0.08113354580913398,0.16166978262320086,0.0005853870456248535,0.059139037762304995,-0.01116970583640502,-0.04929862063964057,-0.019312594958962065,-0.03402133204439034,-0.08448213766519051,0.004764839013924521,0.053851377502713176,0.03611017474436863,0.03341181386008583,-0.012230364545906695,0.024002566142730254,0.028634474110862063,0.10767082545689978,-0.06334964166221851,0.014953957681464205,-0.10398040794839458,-0.1636339728449872,-0.2503275245101457,-0.13780355595037952,-0.2709428938271557,-0.18479645412939788,-0.16147074148908258,0.1626623614647875,0.31535349970008086,0.1706480398432311,0.05662379444975723,0.014444513254062279,0.033401725584301524,0.09486335706815335,-0.030864938385997808,-0.05223920597169061,-0.07672126719054038,0.06399094211268623,-0.04252904509235011,0.014192723488364752,0.016514310797409018,0.05655652226458129,0.05806291909463812,-0.04863978022492243,0.07884054513969187,0.0516807029042792,-0.14145363353674212,-0.1346990610955157,-0.20243726627495265,-0.2412037988388396,-0.2239010716321916,-0.2207997696858986,-0.29901667300009865,-0.20249247085841698,-0.08689804433756684,0.09949180066147915,0.34573574425904313,0.24760778041122689,0.1991786821001773,0.031045780659248158,-0.005615832322818653,0.037812264053280295,-0.1105918858787875,-0.0383319393507243,-0.10257689890067927,-0.06682874795787314,-0.01731551187094016,-0.041757218485864805,-0.05938371724378039,0.07113233688819517,-0.009048857009029722,0.07880744796584263,-0.0396124956599262,0.049372246732801224,-0.16139970275363527,-0.25903919763289385,-0.22409195562119974,-0.21707068686578695,-0.2970147206386224,-0.21578427387207352,-0.01215844270719031,-0.017250523545954105,-0.04821753455470901,0.16070226068707677,0.259822896683326,0.15510751589759314,0.10801585732131354,0.12624871083469638,-0.005292981019756197,-0.045511076737878665,-0.22698343973937618,-0.2441974625812198,-0.07246373446800841,-0.06399545965361693,0.010176746973287567,-0.07658691914361712,0.04853184551969649,-0.04773446272316245,-0.06017059103449596,-0.05627848683920524,0.043290848587097516,0.008287833371331656,-0.03077413923680489,-0.23377970425747946,-0.15394797978064323,-0.09903676149334079,-0.058878212018482354,0.03925511246935769,0.07512222339268293,0.052697134224870525,-0.015320454267585623,0.23769768242578215,0.12304103867075188,0.11629017477959024,0.12483076374843452,0.08195756448220352,-0.003469232053166682,-0.06973080683389907,-0.18264951954314712,-0.23589369860745557,-0.1177486960116617,-0.08289598689422971,-0.05411857357717513,0.08500776562974344,0.0612477675804428,-0.029123069097583706,0.052047084877012505,-0.08911048877431944,-0.02415080745270221,-0.0002716349782829795,-0.006266793971565716,-0.16323571554232205,-0.04948754042287613,0.07316131005010908,0.08080310224169981,0.11800814084483749,0.011912478558379508,0.08800200510860719,0.20617183058759816,0.3022480243766496,0.1921415149895671,0.14657640486868165,0.2541726198720734,0.08421832160849375,-0.007675687909123836,-0.043492697961703033,-0.16658738902119638,-0.06885110154897987,-0.04092885046250407,0.014611864953108733,0.03790362614359521,0.07517509597457546,0.06674984892288466,0.018479991308754114,0.0335050666334008,0.04868136276209035,-0.018487432291340325,-0.055794267767255906,0.00025294829811460805,-0.09813515897782946,0.07679555541073041,0.14717973107797366,0.22218733858312562,0.08266181744132534,0.03903378077727371,0.17455942485659792,0.2969838195362971,0.19605080479324458,0.24341721518430237,0.06745474288120434,0.14179409197227472,0.11506647646196128,0.07056261167795026,-0.009686884221395518,0.02243023694367707,-0.018193059036496734,-0.00036622648282671864,-0.10118166228637701,0.04713489471176182,0.042749532169701496,-0.014704332073241167,-0.025307358321638482,0.048309862225497796,-0.07922963659613111,0.026408886248752365,0.04241735388380207,-0.027664131249923334,-0.04271229692331101,-0.015608069405555765,-0.012805155389551185,0.027512178027390487,0.08322136339822703,0.13325254111528184,0.14631154193706655,0.15924428845270586,0.22367020842189989,0.10644071001436028,0.019697485800011287,0.10296109646231183,0.03890535512387312,-0.014923852620317932,0.04302415031646567,0.06822908868297067,-0.03421127517867054,-0.10182552795926025,-0.06942304871515297,-0.03492863107540853,0.04595634008573557,-0.05404634419583825,-0.05487842059200547,-0.06645673922463437,-0.0314778095819936,0.025874511469407693,0.11173702825596923,-0.005491012682283968,-0.07027350410414178,-0.03503051281889843,-0.14496902776878448,-0.2930143127523161,-0.21311897478404807,-0.05589979808429813,0.04352485312576577,0.04173131551666947,0.19712720002167056,-0.09084696387177726,-0.005713201173442016,-0.005341147212556443,0.05094015498327592,0.018668095166073432,0.061996032949035426,0.15164805642672877,0.02986490197917971,0.024686544146511245,0.003688197774136781,-0.008414592927822344,-0.02657168928208292,0.0696658767720547,0.04377716914869451,0.038420877209723835,0.0577275000940213,-0.018372410212185948,0.18312236064276743,0.1050947501217656,-0.04710224143789328,-0.21855537475282794,-0.4121718368561886,-0.46174678758469345,-0.48858642220539367,-0.3461797599688972,-0.30981744502734665,-0.1118754086140547,-0.08914362292992659,-0.007264666971644747,-0.06326482394570687,-0.12404283915463453,0.026526071919080192,-0.03276611474452094,0.037405693257936794,0.057629593561486864,0.05783670698912499,0.03339811178877928,-0.05326938400910661,0.010923597018050983,0.06568695655450937,-0.0729917660395324,-0.019625649199769845,0.0074959869627696215,-0.018357394600357298,0.1756804004594458,0.18849980998995705,0.05774905332882202,0.04742009133607679,-0.17437240213944155,-0.3764415534663715,-0.427561211189797,-0.5066230743773982,-0.47453391176730914,-0.353260441578515,-0.21437365287340074,-0.047831881824872385,-0.15517615916020103,-0.07401802808973905,-0.05218518402506313,-0.013600094882136302,0.0013609398494379625,-0.045140760562623734,0.06281620600469977,0.047604382374272385,-0.018914714225650175,0.0031621414791376456,-0.012946225161360988,-0.001152649533625399,0.033947117919453595,0.0329074264379667,0.009568728220538475,-0.013637753741516039,0.07997932434559131,0.22943823982283343,0.15298290851776603,0.01089774966948438,-0.15891577066248638,-0.1881149356633917,-0.16952326842785553,-0.2916473036036092,-0.1685374975647257,-0.25709324864134664,-0.16257670525246626,-0.0038098375314452614,-0.07938845098652095,0.052123467032844886,0.016892507074462677,-0.004730477207774494,0.03855641329479178,0.01312320051682176,0.043626161902682245,-0.016213414268250702,-0.11238630542869682,-0.021876760730874138,0.043358433343974226,0.03379470003325684,0.052044972521677536,0.061483988698798925,-0.015174723179372568,-0.03515951010543068,0.033024970302188324,0.18080397523241606,0.1406036722803356,0.12306313581102744,0.006164504913872491,0.003183900556989781,0.09372980487345563,0.013930780682182111,-0.04385327312317678,-0.18375474652064608,-0.12422708199317627,-0.06202495420407973,-0.04332623102351827,0.021776686864602043,0.1334332398267121,0.1427450454926333,-0.042008279225226854,0.0004640928314234663,-0.010294499561302572,-0.05458138263386211,-0.0543084842651241,-0.10650239527110965,-0.03388426154965649,-0.07764770974319371,-0.024257767090542493,-0.04139502442557469,0.026724554546282,0.046791449217372806,0.04419001883010884,0.12991769742890757,0.07067441345505232,0.06579148605412281,0.002738086752573395,0.06979399340036843,0.052001057908316745,0.01514555895634776,0.03933492274000492,-0.0627938665180259,-0.1532674406932022,-0.15482335438238246,0.04414097804176164,0.023643053527267116,0.09602749080757157,0.09672434718354163,-0.013744812379879276,-0.04541129980854849,-0.00978197122610874,-0.11279643927444866,-0.05180847368265425,-0.07390671964231521,-0.007001368214167946,-0.0715515907318844,0.015568219297099234,0.054756067745652164,-0.0575757939616089,0.06583062875872026,0.09056849688237664,0.1072215107564619,0.09307759887665706,0.0053450669560564535,-0.037924871606470574,-0.06556522229328536,-0.012036548920480719,-0.020381988302677175,-0.12597696868439606,-0.22678519100870656,-0.21513700236382388,-0.22840191248806824,-0.16146091227987697,-0.12361279900363556,-0.03857021535793779,0.002611937678970155,0.027513099396604363,-0.051720677169377,-0.12205677184877418,0.03309739384644414,0.035565619216240914,0.026115793420556296,-0.0606533527944196,0.05853468692871481,-0.07287900142038602,-0.013505580698283224,-0.04583591227004375,0.05676671083385669,0.06013555069012867,0.09902701663506733,0.10227754150921091,0.09671512737796199,0.15363978029093106,0.04082320645411699,0.020031684118316868,0.03970150291442297,-0.08936952518471454,-0.11280983073836628,-0.21764387816380085,-0.23076363154030508,-0.15613280671161303,-0.15749753307500639,-0.09934000444514199,0.0019700515696186934,-0.06758633944553807,-0.0826421964739248,0.01981799912848539,-0.0033853221849165856,-0.02387404071558967,0.006910561269880351,-0.02090650063744936,-0.037277359152896566,0.0610915829031118,0.004008707168424752,0.0371256903655487,-0.005767970056688178,-0.053190591084477774,0.04865415269256196,0.05721213354844744,0.23339537279612127,0.12109181224682261,0.16159700554014425,0.0856030683998442,0.1117967582320296,0.09513746865617441,0.0955122785382319,0.024197223558946546,-0.07398373321341548,-0.08134164753423773,-0.04841152018159594,-0.06207938735450152,-0.15191464478324604,-0.13099122594255072,-0.04645963255135221,-0.056484164602469494,-0.04918869238747846,0.046960429617982274,0.047142203568100324,0.08188843244162149,-0.05241416954782756,-0.0076073013390775485,-0.02274946177635786,0.041553956179728124,-0.015251402947972595,0.044355388032701615,-0.06546249137357421,-0.025500943989833814,0.059192436345916165,0.13606274415314423,0.07399334457229216,0.11998426298611578,0.075688046892743,0.16381027251698624,0.09222152984060233,0.08267461830712768,0.0598516859118069,-0.10112818728131708,-0.06343710713931622,0.05363372596569509,0.060686876983772634,0.018372889500381788,0.08765609938058477,0.07774675227845834,-0.07306968181226246,0.08640081088205324,-0.03309408935677603,-0.07862113224997568,0.0025901444808629206,0.056935306992585324,0.04003811615588816,0.06238249758869109,-0.08102660345776529,-0.03568095990837031,-0.06989448985881583,0.06632075524518395,0.014490214829156281,0.03611329206678209,0.012536211637281582,-0.04686381127033571,0.07894987264392576,-0.009356471997548913,0.067596237871442,-0.0010756071124666993,-0.07711363086787691,0.04059331360923681,-0.05126565337484948,0.01035524251890749,0.03663235045982965,-0.0681970164063419,-0.018507084212485553,0.040532306374646325,-0.02740253777337724,-0.0707818917159622,0.08063702025024322,-0.07774575706282642,-0.06472889202547495,-0.00825206945168313,0.05097772212481109,-0.05861481483023302,-0.03776692112092262,0.028831504717608446,0.03237709299371646,0.07511632686667845,0.06625299505020553,0.027652846329151947,0.06473455671289094,-0.008236100912630417,-0.009199353246238884,-0.06729586314932866,-0.07764512823295218,0.00401424795786284,0.01248117401700132,0.031183855168696307,-0.018194782025874313,0.06229194102718904,-0.06427081735317233,0.015982613747807954,0.01263581575925074,0.04841544040701089,-0.013292188733037346,-0.06987945422428425,0.0410488867519816,-0.07913394539016508,-0.007215644870221139,0.03678774447034049,-0.5072011438589574,0.0388256582368002,0.08270101910717036,0.004820032548502274,-0.07179998999649098,-0.045697935760594874,-0.07009111407594099,0.06842030165896187,0.049076748361271245,0.041303317066505744,0.04152044173824211,-0.07714726096164613,0.026889694407924714,0.032616706843052415,-0.045504539108949554,-0.028149822222154692,-0.04042580642322652,0.014564930648800855,-0.04208203264304374,0.044998288207913795,0.08594063492131053,0.053203970820923575,-0.0018820910898094125,0.0007344414133920485,-0.03490922412250907,0.07734321716654072,-0.08342010819592255,0.0770468490104548,0.039449834043025024,0.04748928576626721,0.017665121134053524,0.0074429802528297225,-0.05209302591049358,0.0013262169420289963,-0.01491665936117744,0.07050014094209676,-0.05596976708820871,0.011074621405901963,-0.00027006100713550507,0.008785656198671096,0.027858155252834062,-0.04449025938701697,-0.07942790876079069,0.029921841328049602,0.08043449581704942,-0.002977046664141462,0.06796591617387128,0.035841973310395535,-0.008543958872035656,0.011620620076819396,-0.04982719268173867,0.030084094399307502,-0.06452837962986359,-0.04502576972300207,-0.06778584632722436,0.07003661860823096,-0.08528636326545659,-0.006333753395215465,0.03575077352030802,-0.05820845403974408,-0.041996226837662375,-0.046903597523072334,0.003574002683534346,-0.0286761128298413,0.02096274074067395,-0.05813146595038926,-0.042413313753772615,-0.03586507332753442,0.020652850100350385,-0.05729668871077807,0.042762293916230355,0.11626592358494894,0.08653946906820173,0.016563030219637162,0.09246545483858262,0.08908944977611909,0.07648743192261669,0.08548678413861041,0.06294432788308793,0.012131831745128585,-0.06936285461107934,0.03985413045803135,0.08392270446784332,0.04451986384907544,0.024655727742793038,0.048350719250261034,-0.07029030181919323,0.03874953832107511,0.010928881073379677,0.06412276744293403,-0.015655366981392263,0.04411808048243472,0.04907669745345329,-0.08673336163857177,-0.03807644344921807,0.06658472862390936,0.016842665514205043,-0.044013262146612234,-0.004518554340206427,-0.019864198095586906,-0.019556867301090613,0.034859649029044135,0.07081285520928868,0.06008760431887776,0.0833358511656572,-0.029110152358387136,0.10926002282683933,-0.010395655544457703,-0.05307285162830384,-0.05751832541737698,0.02549392810574904,-0.053781361475594494,0.06960071389198572,-0.05835415790498384,-0.01681068926464112,0.05003413652608264,0.05114385486056984,0.053444638183301585,0.012773394131856455,0.0695252935829778,0.02564365754146091,-0.0207667842338502,0.01375660406626791,-0.11323085656039268,-0.11972724883679214,-0.05817779853705313,-0.12525462134344129,-0.010332184828254027,-0.10171968288876894,-0.07598734956255532,-0.07511846744575822,-0.03674361049160304,-0.0058735264090972825,0.048647112157015136,-0.01030385163894966,0.07252460505186874,0.075221504532325,-0.008444880127159476,0.04702183148670851,-0.07217652686911533,0.023908209948563214,-0.06531159089150086,-0.050404179103342966,-0.0623083898029013,-0.08700012025678566,-0.07623920864869438,-0.011922905844887447,-0.0008058931035472823,-0.045739074900391634,-0.009291830815975207,-0.13401047840221667,-0.18351438641707551,-0.10563159950585517,-0.08989608221710041,-0.0774643124851406,-0.09538618981503208,-0.11376116076015799,-0.11388038105010616,-0.10369483149289624,-0.13883237023567657,-0.040665682631700194,-0.027123183515453786,-0.06898127182270229,-0.015070619118267077,-0.028708215527594828,-0.04083452748374807,0.048337313274506376,0.05052799048462497,-0.018609313035279948,0.04035133340703667,0.04517772978645307,-0.040289019952879514,-0.06250048710509716,-0.08342744878160412,-0.04224410153489255,-0.08245098020783487,-0.06145210724002781,-0.09079458968971438,-0.13349020939957373,-0.16047323835929841,-0.0026311330072831675,-0.07084747095962093,-0.06572077329762271,0.027621736096817666,-0.031696944064822916,-0.11218406753382645,-0.13057187368938553,-0.17796666071112105,-0.10508537217476346,-0.04941589783031984,-0.01983124873762271,-0.022492633272684283,-0.03850194263117046,-0.1333851783355713,-0.09738692093008049,-0.06328760323859932,0.017274580802451936,0.06769836504852242,-0.0008926186813173381,-0.06386985418567766,0.06669921908253171,-0.03336111592602866,-0.0994625841722937,-0.14142060977821003,-0.08562595051255535,-0.12710443370983393,-0.17198469997626278,-0.16672145894826565,-0.1582483352313398,-0.08989795835320398,-0.057944081834490666,-0.0933082487732589,0.03029338810460653,-0.10077463177411777,-0.18983531625268948,-0.22268715732093214,-0.19709689910861652,-0.21827098047524457,-0.1342664157575409,-0.10887390889034597,-0.0006395798510478504,-0.13067726564433835,-0.08944876414789954,-0.05554003196191696,-0.03810696905069198,-0.06267622288830783,0.0018328020797754034,0.033261597817743335,0.04171806255837953,0.014328815660161684,-0.00024061759983359655,-0.08322556738266046,-0.08932445289350836,-0.030550718042014487,-0.08479348430002484,-0.1789476199668943,-0.2622203276434897,-0.17961940266066753,-0.040387666759520796,-0.10482269118986333,-0.10800839740713998,-0.19955136417548408,-0.20997025322192528,-0.2306325918794285,-0.1259581323758849,-0.05889938044121025,-0.08106713757594342,-0.1286142515877101,-0.24068942803091564,-0.15927377940945253,-0.07335802041968806,0.027485971884662043,0.06131152623091062,0.023027149564706313,-0.0808987472050544,-0.020110714438697285,-0.046800614547121554,-0.10585221468480328,-0.0934586011037615,0.03864044628687578,0.04584565541445736,-0.07840558427225898,-0.03137682254221371,-0.08030389439595313,-0.09816498184754682,-0.1387754882993942,-0.15599086617059574,-0.11275938648450434,-0.21891884454661711,-0.1788361951327859,-0.23421108797612045,-0.16636675492157016,-0.20067894173916173,-0.19166073385263588,-0.13117813442331783,-0.1868253709713409,-0.27347994604930825,-0.3383147136060721,-0.21915928637487567,-0.10323026994566639,-0.021130001667871018,0.016696041041829947,-0.029201024216005747,-0.05431633059812231,0.016795420136504594,-0.1053808014091742,0.06916502017398678,0.021018556268172575,-0.011596304024736132,0.11292815072277076,0.10261241981370045,0.19573765068322094,0.05692491346522885,-0.03098556043081432,-0.07071996418397526,-0.12705557640037266,-0.08062586119136926,-0.13742694947282705,-0.15493030296045582,-0.13607604568487497,-0.04286594141249527,-0.10100843155826648,0.0001529876387605916,-0.04545855547008591,-0.09122740802644382,-0.266517119568784,-0.14950733156068485,-0.1269801583888868,-0.06096621200981995,0.06152976035504626,-0.017781717712187523,-0.09357379291935713,-0.04878625740860334,-0.013318964647585503,0.0016787620657275522,-0.0005281420747046459,0.09749886333180141,0.22732532318615714,0.11662026962351288,0.1198654916424795,0.12851297143020735,0.12856035105348634,0.04506029805540293,0.09647313426199103,0.213153663101083,0.25612445660404304,0.044581155858596906,0.0005069136292329262,0.16579184132436414,0.28741307100744434,0.3309558289536166,0.2368165960422787,0.10166904432003093,0.022066122210984494,-0.008937844202527386,-0.042702227943778204,0.0013055981870146761,0.0381822248935644,-0.04537918852255053,-0.09275678904783265,0.05351186105357914,0.12952084615582346,0.018784103978665447,0.03958972305572574,0.10901214514187105,0.06999508199429288,0.1206741886467353,0.005849557582854621,0.07027864209739255,-0.014272146976259637,0.2597214944698688,0.3466775649816242,0.49516951817734395,0.30279652642134414,0.21826082688629764,0.13693562555227118,0.21260474213679004,0.42335192300848123,0.2929037412794752,0.2911822151895573,0.12172263230853693,-0.05455342808979573,-0.015036580987320832,-0.05981361961030996,-0.00806877296342364,0.0010507883166380534,-0.034587530390530044,-0.08946890996461357,-0.025111450311657665,0.004783080710078062,0.14612559287487648,0.07669669992598106,0.06134301346868326,0.03684207458993783,0.01861927447109543,0.03222174577038122,0.014915003174831848,0.0351210046182943,0.168830762653032,0.34271912747074773,0.41185848140048753,0.3300050333952789,0.14451476968905524,0.14189337830269078,0.18241610638594463,0.21397419359865658,0.26163693298525187,0.16461104556074554,-0.0034251727475200365,-0.023830468389251163,-0.00547300190806721,0.01679279306603122,0.01203339521926245,0.03656258351756037,-0.008950306256382778,-0.04367479425948621,-0.03386019861124206,0.10006295693386613,0.09986478726488027,0.06908578153300565,-0.00995406232956889,-0.0516221913557479,-0.04558381137131882,-0.06895592669782302,0.08279517798086124,0.18068825183662332,0.3243306472811199,0.45297123685390894,0.4133467869792021,0.29292760586529704,0.2631040075213601,0.1750112586106896,0.15639158597948044,0.07599433323279582,0.12940424135276984,0.16260776137049893,-0.03753266220095015,0.027905273657073553,-0.07094470600060344,-0.0052367963606930554,-0.05242483468636974,-0.052381657530902605,-0.007515596640831682,0.06374255317710299,0.019041233512888788,-0.016101199581857333,0.025608006878607176,-0.06989067874649078,0.021648788426002038,-0.0022659111991628796,-0.024491311893631646,-0.010135829057903492,0.1456067556415588,0.13497906967682283,0.27469447866456587,0.426221830581497,0.27379589466888316,0.2414415271904952,0.27315194784623625,0.05034396612546421,-0.03773317874440034,-0.008060141330503742,-0.012079846581165421,0.008543353449871989,-0.0012055049482244875,-0.000891896527180089,0.015541266380689547,-0.012559292289180424,-0.06560101337491996,-0.06145682873882451,0.006222308832745331,0.009332383920564631,0.02074103820426678,-0.02453189031821788,-0.1401034497752543,0.02137075421656242,0.0332726143332371,0.12926584283948436,0.15942014942059676,0.249396080950617,0.2993705201115775,0.28094905724853914,0.3317043162087852,0.4080617129669481,0.4011786597533451,0.26983076904389125,0.12781099334533721,0.009876033749403651,-0.06307370900880895,-0.057917326065033636,-0.20836941925116045,-0.1657634584189829,-0.15938933647536477,-0.0027274188584274126,-0.015706997496350992,-0.01621700983849109,0.009399283807232041,-0.08593120848959306,-0.05205176277559753,0.0666660889785388,-0.0661950095434857,-0.1778995134315384,-0.1336678494843389,-0.20977479868265164,0.09438789830201436,0.44377177576376625,0.5399808115082054,0.3755308852051266,0.46628515949783106,0.430571786321442,0.5219874335999023,0.4567927096432837,0.29710678942511,0.07472168676658882,-0.07174024061063715,-0.1823944498087887,-0.15770041864880674,-0.029807384346488382,-0.18883645230258794,-0.1763789328693869,-0.11906534020534108,-0.13719746425725207,0.04555761186288284,-0.02449817585268652,0.07575142727172696,-0.045836121870161214,0.07160504739774595,0.02982933602719165,0.009005311430043779,-0.11056715581884892,-0.2233962585525399,-0.3164482076718604,-0.04093325623395418,0.3137513793625387,0.46688137787856604,0.46480474442799535,0.48849581908081285,0.3316703737919228,0.3470673788816693,0.2688700844731122,-0.025878961746642698,-0.08031636359224177,-0.20377242395038117,-0.08142186976347732,-0.09813254360793866,-0.0678196761417432,-0.17216822108420252,-0.11343177223130764,-0.101179567596064,-0.12476968336412651,-0.013832305555605107,-0.057880308527117154,-0.06557709252112578,-0.07743957774160937,0.0562267214702608,-0.014754538578514265,-0.04735861054791951,-0.22764393601217522,-0.26524390860665953,-0.30147252991954676,-0.06661413211037408,0.05653003814126957,0.15031643008861031,0.11645703662418379,0.07645349656251578,-0.05916058038491444,-0.1701052837428735,-0.09462905063751466,-0.11510620915788994,-0.09346938278643409,-0.21230104775470005,-0.12119505492841103,-0.0683362980707918,-0.1326466357056438,-0.2195975210468001,-0.17781806321720323,-0.12081517257853772,0.002865342848126011,-0.08532618682553399,0.0625158273858406,0.06217439804159564,-0.0056103842729981,-0.017306231290194377,0.04703841511890948,-0.05515218851599719,-0.1568323597577443,-0.25086841527094844,-0.2948864760865314,-0.2165968239294282,-0.17570382045400035,-0.22943026974579586,-0.23088929347891854,-0.2652894575312289,-0.35087253234649457,-0.2519145466690222,-0.13563468280671911,-0.16005817825341115,-0.15654504486790913,-0.10770524548896872,-0.14994905573453968,-0.07850035965609935,-0.10963321320156211,-0.20101540300875986,-0.1101305818752633,-0.10272279581233196,0.025748802657782646,-0.004131568356092857,0.07719784007673304,0.0602732493811751,0.07883380887220066,0.04414651433098348,0.000893048105424136,-0.042842968516933214,-0.18258264791778406,-0.17648098546807717,-0.16709850235308654,-0.15037377581153452,-0.1816451769209718,-0.12640991390979456,-0.22994505489461797,-0.19467526291993228,-0.18959443825691,-0.06310945675515917,-0.11395781856051533,-0.020407304476897103,-0.01712676019529445,-0.06458203192429773,-0.03715829668178572,-0.12321624123459737,-0.13254040753265567,-0.1274847020777002,-0.13985040788835892,-0.0054140696828333165,0.048473010478701124,-0.027161442852981846,-0.041454006420842925,-0.02225164583427329,0.08380563539500968,-0.07637435494976134,0.020721375916882032,0.0059178019476064225,-0.11916778583186484,-0.07209411322506501,-0.147099835389835,-0.1101776269831267,-0.10316988146198175,-0.14479867182264083,-0.17754377987501863,-0.1761140129142711,-0.24233143097360899,-0.15767760012719106,-0.10303185261077283,-0.013399379199625337,-0.1302708864241591,-0.06785118854652565,-0.024009726432669635,-0.03666334764431119,-0.07077411472008623,-0.0894454534708821,-0.026478329565815403,-0.05456479109189584,-0.0858541803436608,0.02583280250436359,0.011262141854609557,-0.06400277693561261,-0.06416601583916491,0.024746953876932275,0.06745266032793559,0.0592738050031458,-0.09500786179822669,-0.07880605399845701,-0.12877734675496766,-0.1102154878220669,-0.0728695174078852,-0.18829547205610445,-0.1314000778815904,-0.12409074682777825,-0.03930276731614318,-0.03672960107584984,-0.085427915467607,-0.026394378803951617,-0.032993203249410914,0.05518589002511289,0.038921864525508325,-0.000412868383651621,0.0850113353642556,0.0342390916532952,-0.07687837111350398,0.0790250371123928,-0.07068584915431464,-0.08479482652418024,0.06297734151814124,-0.05517194127208706,0.014525064944471542,0.06096946143974645,0.00985148825680289,-0.059770087657606205,0.019006087889139305,-0.0314976026135932,-0.10115950950901961,-0.09519962176645107,-0.10143424980270273,-0.16866019825995157,-0.07750708530144994,-0.12961152033298198,-0.11722104085867278,-0.16675110216036398,-0.07618652467090431,-0.058304743624129955,0.06238109894258563,0.0024310223806857053,-0.03947818069217329,0.06827962258648865,0.15184608613005995,0.014350139031834781,0.018752353575325818,0.0565508738327802,0.008046682635403679,-0.010504919646961241,0.022069603850143553,0.029059902803070917,-0.053997083584721016,-0.07385629039753755,-0.048552402755834834,0.03234098426361406,-0.052432647039562005,0.010954918437462753,-0.04952434334740163,-0.03414134610325673,0.01549381358776437,-0.013433563731416347,-0.05867804970309492,-0.17976851128353705,-0.11907792176267201,-0.07271266943269876,-0.08084611013079855,-0.08241626123321273,0.018752281484186176,0.07283157341741046,-0.02554007168929087,0.06493020106125827,0.10698915568443586,0.10713229957854516,0.013350179254005166,-0.024686300385172326,0.061311213659457915,-0.03415787343546138,0.012954279128421594,0.02371655811529289,0.04351752392414938,-0.007870184070038058,-0.0030853524174881347,-0.02144363484898918,0.04064604762240575,-0.07910780345707805,-0.015309197575897819,-0.018306011179984656,-0.059977756115733014,0.027145028212078082,-0.08112104740045165,0.06411303244268686,-0.03566548160617306,-0.06399926704067928,-0.047363376098012215,-0.030401931802973344,-0.05403164117616006,-0.05354261516053098,0.06667932460267888,-0.07796297805684514,-0.06787961516565778,-0.06267531086467376,-0.04761942302217001,0.06780156420487435,-0.014364366011473484,-0.026522470941267563,-0.04105036306144651,0.0687970752174325,-0.005725187388804185,0.07535442220158643,-0.06662567175288477,0.0436385344568195,-0.044781547903777044,0.08222750110331771,-0.06961282778922119,-0.0052123026089680785,0.027239513712462943,0.05953453275192251,0.02642750026369936,-0.016497399746050707,-0.029769210772101876,0.03257062935807178,0.06517427094785137,-0.08186352994308724,-0.07395781082791036,0.029921795345723194,0.07287397100709986,0.04024501685309382,0.030654750833150838,0.03518547479783222,-0.07754434582781466,0.004226884206809898,0.06314091600090171,-0.015319830857714574,0.0689950782945263,0.07978392798981965,0.3437777769978983,0.03404984519994478,-0.052380838703537054,0.06562838662167397,0.0025443359482234134,-0.010249574085312777,0.0857847318837702,0.0003816578746364812,0.05704655607520848,0.01297273590546304,0.07293486311138113,-0.048609924749478915,-0.06972608639690951,0.005714409843323623,0.015050631834933194,0.049677019811800456,0.08300564969051574,-0.02159343040360469,-0.03907160402219817,0.06211212077820389,0.0794927433404377,-0.08379977950279774,0.08178876246992399,-0.058380092972250976,0.0027534692958655488,0.03847629182723991,-0.07571251912119545,-0.052250453424088454,-0.030358813544443457,-0.010467009789173677,-0.030066733663298834,-0.07393900831213741,0.07843016059897186,0.06927578483141544,0.046735877732061934,0.003931988721835852,0.08151443266538232,0.07496375468850328,0.04424639942258931,-0.00015449434960334286,0.038425420667852,-0.05779587246497589,-0.04517321850552452,0.03135164141928198,-0.06337512033007099,0.02360748528132893,-0.02978066151337377,-0.0403107488354647,0.057599370309353505,0.010337308693818307,0.03239394797452119,-0.07984322448565029,-0.029654942818955074,-0.0004978834669078297,0.043436154510632034,-0.010701016861991404,-0.038231364077516254,0.045781798727441085,0.05182086627521783,0.01710922013045815,-0.04901747053556275,-0.06321472315200286,-0.08221106856370573,-0.034611957585671094,0.0035733373546272423,-0.00676498167203304,0.031740334866673325,0.07307615301999969,-0.020276901660606382,-0.007217832008123332,0.10217775986446907,-0.04281714669316887,0.05214512877469563,0.09030000071187473,0.058172078541201544,-0.05737305123517414,-0.011942341837758344,-0.05550262103449051,-0.047938348010725815,0.0032051402514893523,0.06478812393871859,0.003010027197243306,-0.02823904943098757,0.04189293048554366,0.020856073900227028,0.02493626731216163,-0.04561323253046517,0.06026328231990403,-0.043473742452997385,-0.048882270878946976,0.02543374416122461,-0.010319485725246722,-0.030243375292434743,-0.05617743605798512,-0.0053298878216970725,0.08198447913820478,0.08687116318218627,0.0883224832475556,0.08761727250936747,0.11581781696369174,0.05030319296861693,0.01848203966362429,0.07084887112785566,-0.011173564317943177,0.039953970647289706,0.04982250991653028,0.10765526016424393,0.006626629427026676,0.08844261476011467,-0.0688609107498272,0.06157542663044137,0.05130801410946791,-0.022885949637080533,-0.05423088338519054,0.08274156692210112,-0.07782681057276675,0.06728999511155295,-0.0776809713988709,-0.06607931847015057,0.04378309535797445,-0.00589950151268046,0.039427539769248496,0.004818365676681831,0.10073747564045019,0.027833522433180984,0.00798267118325736,-0.06516101557405704,-0.019158642625476095,-0.03737539231896851,-0.03729857182836245,-0.03231304950658873,0.03195273796730407,0.10186135577706734,-0.012916939360241148,0.01334453359896183,0.1254408855083174,0.008135305202034905,0.045023693810684155,0.05949138899436628,0.04507529622409537,-0.013730123940549246,0.08506602646413704,0.04917640931381876,-0.01638374221698412,-0.053716205027344886,-0.06215738347894337,0.012619084233671411,0.03376695684051113,0.12297283346121572,0.050349570823024735,0.08043982346039379,0.11035935879877631,-0.004028217787049269,-0.04404217634967676,-0.1420984081463821,-0.038117331889051656,-0.161696250034656,0.010786721456198727,-0.05164240792867516,-0.007125989517320819,0.023379961368005475,0.09914327396457978,0.05950475025929837,0.1518372384574026,0.11807831077897017,0.07285716248183306,-0.04587561926237166,-0.012110917251562145,-0.019309093569435113,-0.05679675422935387,-0.03265725165967772,-0.06247543188104902,0.049650799063526076,0.009445955729520884,0.021686131902908138,0.03752868532492749,0.06528977453293315,0.12958629562371654,0.13744569964380787,0.10009988456845367,-0.09526626575810895,-0.14954693184688497,-0.1862015126091706,-0.23145968646118387,-0.1841602096171358,-0.20871698856063325,-0.13370284627697415,-0.0984002938097111,-0.014534414274559647,0.02504582603250771,0.1734817255273697,0.16051686163537998,0.16829738945430506,0.21530632668416008,0.09634445134087977,-0.034988607445901806,-0.07144043473157703,0.06820150192751993,0.07079724319284467,0.031343957887933434,-0.026497142495297894,-0.06404589275176381,-0.01280229255437595,0.011348261556854549,0.17666125712593622,0.11018810923551459,0.058688889439291875,-0.006794803201439962,-0.08877505282692272,-0.22969879212192854,-0.24226139290973622,-0.2700652057298837,-0.2959872802517197,-0.22358007208763736,-0.2148876593406667,-0.13492544878272575,-0.1323482453099037,-0.0021670104860710146,0.06353861574964693,0.18409025157033793,0.21094697895867778,0.19535492591654555,0.17018344226554774,-0.04005131840922642,0.07555926089422327,-0.0336746552977991,0.028646094192839904,0.024320929600410584,-0.0275939740348756,0.04209633446761217,0.05265410036041203,-0.015151866871877407,0.004742286020101991,-0.014716988006971389,-0.02404849698052815,-0.10775737269860104,-0.055646361849325594,0.005435399089463999,-0.17583974771214425,-0.11077374853681389,-0.19694172421067033,-0.22595541441985934,-0.18713406084969803,-0.13215492338895693,-0.17114637226124949,-0.08942346618454658,-0.053435253163297315,0.017373129469636976,0.17416212208391263,0.2772543422388186,0.1953149388482108,-0.009908323424715692,0.04150332279096999,-0.06734782594508228,0.022402288348145432,-0.0073207220478132395,-0.059281546948868474,-0.096657018597833,0.001861101650615017,-0.011645963099223864,-0.08756983529377507,-0.004691749307339175,0.014491856189573129,0.015926426408423316,0.002655812445818188,-0.0397031492304927,-0.07872253488343736,-0.23855207382474464,-0.30946001984664756,-0.21911663246611637,-0.17209693952776037,-0.18191213011028876,-0.08521931052298061,-0.2137652323244619,-0.0913627004859715,0.04368099244744016,0.10003232224326514,0.2168548058224971,0.1956119267085495,0.03967539263282153,0.06473672666339916,0.047804355972092455,0.08134814690338345,-0.020456110095014222,-0.03481658480446639,-0.06808197477916135,-0.026951860125223864,-0.14170178849485585,-0.07555369634055219,-0.09248189509513216,0.030526392142270205,-0.021768087374632077,0.0708725865935778,-0.02450179732650798,-0.15007945787212473,-0.2795024803760128,-0.23964089739288585,-0.19899657906235632,-0.2088181661134841,-0.2872773776377826,-0.26241407252775834,-0.2458329857688929,-0.29804417749361756,-0.23963113022268961,-0.08876082891433867,0.0986916044790208,0.13597478135667945,0.08361357988942461,0.005280188481318285,-0.018412572895345557,-0.06383536371608,0.01820604162701306,-0.110558470455171,-0.10875778389329681,-0.12136315694452775,-0.1314280558572358,-0.11528650242863309,-0.07242974427718755,-0.024818872781396897,-0.06713931642091964,0.02637493832453622,-0.004402207056575489,-0.18394110872407227,-0.3398348785557998,-0.26220303797034045,-0.0902878390577147,-0.21585031217447126,-0.37019628922138315,-0.3175189264885378,-0.45936034096089945,-0.3487119118857675,-0.3465782149332933,-0.12024313091410567,-0.001034568268046851,0.033323890301699646,0.04072290335212043,-0.024883253383266427,-0.07439593786309377,0.04841226729128425,0.022128360935812434,-0.1030640357809722,-0.020898831607020347,-0.16224714078535063,-0.10738048403664315,0.05103058474516315,-0.04426228935688614,-0.026533217959806028,0.09963343115597462,0.23549707672445266,0.11648365670522931,-0.01504114778672757,-0.2099866049084308,-0.1653564587567028,-0.2014179001780533,-0.1464132889421816,-0.25117006029912464,-0.29300712611045077,-0.4443014339227147,-0.3461995933906137,-0.31446248203258065,-0.10400477900223348,-0.11510800286628295,0.01563848439481665,0.015339403804358203,-0.06043310072089092,-0.03825238051896303,-0.011101854303250079,-0.08582501923911488,-0.10348802845259708,-0.0694812820293081,-0.020198246444093258,0.05322803860440421,0.07058697705117711,0.09325303434535948,0.12541127108936173,0.2288576956605543,0.31584276499886743,0.27753254988144854,0.02293455489229861,-0.12849664948840187,-0.13931900986267606,-0.0983827095254766,0.011911408342093937,-0.12226145543694156,-0.15015932867274098,-0.19240898007546997,-0.2765397687821221,-0.10812215341100942,0.01490662952495614,0.06035913278771083,-0.08131870930455887,-0.0632413544358803,-0.026110953525905627,-0.0831455592636923,0.0739200142200721,0.000722727609438712,-0.09419474618683861,-0.10086083656281285,0.002486296817204086,0.14611734332186255,0.1256908993260246,0.28750161125869067,0.3149709587125411,0.22840781820328215,0.3342912218650478,0.1303138845384366,0.07761986364335274,0.00697893230773531,-0.06196531246417941,-0.03941652749202102,0.07123427978714605,0.012232276789022594,-0.0950076623581791,-0.016871967944397805,-0.00045334294921693907,-0.0319327376120761,-0.0639087181562265,-0.011124309416621306,0.047366345599188564,-0.036569180745228975,-0.014126780810592519,-0.08108393594193361,-0.032332940304264896,0.07125036471314025,0.0771093135419506,0.05203201676459874,0.07380563180947035,0.1335574645891969,0.20006361576106813,0.18252566705737863,0.11233577920303171,0.2270755741394308,0.25278541918887365,0.17397145267990882,0.02143657151936709,0.009590959269232242,0.13145295686609487,0.01173913596956683,0.0261401605283474,0.10290049341034434,0.049592777846653356,0.054099061165394265,0.033007730795927184,0.044980492770806346,0.08704519035983423,-0.03881450205843813,0.05016775864263361,0.03511716803162839,-0.03946863408677036,-0.08580036289030199,1.6802266326130537e-06,-0.08293625646034544,0.009096168618837714,-0.00012002135158273293,0.09190149807887162,0.0551497021537379,0.044424964304992244,0.014916410685270552,0.10924615350743604,0.09372893901779543,0.10497794594214678,0.11811829344906824,0.08591815315915736,0.13429662042050697,0.13483233442341255,0.15758550910301355,0.0902697678611644,0.11522375493594371,0.03924769468580663,0.09320350277989778,0.0412573264943034,0.00940226559059255,0.09966931148926783,0.08145057230566438,0.055251508551333255,0.009200426659190488,-0.005579667875202577,-0.027429920134067677,0.013510060914312332,0.07070165981834947,0.004875503820876165,0.03364034271089749,0.07040423064115034,0.13622986229171344,0.026596228169146332,-0.03479057108969034,-0.022316057739508628,0.009085436591274173,0.15214692657053083,0.02118829672129198,0.13390413765851603,0.08812749747503035,0.10468898516794432,0.07404707879068329,0.06698496734811875,0.08640164679692425,0.06499932473637994,0.05133823988784932,0.03025570321873023,0.08688432026323605,0.17650937406080372,0.1392843151664528,-0.0011973751796231155,0.01036532865087791,-0.0014344469535829878,-0.02946119982413698,-0.07619649600271473,0.0077008329692940195,-0.03297226641561982,-0.0199971878198186,0.185557166671204,0.10915560291909614,0.07072728329496905,-0.09136941271938065,-0.09104226764257722,0.033120462334497475,0.010515049171771117,0.17387421786953142,0.09437110927085761,0.23841015194397816,0.1723884374015315,0.19287716168779703,0.13888101169453415,0.07753862691104245,0.11233767333378938,0.033054857231532064,0.031012710859640993,0.07743418296731001,0.10381300773919577,0.1405534205702758,0.07874266224892755,-0.06634872978830066,0.0467082712001508,0.010305471223741675,-0.07559170701481063,0.04914848472822383,-0.055720299657475846,-0.056845112339234026,0.03140542749401278,0.15426046877732458,0.12356806777097071,0.09668197960047512,0.025952150636716145,0.12276205243919656,0.24024885307651558,0.17877196042943058,0.2504607686302323,0.21917093131966522,0.16869366664207694,0.2523745050199083,0.060983373047271375,0.16935053024156246,0.11791639648800883,0.1515772274794869,0.0987572940760265,0.2435787066238404,0.20748185006039904,0.20001051682976204,0.06378522851151393,0.013362795605273394,-0.03493718709349492,0.02866786472603494,0.03811680791121196,0.024672542650881667,0.06154126907878205,0.06123384755841022,0.03330937002211886,0.032955682104731876,0.07837639663286253,0.03257232614615097,0.12077438712452712,0.15958013239581179,0.23368194510583504,0.11683200869448636,0.11547005458062991,0.2051945534462103,0.2618607650327904,0.13092080131139652,0.20090467235802284,0.18413283302447075,0.1312425503795342,0.08180017075752656,0.21615101054513905,0.1517770154728865,0.21478175689723034,0.1407322963522165,0.09229984532282895,0.08191208355517762,0.07348786147691443,-0.0375137541068597,0.0789448117948341,-0.054755239307217436,0.08127447152622037,-0.00010186814529400932,-0.0800788434146274,0.07404598827000063,0.08403730048153049,0.11205996362177952,0.012900671778931488,0.07578372651870845,0.08052853929493496,0.06311879148240992,0.03127727610681467,0.1702824778157825,0.04324244195922032,0.1407471187916697,0.14495484296395394,0.10128326677980604,0.2012336080509736,0.2420040877892302,0.30656323024112314,0.1796414700555547,0.16860341232385972,0.06776317525916215,0.008641472107167016,-0.04819295536486169,0.00968084690891342,0.07184741800077946,-0.06560569542050997,-0.03173124517950784,0.02575574173981546,0.013958661454729024,-0.08746398251873055,-0.04503050518457947,-0.03344165452703436,-0.03165004233585695,-0.017048870668346077,-0.09429571895884155,-0.13636875871654983,-0.1878021063267431,-0.05467298594525861,-0.20373403380651922,-0.008282259577090957,0.05343901737927796,0.13425559891525066,0.09473961495114681,0.18919814439955807,0.10907349994372166,0.20577663621194558,0.1601114727837337,0.09876765037497572,0.002065650911770763,-0.003531536698913391,0.02279102534032905,0.022176371196189114,0.039258786610504866,0.03527685669543192,0.0016003316170444665,-0.034729827955743565,0.04847047172052897,0.023941129362611013,-0.09489807869036833,-0.1412200158073967,-0.0479779011110554,-0.049758809843314725,-0.13599670888221282,-0.05949805634859476,-0.15613158068430458,-0.25904991389953674,-0.24340654039981455,-0.17132592153995774,-0.09893022934869092,-0.07513967158571225,0.04294817300995717,0.15118764473265991,0.07693824614734057,0.02694623075238305,0.06888151409453372,-0.014482470775368276,0.05648681696811525,-0.07112903567407206,0.0713728572995486,0.018267398295161028,0.015108628813124334,0.059382092355103146,-0.018474679345110753,0.0054233181596548595,-0.03996842075840901,-0.09157047321422938,-0.08683655286337727,-0.04327525419735921,-0.04693149807003635,-0.0600449103807131,-0.011055496031135809,-0.09337483589599359,-0.00543371668630919,-0.05075484662957192,-0.006736395222443808,-0.018538095656741877,-0.0842810932043094,-0.12776282844868972,-0.07386613849799875,-0.0671310509517298,-0.11993295392270131,-0.07121613814098493,-0.021237142631264926,0.04987529775305778,-0.047675337835379604,-0.00010520133866479564,-0.07890143230027445,-0.04878020809571026,0.03607786256454898,-0.058566408405486464,0.059488845508943025,0.07546142607558427,-0.007569174118381336,0.00825672675197826,0.019341101590081462,-0.16010752709546494,-0.1546470906625892,-0.05538695559776246,-0.1320388424295419,-0.1450816595542348,-0.05274987447952065,-0.1762436288008885,-0.09752799639827474,-0.13401246502107392,-0.17281699301730954,-0.20984381429320012,-0.18982360718758629,-0.1975279113025282,-0.137051182830837,-0.07103527609121472,-0.08388106630614127,-0.01399051787939422,0.07648568906037352,-0.04090749804618806,-0.0020589884206584862,-0.07230670769220031,-0.005038920392249917,0.06476153806135974,0.08267996335638023,0.057640111027138174,-0.025484883062138183,-0.010788553721483756,-0.04505423774785584,0.0010187393948697097,-0.06388068048775059,-0.021688162828454288,-0.13173574462545942,-0.057838967678004435,-0.15714430993195894,-0.04360028726505414,-0.09503889826920951,-0.08702403463674412,-0.15113354413041294,-0.11168164888682032,-0.15080020471098043,-0.0469174343256871,-0.016675151846204748,0.012265580807325432,-0.02378335363899325,-0.051772890911314796,0.06242824762116127,-0.045437011650340045,0.050204822306024195,0.08028923719137702,-0.07196909332520074,0.024767878616447577,-0.05917644574320704,0.013628339053686569,0.08217314480220132,0.05041621010733679,0.039513472657887086,0.013325174884797657,-0.030166346481102446,-0.05404819832969364,0.06724263534852921,0.07193197562921606,-0.04136884766560782,4.9413332399150145e-05,-0.08223808211572202,0.03836304663575877,-0.0523316872258282,0.005778917623443885,-0.02558125117138914,-0.06253720733240396,0.03714574966916662,-0.06473499017350419,0.06847398047185016,-0.05276451418690282,0.04089954875389116,0.06745631751225897,0.03416387767463012,0.055749062168667894,0.0374928092803918,-0.07380266038270283,0.048932155016648354,-0.07903935389299668,-0.03028858097959714,0.018187717837371564,0.00646487618410595,-0.05694556014672081,0.03974243070558588,-0.009017997507086952,0.017710581237970154,-0.007211216403738091,-0.03878983755694025,0.07968869000471926,-0.08133503539850563,-0.08456478274364178,-0.03360701486247957,0.026504271862702593,-0.05301964615673095,0.06750230706773473,0.0487979119619173,0.03813265820347839,0.0622717158064275,-0.05750575544486599,0.07579662941480071,-0.026767707347935456,0.006275642510360522,0.006043429877434161,0.012790326661296317,0.0501393512105222,-0.02123692078753537,0.013298102443383888,-0.060368248189791626,-0.03326479799033903,-0.008928366088782714,0.0638601690159057,0.041364183454118304,-0.01701732591213086,-0.08439166784346466,-0.04265242204328395,-0.04065555661762023,0.007664147074535563,0.056432541974717074,-0.04431017694803159,-0.0667777271260152,0.06369127930351962,0.03219270836925098,-0.005930954347006606,-0.021875272684991145,-0.06959032992236742,-0.05934971177861116,-0.08075385400485173,0.05193972505807684,-0.03573611840653643,-0.07346920583988793,0.08353737939450438,0.07292178535324456,-0.04874310611332815,-0.02426091005221979,0.0830720868870262,-0.049402194736244305,0.06783586250750219,0.05177709995213621,-0.009793837407280667,-0.04044882862336296,-0.02055158094086493,-0.018459216617723196,-0.050069310678892365,-0.05873834092400833,0.01950334523502141,-0.08117478627858071,-0.045963754795037864,-0.06056823360456406,-0.01938693640310176,-0.08775602005701046,0.009292304889818966,-0.093990930568954,0.008712719132124047,0.06707224075403724,0.02261118237263447,-0.023641977914415066,-0.010717008477996682,-0.030464697373618458,-0.050053392589233775,-0.02231864917526424,-0.06019679159163177,0.046433302436717,0.07383732548374118,0.07568847294258291,-0.05553195434027865,-0.08376881596451882,-0.08174460187021053,-0.02192903960359685,-0.008140922837461359,-0.05597441098612337,0.036207491751385754,-0.0064353438590330995,-0.09254338438144799,0.013108416880741295,0.025969302467561788,-0.11109203046920639,-0.09817331527215124,0.022045219556422854,0.001972862111522985,-0.10983819596837559,-0.10036051074317492,0.040315043355801494,0.03575039980775853,-0.022378758595843273,-0.02686377774947724,0.06219085295016037,-0.044778196511074946,-0.06846865929835338,0.05767364094454293,-0.006245086132527165,0.07579417912490982,-0.058196914349835614,0.0161813281945488,0.03660487998291346,-0.001431467069253985,-0.040382140821423426,0.001387997876462528,0.017512204117888164,-0.08710071807875829,-0.0890049097067679,-0.029353344523254204,-0.04668934082291163,-0.14281659544413333,-0.031842430475721335,0.04384449460301022,0.025658224093322163,-0.008776145235581153,9.69704674251458e-05,-0.08362723755110867,-0.05212451385048734,-0.07361712227070308,0.059440306444452896,-0.0883814589456199,-0.006272429121549055,0.0006796523199263408,0.05722577501269173,0.06128374304925134,-0.027775890203879255,0.05819124315303704,-0.06653351225316294,-0.033019706464985414,0.03879661473924421,-0.053161977196678645,-0.06326369233557015,-0.09236303989314042,-0.11469678382032605,0.022196729127447957,-0.08404605547228504,-0.13637874872741648,-0.04546762021010788,-0.12661268361032357,-0.04914171497286977,-0.13750292299878542,-0.09184930446706042,-0.022947792754307476,-0.05477770577279489,0.07078475805931618,-0.02274401434803435,0.02052219405423578,-0.007112608984221297,0.08708187089046643,0.051260745078764,0.010806919800934374,-0.02535471264387342,0.00757610841289789,0.05710092078324102,0.021792299312930138,-0.0676391921343778,0.028265672554234927,-0.026644109980445536,-0.06171972460587009,0.0006584167580579394,-0.03333690487158613,-0.004616231506564483,-0.012080925245581712,0.059341250949184424,-0.07163440799735929,-0.05157055811580276,-0.05609640388442213,-0.09475523829258842,-0.014990832188408578,0.046179060382279154,0.11789393942003638,0.12564713930518917,0.06621568962887346,0.11403326979900041,0.08888405695236859,0.06507137227819038,0.10532766451428077,0.0530233855501081,0.04664673143281955,-0.005596046113970337,0.04987258646365719,0.0038621461369328152,0.053825224229972025,-0.0017245983576005522,0.0025974919308864018,0.027617971520518855,0.012092820890672852,0.07860111287256201,0.05585095938450073,0.07920438660305834,0.08991560401427946,0.061523785738825325,0.035848383146484614,0.07036739542477365,-0.07531067635603934,-0.07371702289370499,0.04456895745512234,0.07308033400247081,0.17596870670840933,0.08574706147810728,0.1578655144041175,0.065340712231869,0.1384087573869387,0.07220916646788915,-0.001785803840182124,-0.017887563141445784,-0.0240712516523131,-0.046610112911359726,-0.011982367642011474,0.06658058292631548,-0.00470250814156352,-0.011776685710346742,-0.03225535919361575,0.1107226495205189,0.07188183887595753,0.1578899951506705,0.11567111080587626,0.1460514544292669,0.11493405454244993,0.07308229287589496,0.24049621625152318,0.02092181882596751,0.1304856071929305,0.09503675027866303,0.1592923244061556,0.09119369340606398,0.19536759459819023,0.15479420013076287,0.06217521752951012,0.09185911770313665,0.12097699412125545,0.14433091167747822,0.04140221087401455,-0.0009439829292950021,0.032268545501914866,0.08327276438008917,-0.03905917187781617,-0.07706975944246428,0.06479038695451816,0.008687326573948852,0.05969480177560076,0.04692545884993129,0.07004622566338398,0.10828212699077319,-0.00013013170857217822,0.15233711748256892,0.18374628500189977,0.09300406418671335,0.1440750711865655,0.18180863547775197,0.1849269681333206,0.05125638521415549,0.16037521951514436,0.10142273152483924,0.10086803699493581,0.08896317716837449,0.02661187424165176,0.04351391850987505,0.16204636444387796,0.12373328626430231,0.14212649982820483,-0.049306646115410295,0.049796235438299426,-0.07753217032328076,-0.03382891368332567,0.07948018103631949,0.11284565880844814,0.09932658101671199,0.02906542994981999,0.06096077974643334,0.07851466420340712,-0.0032356700881884105,0.0013194124844612902,0.09404656354156989,0.06113702607830371,0.1562554185102168,0.13091275971242694,0.21239089905913378,0.21376655291168284,0.13096063315706433,0.151849915186552,0.13834171890847566,0.25188372892169564,0.10327071786280967,0.15599276118692892,0.13077438544179792,0.03123139302285055,0.0495491387374928,0.10613089317054376,0.015261330958887195,-0.06430004082420697,0.08475164071072876,0.018079494225026808,-0.013719264445534642,0.0779783098442287,0.13643329819414712,0.13880581512378098,-0.02886175056988032,0.11225480612118843,-0.0029301005946833275,0.08411572399422886,0.049693761131168766,0.28751958743786205,0.2007681041833787,0.1946339293242672,0.07977883095426462,-0.02975298918958596,-0.1669624348633036,-0.027096475562659428,0.07707628922737719,0.07203110480334882,0.0680081042721977,0.07695425031368397,0.08630288048622109,0.1358946163279329,0.04066453306275656,0.09076941981009562,0.017089454333505442,0.044360479959508384,-0.011066211150487306,0.06343416682967247,-0.018498525649826587,-0.011357616445192191,0.08055029804577334,0.021171708780865127,-0.008467623696563944,-0.007401392859703484,0.15036469068697764,0.16962689251144447,0.2318956256013814,0.1646860926530309,0.19684849566747337,0.016605880932982396,-0.16315578990736404,-0.31947121541947354,-0.21676937546757985,-0.14748000246233559,-0.08055243249187412,-0.014749983732715112,-0.03331835133876905,-0.018938501224428042,-0.06082127875202495,0.025979349344287615,0.05335478000378363,0.07881756194737197,-0.02612894086140047,-0.002636719807836966,-0.07720300750173453,-0.0036215488367373674,0.051166257080858375,-0.04011258710298985,-0.021708544283439116,0.017724145973333695,0.09670560008179287,0.08738426421986367,0.08450570555545485,0.05125293627674094,0.08908541633101254,0.07642523510128316,0.05495751683707911,-0.1412532339991057,-0.3256732888036614,-0.4311371040642821,-0.437554786132511,-0.1709360283284441,-0.1591236152871191,-0.11292847552493068,-0.15340457965191398,-0.06686531780831872,-0.028535084895629365,0.06217489074258287,0.06212283510842426,0.0028684321575062222,-0.008211007305284778,-0.034523920499408334,-0.033660370209852644,0.046471584594143224,0.08315817945004919,-0.06734191986477922,0.06666602666492241,-0.004621995104878956,0.0717743688826103,-0.08326957683955169,-0.05653843808964604,-0.03185002775774901,0.06142475628476727,-0.11031743045274743,-0.1558709035419288,-0.26374383723697636,-0.4858157490409445,-0.34349297672389345,-0.3309733350280901,-0.22770366689027757,-0.1792135389480454,-0.1151315671519211,-0.12550587548683068,-0.03199436598509532,0.06106086022210324,0.04573205354728022,0.0685167699436527,0.04115294880712877,0.06945038637550384,-0.040916563683473225,0.04513744137695835,0.057709577398192255,0.02019060864470503,0.0077490894608288445,0.06572258275947586,-0.017922108548772585,-0.10613700656160614,-0.026932488299314775,-0.05756896158753367,-0.15147978983810223,-0.14678089902277677,-0.08924290979570147,-0.35755795244874244,-0.3816214523295404,-0.4545357441701842,-0.3326051573263189,-0.25461830810749425,-0.31486293697762097,-0.21448993742673034,-0.1147531266040886,-0.014426045761192134,0.07428500758989308,-0.010656688345051174,0.016973258960845148,0.09224200325884528,0.08656379859798378,-0.011656841251739563,0.00010436241563625077,0.061867876783733164,-0.018761889626257806,-0.06412967797896688,0.0793754325991191,0.04721207500066855,-0.10398111247573318,-0.020117517152174996,-0.024616116645740267,-0.1395247655782603,-0.10024855451006022,-0.19884635781282992,-0.176340585008341,-0.3922056002701782,-0.4168889840483087,-0.38948495640533565,-0.4166576287238037,-0.22513459720600515,-0.2872002952473421,-0.06377984185482503,-0.02960252785700698,0.04201611238481044,0.0035871176951456896,0.021042121858937383,0.08089971133584402,0.043816716372190055,-0.036334571437917365,-0.07609445699089774,-0.06345490311653088,-0.06346062293770179,0.019470816751214964,0.03552642436880604,-0.012719094070965236,-0.07270997000518108,-0.041914202325170104,-0.07307841304895692,-0.1712568898894433,-0.14060830690970036,-0.2491289444479632,-0.2129509273689895,-0.20758608808809248,-0.26733969639966515,-0.44450270602000463,-0.3461805200350153,-0.41748757937291386,-0.23086995204852367,-0.21049843474044194,-0.07073743375242804,0.03867319582452036,0.001562674469324315,0.011345822648494687,0.10266046653640705,-0.016704711995822925,0.018584559284161122,-0.006365251432817032,0.01113714368642446,-0.03725716735974012,0.030884631830637457,0.0746266035005954,0.01893692188233849,-0.035446422752570796,-0.053094109340670964,0.010537906201689843,-0.006834389960888339,-0.10450132002338704,-0.12287159301971495,-0.16481805139598957,-0.14998738616046373,-0.1693457415204784,-0.2587416357543416,-0.4017489744014574,-0.2718930283128598,-0.34378703188992293,-0.2850490123267186,-0.07264762746981188,0.0692118895495291,0.0802732103688126,-0.018783253604812613,-0.015261254940545912,0.05199245779313418,-0.07881876509125602,-0.12266873469111242,-0.097813966243915,-0.01584299519407117,-0.08284767714509013,-0.06529617998322547,-0.025507922849872137,0.06910151352726394,0.0753290165969567,0.06075332334928248,0.0687680748663117,-0.0318772783685558,-0.03714368251582984,-0.12452570530894116,-0.07383849509559431,-0.08843501803447915,-0.17945270888511464,-0.14979284928686334,-0.22996164175413855,-0.14116634556455682,-0.18999602076099206,-0.13978880598752128,-0.09418632138023969,0.042800079179260535,0.039085589056096,0.0380086822135332,-0.06391388238581716,0.03554377963564112,0.023870331327327746,-0.10895087981592823,0.041174181056027145,-0.012176782655372264,0.0378279567299188,0.05397763244373968,-0.023398497384375626,-0.027766782836564793,0.032112596177470636,-0.05825030639487287,-0.0071005377363287546,-0.02030554760279991,0.007799068177376589,-0.0826031234896288,0.0484575920478975,0.01659760063793201,-0.010752893353521387,0.016036953093225944,-0.012148207440412782,-0.01792108948375376,-0.035829926405611445,-0.0834434985249974,-0.19670930302170725,-0.04706342502467579,-0.12520068962068284,-0.14639542419501633,-0.10254826038635058,-0.07701219005962741,-0.007241258478305569,-0.03376588627642511,-0.055891977008715114,0.031656862179962095,0.032456812746391554,0.05979730313225024,0.07258320358990655,0.01835172775313576,0.059560155610487595,0.07430908016363988,-0.08968716961134147,0.053236238276249036,0.02181718045878699,-0.04117731335001935,-0.04285454920034404,0.0033930603283334505,0.13260729986860753,0.15274655202411558,0.14431506260739352,-0.01691889723276272,0.020158874697959617,-0.0030799769184829424,-0.024038602533713684,-0.01726802101795983,0.03599937357998334,-0.01758932563960443,-0.05694497067702035,0.015517408583700525,0.037034301650991926,-0.015170144404183412,-0.011604237464683198,0.04037202660798489,0.011209498713400563,-0.056684231560292515,-0.035342482159902266,0.0798720517772824,0.04628672857937004,-0.09432371698570077,0.05629299196943775,0.05598008850922825,-0.02791627393930691,0.1390614282565781,0.08024257218159586,0.19955416643159213,0.15854150026665337,0.15476089154579056,0.11843791367123657,0.1221774877475187,0.17100462461634436,0.0592072194791105,0.05698720787408588,0.07731297250087645,-0.05892540282855314,-0.0546474306407419,-0.11623637571480137,-0.009724450610184105,-0.05355601232979618,0.055493910154953835,0.023169008068782873,-0.03457579715534654,-0.028057613032995903,-0.01070838222053746,0.01262630087542306,0.060126895078321474,0.04025466609884103,-0.06347310229606891,-0.05908651201171794,0.017049186888967966,0.06815998210369714,0.045880200574852474,0.08133842585996226,0.19475644144540852,0.17012405872091393,0.2779837914075618,0.14775320636979267,0.16919074399265577,0.14322551170982145,0.2000741331624697,0.13227563574806486,0.06793982660297564,-0.05127641778725627,-0.07484470932527446,-0.102941770533207,-0.007817164198015687,0.03802097377333717,0.0577591861536698,-0.0720861092735114,-0.011632235015141369,-0.007224657369835049,0.025281964863281846,0.028296273633437508,0.0061648365246364766,0.049669053484484305,-0.020327257465658197,-0.021916724059438963,0.11458831869070184,0.110554350549984,0.15386090321649912,0.028267883236732492,0.15493293212120324,0.09955280286182654,0.046986006068772894,0.1406109969172853,0.17701422258705057,0.06267353168802589,0.00945240881612603,0.0007431327502447622,0.020876328600877327,-0.07807220197318523,-0.1211674802022456,-0.020520812015819286,-0.0416575885936309,-0.06556761771153732,-0.06510029609676206,0.04852819533389261,0.020948392133537032,0.05391633689593301,0.016118615027223733,0.04396894704894973,-0.01679501753682386,0.05359653975862543,0.057410583474740935,-0.021751106251924508,0.03829073417421784,0.0792463224523005,0.07143933162463335,0.06770030158212341,0.1497157966316143,-0.01312669032673244,0.0951327587856133,0.026358895370836424,0.05103394411947095,0.0002723229862174041,0.12424520829572491,0.07594876102491496,0.08493962971793137,0.0395927515853445,0.07331434464346412,0.006898038006344405,-0.08913638837840394,-0.04731673900882183,0.026125084471779792,0.05517670182681809,-0.07638512358066142,-0.07825744289958751,0.06580419807960584,0.0815535873176106,-0.07322971170651983,0.048278419829503275,0.08158634775183768,0.016714893307504513,0.05247197922744909,0.0572607214963354,-0.039914337887831934,0.10479588493392346,0.08743284297820582,0.028608064101527848,0.060261847184899096,-0.04538408294786366,0.06091345541991729,0.04215959712150284,0.07772528759651297,0.07458384212204576,-0.01721630357771684,-0.02466767411860814,0.05359438613822891,-0.03778445789682574,0.03157543933551527,0.08698359278522722,-0.010732354198877568,-0.05069468057983828,0.022088216745407233,0.036627664398466625,-0.044216389563437895,0.04130533707981993,0.010441060532589436,-0.0851416807153014,-0.010159409707619865,0.03504204056527447,0.06724522802508182,0.03187368532633515,-0.040083723828151605,0.07204121303374743,0.029223324686613948,-0.07709846586388966,0.09092686228155222,0.06701799067777903,0.0721292294475775,-0.008861484865177573,-0.05335758303252764,0.09566989593195373,0.02212928527923232,0.07722539535472787,-0.005217408041859562,0.007844292715847441,-0.05659227684117783,-0.0534023553397166,-0.010524843030712713,0.008323739925781247,-0.07080769052479836,-0.048725822095321523,-0.06769607130373324,0.09439406950404541,-0.02970827989853193,-0.03844383413778052,0.08364334922099476,-0.001972458512005999,0.0008202611843376531,-0.03973755455586193,-0.020298093625579678,0.003338805777499031,0.08183145350570181,-0.015328032195276847,0.07591956925948352,-0.05069521221133165,0.029924746467899496,-0.010481521636433582,0.07556941715231309,0.01585541272417628,0.051595109128761495,-0.06522465430125701,-0.0800921063289037,0.0545063039568939,0.03900145652321492,-0.04494488104128133,0.03129817217132738,-0.0066480477444314096,0.026810287923801596,-0.043424962915115474,-0.06343736911402041,0.026783082166514885,-0.062304893911442095,0.03648526099546122,0.012427767658041147,0.046678968673609364,-0.013767418303375523,0.04435290204106224,0.081242855298894,0.06761390041401523,0.001334722491365253,0.013215362040790553,0.03315936777414804,-0.05372552582988673,0.02788910217885925,0.08710477596276375,-0.03952310592032916,0.08056336919199635,0.02823076505952644,-0.06793585992919893,-0.04328267410958967,0.05010091226960101,-0.055060493755727836,-0.010881433995455238,0.018554807027840254,0.03007817212507276,-0.016640085857939767,0.08432564887151572,-0.05440433947417124,0.07732218853706237,-0.013577494624612024,0.057317656281020375,-0.013148167822666226,0.05559313033039008,0.012195980306373843,-0.07276943761719144,-0.04948653743765868,0.0793237049128816,0.06751939494268713,0.022416183752393338,-0.04116102670888319,-0.02933245461093107,0.10561722053399351,0.1099135357172623,0.05200866290231943,-0.0071098822368204535,-0.006530745112604342,0.07333855169005826,0.12217277140824077,0.07121289290980266,0.0877759257450044,0.09654721949358765,0.0627079249738911,0.018716118585025532,-0.04433983153027361,-0.03622828091974227,0.012109008243806969,-0.06366315147755566,-0.04268637474880039,-0.03897170638119218,-0.05150102341812294,-0.019506928385722152,0.07960066195609806,-0.035653251012802575,-0.029110572197659307,0.0841068659899017,-0.03596014733838158,0.013877501134579069,0.022449601045968638,-0.06056331814062049,0.02134845253940632,-0.10326275062016958,-0.07236260961250361,-0.08465002281450565,-0.10784726255394164,-0.008097071595199058,0.06583299897237184,0.07479316963138347,0.0005532657230171147,-0.020402197292011377,0.12283810399348383,-0.0019839342012660734,-0.012181008655995603,-0.0760621742227142,0.06945923682680448,0.00043051312765205135,0.0001434633889367464,-0.08300463078043659,0.05215333833457452,-0.01483198056794926,-0.038601418938829735,0.04505239573357419,-0.03723350246185506,0.0047341402897892225,-0.0068393942724608746,-0.13372988211153805,-0.17724764763162815,